,0,1,2,3,4,5,6,7,8,9,10,11,12,13,14,15,16,17,18,19,20,21,22,23,24,25,26,27,28,29,30,31,32,33,34,35,36,37,38,39,40,41,42,43,44,45,46,47,48,49,50,51,52,53,54,55,56,57,58,59,60,61,62,63,64,65,66,67,68,69,70,71,72,73,74,75,76,77,78,79,80,81,82,83,84,85,86,87,88,89,90,91,92,93,94,95,96,97,98,99,100,101,102,103,104,105,106,107,108,109,110,111,112,113,114,115,116,117,118,119,120,121,122,123,124,125,126,127
MG63,-7.078626503530889,4.741185154830467,-1.9029214064104114,1.3253856703331721,0.3333492825865208,1.22713065586905,-2.0001119672211867,-3.0713084942282998,2.1884429858514007,0.6386093956500121,1.7990306473351916,-1.0993604312831786,0.563140494550084,1.1675330732647164,0.030895149476108864,-3.134163930136577,-1.277602039367213,-1.0870628528949786,-0.9620199454595936,-1.9971683186108087,-1.3589208272172373,-0.3887867481747189,1.3255056844378974,-0.8250569975358204,-0.22754702373942473,-0.7484433358837153,0.5972589386278562,-0.48428551855268304,-1.194704803526422,0.05146279058536616,0.2446692699038439,-2.166140176424279,-1.8425848439209604,1.5155020029371566,1.1254095143131804,0.6314009870848984,-0.44991715365810736,-0.18232227158065348,-1.318971878439135,0.7572601733235245,2.985813099350282,0.5318897792451054,-1.7839632968569414,-2.2795149630805027,-0.2465730981416999,1.8992620963304037,-0.02867840376684442,2.3389494500992165,0.7392199547846571,-0.9890284174604509,0.9292024504092349,2.5261337276525015,-0.16472731374185112,1.157866738917364,0.17276530330182743,-0.7041976147017998,1.3120390169155243,-0.6766667488853988,1.6342581427210519,1.6631442916099237,0.7651782142643248,0.04247907520201918,1.0714307945735058,0.9968221564392947,-0.7365313364754802,0.41929263562859975,0.15742799565161272,-0.058588996384670126,-0.8584270514394285,1.314245448140908,-0.3004812889130633,-1.3142915866771818,-0.9554434949266155,-0.30559449715999143,-0.72309737511685,0.1535426909614397,0.778328196036882,-0.2016310483792386,-1.755802866958959,0.3914177931039783,0.9546987721958496,1.2250276976743164,-0.7954066031713851,0.31857474384214235,0.09044048669781395,0.1669390427902389,-0.7105614515253038,-1.3710899111236807,-0.34867075070876696,-0.19475382082622592,1.1411032356184052,0.8676005310164274,0.3317538051471732,0.011909531500927288,-0.205574857847091,2.2557012857379664,0.06993829381055872,-0.2144266203672119,1.710014352592166,0.17486325963113053,1.742772930943018,-0.2682121470144033,0.28355486298775195,0.1110131176493931,0.9750804296709428,-1.5055012690015686,-1.0608936677513576,-1.1468306400397066,-0.8032107920924405,-1.3148257388769578,-0.18290034213771933,0.004255795984089355,0.15559844225643338,0.8343271180269796,-0.606872118751505,-0.30660403774302486,-0.6881027404898103,-0.8990498432089611,0.24522951509781699,1.8818098558267373,0.1599278660980267,0.28565561561101743,0.17133597621520025,-0.2611604364732594,1.0274407657631108,-0.36439112312358257,-1.7201343859008142,0.22787297575347398
UMRC3,1.1088747329666842,-2.177045530459625,-4.444787434209649,0.9349634222807844,1.7749530434103094,1.0216755659817374,-0.6450807115378215,-1.6581847437028714,-0.4618789266606031,0.19338081819438513,1.3515494761952878,-1.122626236705842,-1.5093972356110412,1.0804196445463674,-0.5277913175562288,1.8433930948639856,0.07049478220762803,-0.028231944980893615,-0.10118975692556872,0.4531914951411123,1.8576236504054957,-1.2086489260067923,0.21478755789173173,1.1101825802790266,-0.24746194946775588,0.2537189511509736,-2.1292083208860886,1.6110007404529743,-0.2794253247963483,0.6980787524068818,-1.1481539400866387,0.8918709140436192,0.0901510953079619,1.0236138674534154,-0.641343533079197,0.6711235994544617,-0.8204500729482712,0.21814583943243435,-1.5966504862991602,0.8569858269764103,-0.767684219748604,0.578195069324438,1.4052938331599039,0.502076041244207,-0.3031816489999443,-0.3910331579384985,-0.9354598847230698,0.042972514395712556,-0.045134744857656395,0.5493433661076195,1.1676265847630267,1.1047063590798263,1.3400570293242664,1.3950917859078935,0.794259642609419,-0.8624117797387014,0.6575506430672775,0.22700328469650533,-0.29114801727629636,-1.3419395668765401,-0.9391793926766046,0.3888302577643408,1.0116987441112233,-1.2376663715036809,0.6141715628401043,0.033245212475590466,-1.021467641237025,-0.2055514634259538,0.561317887220304,-0.8207600991782856,-1.1612768439522156,-0.08484111138123043,1.054362187917645,1.0017979286263048,-1.1026204482518815,-0.699447528640503,-0.4315088764531738,2.2602149239709957,-0.6869385503501136,-0.16538350270633317,0.36397449832716033,-1.4439665487300417,-0.5149739603232439,1.016150426886504,-1.3169462763509854,-0.1985689434135553,-0.36455518366371487,-0.46514643502302294,0.6382816733640284,0.851225750635841,0.5820388637965384,0.5628105878991795,-0.4459786231915798,0.5522535178179955,-0.45958025404987674,-0.1400551524726439,-1.7573617105960169,-0.5385058658453604,0.6587594013505824,-0.792337833318768,-0.0177990595558276,0.2939164410532148,-0.003077784682243406,-0.33912128355144416,0.625000924222387,0.02150831742034435,-0.470580555940926,0.05971132551926113,-2.0618813360695776,0.5840637018659358,-0.3731367469093035,-0.2616169870537226,-0.35345690359951215,-0.7084125164884773,-0.15358286069654467,-0.35829556739623564,-1.5298665358679393,-0.16399775142763784,0.6905587739516612,-0.010012756669205172,-0.3855023016822358,-0.7923677220453204,0.5551083532335124,0.3222950003832821,-0.3680482188238247,0.8341353885847619,0.3287039244745507,-0.8934549928112488
WM88,4.381660939627904,0.3429876670074883,-2.8142091499557407,0.5000732246452957,5.821026337666047,0.9539699732181134,-2.29617674825936,-1.190059733297992,-1.2959736475317187,-0.4708909500144276,-3.514940539045058,0.4517616925000538,-0.9640117829588695,1.3407325376989485,1.7731860719208177,0.2261078005867364,-1.9896448983902244,1.168971355244723,-1.5862683554181545,-0.7945349604971494,1.4138058869887065,-1.3981790710791544,-1.0020901630586763,0.9707054731722964,-1.044284902521583,-1.6912588693203605,-1.5311263435596585,-1.0133862265288738,0.08069609695168581,-0.35385081829034104,-3.198840859252267,-0.34189630359136153,-0.8148412722065473,0.016256500638746868,1.4126777099027052,-0.2743830099926092,-0.7876476755820344,-0.16442743001368698,-0.480312018858859,1.830756200290399,1.1143872397417642,-1.6742299465730632,-0.07367927508827493,0.6215079884705567,0.1900778665195288,-0.3529915872469739,0.6360801312908845,-0.3994461466684778,-0.20968523866451863,-0.24743983794272992,-0.14921474658220335,-0.5880275269575038,0.0739197777302624,0.11426418788860725,0.29389889573363864,0.7762235432886684,0.05048095110861953,2.4222289428665094,0.2915224334409683,-1.5878540649050885,-0.03111899813899416,-1.0817584541705831,-0.25249956581000765,-0.3998553095769956,0.49883093748142804,-1.2733178060856272,0.9209606373843108,0.6016477269130077,-0.2860409430458895,-0.575049531815135,-0.21700121244544643,1.295911328448703,0.2676135523247844,0.7945937912649318,-0.6397465708268624,-1.2401623452566588,-0.2631431661228476,-0.759292834581628,1.35389259182427,-1.0561087368684139,-0.7324383396789047,-0.13992701784967707,0.7359120646601126,0.007123854129338343,0.4878707108359025,2.942102576145429,-1.1316244475354043,-2.2355434013510687,0.020278014449522694,0.13519702033842845,-0.5952917560269644,-1.4536160538718121,-0.7840661786396261,0.7896279442952225,0.8063853758392847,2.8922565942283174,-0.29586785284507244,0.1014000566779058,-0.1681959755306784,0.9190330836662555,-0.5026787635634014,-2.0784016910679095,-0.882793151762826,-0.8475135643289169,-1.3328461251002697,0.26404387216847336,-0.07001662753578705,1.9620406428676607,1.1283028752001338,-1.4037842144441373,-0.5735464654700574,2.001288776453253,-2.3287805697348216,0.8738457791201262,0.5398897103657697,-0.27123489615183055,-0.19331205318213465,1.0253006388750947,1.2101656521507584,1.9397851977998666,2.804716101722432,-1.8015158387002286,-0.5907320981013774,-0.6389264982547915,0.1073703213433801,3.145798845822869,0.9669439580305506,0.7897339103932954
ICC137,-4.85255335076621,2.0956872305875995,5.38870240541997,-2.469242174366486,1.2634435345615183,-0.3740140665433716,-1.4547942802622482,-0.34475072943071067,-1.1945851482524688,2.357872994767308,1.138399950766139,2.9185478870970383,0.195602229847459,-0.31304278296294,2.6365978579986566,0.9140149642242742,-0.8128505644764029,0.7750798272573364,-0.857827223592671,0.42042039876127646,-2.9856966251175896,-1.888415719350132,1.4099011721412995,3.4012891230108466,0.6518666866172993,-1.8509657351628164,-0.7615431517430467,0.2557938908161352,-1.3039980970566432,1.1722016275634948,0.5291210471618149,2.8689229434979886,0.6668271966214151,0.4204302059527587,0.7547559192077277,0.11124166529345193,0.4301492176935503,-0.0026034540639452955,0.9979748428606608,0.09695927144639996,0.3522929675323708,0.7050787036166292,-0.49859758350100913,0.37395409600194013,-1.2425322421013567,-1.6476752832223016,-1.2471602321801762,0.09017199808342773,-0.04374432018558831,0.5219233840017746,0.09344256177785813,-0.09718190662463393,0.3630410859712477,2.7944093073350005,-0.017243243249321583,0.45834781549374815,1.9682096956908925,-0.37457901451708764,1.2280468806069038,-0.3909624038048975,0.7106796262607877,-0.31795776439644785,0.40203299887845684,-0.2631367808503908,-0.0912246710530162,-0.7163984346355298,0.9870188431033635,0.05369743903030357,-0.18559831429391896,-0.0481502311315284,-0.7989658519489307,-0.05417040459621083,0.42007147770715597,0.02764385967540698,0.8376460480432205,0.26343836693524675,-0.24878605203883283,-1.4496800750096044,-1.0438927925484665,-0.019844259841786494,0.53628099187131,-1.4464193364973816,-0.2916079184631474,0.7149732968454654,-0.16494408222992724,-1.5945249272906088,-0.6558283712683601,-0.9289721203545918,-0.04521881894250603,0.39236591369554474,-0.3105414998944429,0.5089462283033777,-0.05400762750351506,-0.18839375631460312,0.009341259768184356,0.8338288195373279,1.191690507282746,0.5583366575107225,0.8068042272944241,-0.254513413447457,-1.1395919268844277,-0.8193653121257214,1.1004646839498005,-0.5449794535105165,-0.05078934948116042,-0.8276241258479609,0.5823704219842297,0.13314529348648685,-0.9568720878472915,-0.3261676734209781,0.324505930346137,-1.3340036102540533,-0.37796378488306165,-0.02990652008222439,0.301131126679737,-0.7894371912795837,0.5330294648391842,0.4262299057895786,-0.8235646507082853,0.25970487034934736,-0.351261837052171,1.27353655411726,-0.272887013069617,-0.8497642888469652,-1.2881475407530254,-0.594020956077578,-0.15294835428021203,0.1886889847889195
LPS27,-10.36043792342935,0.4828471973040206,-2.212168832014549,2.2060162205974456,2.193783108703339,-0.5130990434589117,-1.8813650852489276,-1.0607112360069084,2.790207901836688,0.03692688237290351,-1.1625653513837224,0.1817588173172965,-1.600828367760155,-0.12388911457367209,1.5909181691937353,-0.3679958482087872,4.284333460596494,0.8964479526482511,0.651204602815573,-0.46053158254469834,1.3790649461726265,-0.30559608324646925,2.308760481928592,0.25568447368531555,0.16745057879273417,-2.8347923936657375,-0.09502768916049055,0.05516096585010543,0.3098368221529922,-1.5317948659397154,1.8498519689178485,2.50546645818441,-0.43232336789272996,-0.760382021283388,0.31207879765848867,1.0578789683035834,-0.8392258774193911,0.877520243280037,-0.05091143467288347,-1.2124130875071317,-0.28209206391066316,-1.5291399138106045,-2.1041698469113825,-1.9567085427287423,-0.4333948850044172,0.6621504728319709,-1.6046462662489305,0.49250608897067555,2.56919083174147,2.643983574727139,-0.5802445303204985,2.0963693504651397,-0.018814656876185495,-0.9387621544168332,-0.6487324375732212,-1.1681079121738527,-0.33391320423373555,0.24274105976680957,0.1896511577774848,2.0968169199164017,-0.5303582978283897,-0.3066614790544084,0.5106220860455952,-0.1071150532262685,-0.932774455746341,-0.7243033496406758,0.39380258660649864,1.0582152157241225,-0.3656910079572036,2.1508585225490995,-0.8745228075643452,-0.30807541857236437,0.40382786080894767,0.7921280444832962,-0.861074510634533,1.0825224029614453,-0.2629846171648603,-1.8167899167118347,0.24153152451862434,0.1912344460145361,-0.5194426417870618,0.022663062889682145,-0.3587870764101302,0.3253984009389262,0.2401120710758854,0.2713757169988446,0.8099805875720857,0.5057770741519525,1.1983181576337263,0.6108353379821251,0.13136007366896676,0.2083516373043073,1.4412862226337937,-0.23781182063451733,-0.43665268044465094,-0.8509336264228704,-1.0063906836320073,-0.9082943234605139,1.1835849896152946,0.2032999067948431,0.5377030476312776,-1.4944195919746006,-0.6238234247845986,-0.3869943715241916,0.9301547914346808,-0.23410054267883937,0.7106726884535355,-1.075813785017892,0.9611167714587945,-1.0860888229002512,1.1504090313480397,-0.811765144046803,0.020253024729423006,0.11611001648915079,0.28344099599040434,-0.4951659614530428,-0.024387850950648843,1.3131296050069947,1.2783221166317,0.10041346859820387,0.42127380189751024,-0.311967196534581,0.33312111200665584,-0.6891849519720521,0.3951799522031681,0.528642558811512,-1.6387525404363188,0.7408785039427263
639V,-3.506981519044621,-7.649106112065154,-1.141084136128078,-0.3530184299079675,-0.1910617150293263,-0.5385871731121495,-0.8931956397556757,-0.9176781237961884,1.1924422115537088,-2.1048769839144734,-0.8003917890817428,-1.0392201339245013,-2.4986600007342683,-0.1015661570644476,-0.37466870218304005,0.9612266156141406,1.4062774051171634,0.7010871883514137,0.9807379275676018,0.49152888917913257,0.31962094964298704,-0.9124812935579668,0.034918328236808786,-1.2993253424986186,-1.7533738380493777,0.6512846576237811,0.24825741761485978,-0.2887713094630248,0.6937826705358685,-0.26602012539523834,-0.6849100744392602,-0.44750945473267134,-0.011274014773682634,0.7978206870260948,0.4403649016823551,-0.7150564126303055,1.0753343431914202,0.22761105495353554,0.6803963725767382,0.19270285963596778,-0.7237368661173944,0.19260438630921656,1.3289133550909338,2.346300247046682,-0.45155037079558763,-0.6199216344476904,-0.2116740292650299,-0.8652091876995235,0.009009325007450818,-0.18048165512252984,0.3165172875304354,0.5525676374538497,0.20779482987295161,0.9334517460421387,0.5029994439842722,-1.3018196993688487,-0.9667866216468048,-0.1280312757134235,-0.762441930378145,-0.18468033400587922,0.04649572454630645,0.8218391848624268,-0.18234781829488775,-0.28235357733096206,-0.17305246705278926,0.24817428235889807,1.0470164158878603,-0.11953491770329354,0.31481184686842045,0.20622848004821934,0.44277928810925143,0.9081368214001068,1.0013786157973534,0.48122579866625903,0.416049303748152,-0.4250932294973506,0.22352572336031662,0.0901569820158688,-1.1861124532215146,0.6775356392755859,-0.3482064875940772,0.008655536266177145,0.7350564091633245,0.5033523329465738,0.5728471870529208,-0.7975578151875795,-0.32679332445890863,0.2455303741211699,-0.8362213653769255,0.3542442424972764,-0.4232177796662328,-0.4011721463594211,-0.4704228584352461,0.9326905144340927,0.048738099051164226,-0.5477639892069734,-0.6050482318389709,0.06082486918737142,0.48321827619337115,0.7097138697212639,0.7700518690066714,-0.22594426646815616,-0.08078441042669456,0.3265513952714234,0.3569759241163534,-0.7865775475415893,0.6383393649270128,0.09257827149245221,-0.2811997791442051,-0.05583329074059341,0.08974287167884948,-0.7013162422932665,-0.16744765460173164,-0.20040700252348875,0.8195799278761341,-0.20296944586055699,-0.38590941674839613,0.20546330308625352,-0.14620309662531664,-0.38526723896937226,0.26265517832521923,-0.40974746043169896,-0.265626893222489,-1.1223898600328701,0.45407135523538894,1.1609559480080436,0.3892234018368115,0.44665476047356056
CAL78,-11.069020956790572,0.9919606429231502,-2.186414218319053,2.4416737654804277,-0.7462837746031182,-1.238512414044792,-1.2911472656344525,-2.4058994997800296,2.3700830190632667,0.849338419425975,-1.878487283949002,0.04381139809890392,0.03373554333712857,2.2939316143744692,-1.011323699216544,-2.7325382526515805,1.1790611378825302,0.6371380704806846,-0.17196704179390576,-0.6093325895718548,0.28800122769170766,-1.8784725694527589,-1.2083953982425402,-1.5155016288316765,0.555676898779836,0.9099533363533421,1.4629913640632315,-0.7855185952868597,0.6339348166374715,0.7342456008897704,-1.205485898145929,-0.9667708738195274,-1.7545552614095468,-0.9437316281266714,1.2591872469355507,-0.376436508282527,-0.6361425586556295,0.8029613717059502,0.7722406158100921,-0.6236648310734185,0.019370007628890414,-0.014765316748373725,-0.4700568986978361,0.9070876102005537,1.0197693103467096,-0.09918467776816992,0.8205901621193885,0.8292415757136499,-0.9476000524524466,-1.3944601250833941,-1.2438518413405542,-1.035993247935317,-0.18318421312531658,-0.050862700499018025,-1.9114048963060581,-1.0583657691714745,-0.49922803101938723,-0.2529732985821069,0.300012182927147,0.31804254150294065,0.13931401665769827,0.05037816095185879,0.4425677066684981,0.61643437668174,-1.14342221040114,1.0638220866752903,-0.2356476735246613,-0.567939021051514,-1.104448322709135,0.9979460451250519,0.6778939327495531,1.0151767134755196,-1.0454179852075252,0.03771404722822579,1.1229540703194936,-0.7662114048903548,0.32113759246339124,0.21528149848088118,2.1395072887755124,-1.3245817283170012,0.5738538733934447,0.24645315914189597,-0.4322177862233265,0.44273820641158523,-0.7363433616524276,-1.850326324171763,-0.6642903570105299,-1.4623699778254629,0.9313706909930386,-0.7706096904294866,0.48246357070778706,-0.48043319751700503,-0.47906852311798337,-0.42350572382781193,-0.7735209043035226,0.12174522225446563,-0.051521993635436046,-0.08514041820589957,0.09969673406505904,-0.977067941705603,0.1886987772729441,0.3661048888215763,-1.5502924480451525,-0.6315895573474285,-0.8347236183197762,-0.2432521119491369,-0.5974930243651967,-1.5791943140136602,-0.8921459010215548,0.844450050301877,0.9569919130876848,1.5846598603714024,0.061205646815234216,1.4272582871466546,0.5429777762494002,0.2991746632152378,-0.34164394879185356,-0.1030147444202237,-0.3627908161878562,-0.02077623850379483,0.08854966191989364,-0.43072141398466285,-0.5437753173874891,0.4763525433297736,0.801411192629101,0.939233034397606,-0.29217427949197544,-1.0798548674731034
SKMEL24,-9.198523987648194,2.81710115545253,3.365474723671903,-0.5553043210435038,-1.4449137239693814,2.2202960948545423,-4.071735707012525,-4.501799497779068,-0.7990815176302963,0.466720102032579,-2.2881633167522857,2.2784168417038235,-1.3677519756634515,-1.6332974912768847,1.9434865937792913,0.4694077505165401,1.4384367351405123,-2.0945258885554225,-5.50830121884998,-3.555049538442333,-0.18793962485071006,-0.7092859612926622,2.568332788362509,-3.0313756247953387,-1.6062891141979618,-0.7065508945856611,0.5042508404470903,-1.0422164736498118,-0.7411904427929162,2.852077916611902,0.7336527617621579,0.48739068472708047,-1.0402446868156792,-2.440808443763803,-2.814526580425379,2.713804279480484,1.9613975210828662,1.5469621134954086,0.05965128218564751,1.8601916455449365,-1.9169446621855037,-0.08640938953544829,1.5100798861272395,-1.252482855792762,0.7537403456484966,0.624064214635771,1.330020790939724,-1.3047227587106058,0.5523684341274956,-0.49362625768549057,0.6647245706828724,0.14649982087137925,-0.9275032520865693,-2.8918417902218625,2.939490424485901,0.39225660656106914,-1.3548398191742215,-0.7757172208612891,0.5485607547074671,-1.6111588904251546,1.3843426494000213,-0.07839902016539979,-0.23996541858915768,-0.6778724989974783,1.1672077952238067,0.7105340237332237,0.7154543484319332,-1.4058156066263925,-0.9947332198997746,-0.037608814952497724,-0.31318425573473246,0.6161471148231504,0.5737886090222514,0.44718204653114263,1.4441495909949775,0.3564099200258166,0.3788321872060228,0.26271396408318326,0.18753860071959086,0.35830510202938565,-0.8718989180670086,-0.7397297463645165,-1.1250050214811664,0.9797842802301232,0.5666963110647104,-1.0725821905987947,0.3783773744310471,-0.5573712694334505,0.43133462673102174,-0.5054094594519308,-1.0023675206487577,-0.4467671209057739,-0.49646801912384453,0.09249304558683007,-0.38757859823321306,0.4947432987450808,-0.07595901684653528,-1.045181272303432,0.26986927124590476,0.13331126905440382,0.034794124430533764,0.4529070817373126,0.2519678924627449,0.3114176399779268,0.2728510549985976,-0.27613666493746686,0.09707611416922816,-0.44068769644359995,-0.43378908015935014,-0.6289098488905533,-0.19485864431199865,0.18757237774004606,0.11629129586369963,0.29571121385435,-0.7396825644424895,0.16442708411558216,0.04141140318125571,0.6911231488736456,0.046902323511375105,-0.6643222874175042,0.15010984754061546,0.207516466497129,0.7765581668685413,-0.26599144316836243,0.4458396980874005,1.1102330145231376,0.2969225046479324,-0.06352768215436641
HSC4,-2.5828552368130984,-5.035034318827149,-1.308111655940471,-5.9702772620009785,2.67742389457784,-0.1294468380421501,2.0517759288552266,1.7538565389791463,2.217728507111487,0.6806182037686168,0.7675718208389034,-0.8596863460993479,-0.056332623883014944,-2.1692129615929265,0.17599912497567782,0.032748650406672526,0.8344127779978354,-1.2848368890775719,-1.85925017522025,-2.9001225294800856,-0.9101942873330863,0.8775577012800194,0.6118743196104713,0.9051480102530323,0.9154487725886838,-0.04466535081597535,-0.029720719388770002,0.238659979914058,-0.6168116334502145,-0.7393131189600706,-0.6623112629625282,-0.44276970928131126,-0.26667293812447834,0.7722387922648781,0.09695530457573959,-1.6845068387588245,0.07546865019849791,0.5875720557693754,-0.39198890947025794,-1.1778965467842861,0.2880417363704039,1.3324424303402844,-0.10147833669831248,0.4629723001544427,-0.03592611306119623,-1.024340013001968,0.40571306040792443,-0.11841386444864728,-0.8799729641563169,-0.537784599523002,0.9183829007291822,-1.0277901008035042,2.0709204780535275,0.24080782174340457,-0.746996736527074,1.1473622276258078,-0.29503677794816624,-0.4101730140116219,-0.3157763307631075,-0.6077509403648907,1.208621545493455,-0.30479726206068214,-0.12287572743067583,-0.20251330923379743,0.3836373916927897,-1.6793797029249449,-0.16243597460374878,-0.1173261541029668,0.27311266972121717,-0.15181457838194473,-0.03927700466695032,-0.5859433195669983,-0.47171161375083326,-0.24420100769783443,-1.406806673599454,1.9061563167916449,-0.08166785445916032,-0.23341736184039338,0.2246044213258033,-0.0802736290156139,0.23582195150566101,0.5399387508651328,-0.9238385963346873,0.8982388643889443,-0.9364040824077028,-0.3769637401645183,-1.0393891405904567,0.4979247481888455,-0.06218676550880146,-0.6379766938600869,0.9313024166309557,-0.8915652362743559,-0.06970339947153643,0.0015321157613887395,0.33306575525084586,-0.018446390809099635,-0.08370993168904853,-0.7102375706355342,-0.46117487370227317,0.6477770001395813,0.23513596509509835,0.8787511034923051,0.38183072569245513,0.8521023889440634,0.1428255052615128,0.16183397583960307,-0.16366506776263648,-0.10264207414669763,-0.7295286021322236,-0.5441186395771163,-1.0001108867446429,0.5023067944520407,-0.5884244912172384,-0.3612881441247426,0.23964402230381274,0.4145960864972038,0.15813702357941944,-0.2659185106814909,0.4844105527963545,0.46600299394111727,0.07496666729093818,-0.5572871455567074,0.41793673633929473,-0.1043487512264284,-0.431211543367571,-0.5225140314192585,-0.20504237787674867,-0.41510691083232465
JHUEM1,17.921930470455198,9.26385816597763,-5.4535099475734174,-4.309379693587957,2.9132322235630856,0.4452016034586789,-2.9314056893975664,-0.3174201445062594,-1.2852629743802086,-0.1324994159873618,-1.9102959834961288,-1.184760203149374,-1.0247246318686531,1.472312220309501,-3.4341751304309263,3.00451994569795,1.3283214334008733,-3.3658075038135276,-1.7008543080089538,0.07339681708026584,-0.30958817553598267,-0.7010696738593474,-1.5036412935548626,2.0423076895816843,-0.7393866987084157,-1.8177658067597946,0.33138237374997176,-1.007042381071208,-0.05957883712498929,-1.3258331862875634,0.1481092699418967,0.937183287267626,-2.143191780236938,-2.215628613222177,2.0420982016376588,-0.41579453290792007,0.6699299945411243,1.8226219972014723,-0.005746145206433848,-1.2202903028331749,-0.32508626249573985,0.3009739858001705,0.6916492570960661,-1.8944548588906345,0.2696944780153592,1.141350603907665,-1.3734883068415429,-1.3385381056147936,-0.8725935239748724,-1.2580406775204491,-0.030299997768439065,0.9622251711188553,0.15492334163897165,-1.617626132982064,-0.29110401088336785,-0.7838349367699806,0.025119899232044662,-1.2022601815474243,0.44258884388945574,0.5357905909807918,-0.1769821810705321,-0.555880351752732,0.007632071354086396,-0.6135587088581022,0.8876609331931107,-0.5064473028926771,1.1307257772469854,-0.17070101591926548,-2.1037583861490816,1.1593417771238526,-0.48213143733973046,1.0769595545810893,-0.39707827840677873,1.0569119818462174,0.35312681608746627,1.5107671414593358,-0.6172288674652646,1.052001036133061,0.13435130261991024,0.4949613728188669,-0.04967277055555339,-1.5553894930059664,1.0160363502328629,-0.9918816306423588,-0.5115409976346146,-0.49119059141378774,-0.7915002281202401,-1.375905436849258,0.016330205496373647,-1.0329831231635644,0.6128432085156307,-0.010668298386309732,-1.1085861199166185,-1.0524933792725018,0.5895167068834892,-0.8330312413423389,0.46185380471887805,1.03787085161073,-0.6464890275552048,0.13193155672358062,-0.20544842011920272,-0.7461301013710564,-0.25058626918123406,0.3532659561927254,0.6923404690041453,0.3377186815366065,-1.2934995779015395,-0.4859118347701455,1.0780004597373982,0.978658335407623,-0.5251721240068101,-1.7187361068230522,-0.25978259555787003,1.0784540429787277,0.5177234104905164,-0.016257476400545617,0.4002610641970605,-0.6080863438435609,2.0686747661734097,0.524700985828824,-0.32156185964022105,0.16642278002378738,-0.46825005688716903,-0.325848085489664,0.8939375670401342,0.4815856236896039,1.7910538897021198,0.23599055104858271
LMSU,-3.0439740724085596,-1.972397253730893,-3.1064094949864627,0.9318218716976298,0.7869297820736777,-1.0679409038850436,0.8083007889925445,3.081826113318176,1.0593532146217606,0.6607439736979764,0.5436758854067119,2.646762629242722,0.5440988520849496,0.3446088756875275,-0.23600677421743094,0.310252339933078,-0.0434985147593579,0.5576147563075018,1.3414515770603612,1.1367977239139824,-1.1755527252169928,-0.32407902908290726,-0.29528435203405734,0.3878074449790783,0.12379138381733744,0.75533785569513,0.06119922761170545,0.3869185065100076,0.5575483393390035,0.7413200471330905,1.2791342786071094,-0.3646851164746307,-0.29285964954244686,0.39681298819512656,-0.48074431675416773,1.4394032593589736,0.6738964979021046,0.2790989289113561,0.40032889285640283,-2.1314468536892908,0.3137101940133191,0.026921967556597738,0.7782772314229998,0.35139776012269286,-1.6412414629255536,-0.6975271209319811,0.3466734462842305,-0.3095559659037964,1.1926206144710985,0.4415493689666378,-0.1389604273196024,-1.2842269840116198,-0.5698311360374733,-0.2728434783371377,-0.19809424637860287,0.5652430758080891,0.006331265812240374,-0.2406050655841579,0.7587488193045177,-2.015967529368699,-0.29589703266615774,-0.8364615057700253,-0.06354410078383493,-0.46561279617597856,-0.10983554951567606,0.4087627728436427,1.0105983578619118,-0.45451733147661555,-1.50592911954515,-0.9332994245288548,0.4469081953076168,-1.1176520759856265,-0.05190235631021711,0.24623370786729362,0.005320415310920762,0.753851433035777,-0.208743304745568,-0.37922991748331336,-0.06365300534513414,0.4984200788566524,-0.5805089883376171,-0.6540312810327426,-0.25185759594589624,0.7524134633056351,0.2990223244008731,-0.05436586924062322,-0.33377865162156817,-0.022936013060938256,0.9118283638000484,0.31263675758308934,0.20194916574995925,-1.6133460483666555,0.39328340820611113,-1.420379270321719,0.4858503174911632,-0.35569851441217143,0.8505234186156864,0.966659309773873,0.5177969024668548,-0.7187935991973369,-0.8957145386687553,1.0481659398047052,-0.24403748977946288,-1.2128177937464415,0.7512749125381897,0.5788898348229788,-1.0326574499165715,0.17061165404864984,0.8594800129487111,-0.2130652782025385,-0.4655466129085403,-1.1113107883768611,-0.4277593487747568,0.03831259522397193,-0.2390079644965129,1.8221198681004533,-0.5057695432253965,-0.29525979932877333,-0.7152833893355574,0.08875940245307666,0.7642173915766859,0.16958441444372938,1.1187485987478156,0.38513660723718646,-1.3327788902770565,-0.44506437588498005,-0.3746908241447492,-0.3478410011289494
SCC25,-2.540637791366993,-2.6539497152682556,-2.1738261159444385,-0.9694871816525327,-0.3965790147732434,1.880799228492125,1.0281904067822178,3.4987854804121747,1.3887962715373927,2.451885687372313,0.7087236329552744,-1.6992396214714782,0.3237140370987346,2.768227705534858,1.7659240002816468,2.140990279409021,1.1706248109075659,0.38623542980373815,-0.7228220930168233,-2.0295487047246414,-1.3258069262083554,2.2752930155769273,0.5114914730195723,1.1595647005361334,-0.005035878551969885,-0.08433482098344297,-0.1786406965453807,0.23863595952106706,-0.3046219485364014,-0.48338859726433614,-0.33238006040973334,-0.49683841947103996,0.3039245128807264,1.417859081392764,-0.06868289190416449,1.7073592962803725,-0.054347186711283586,0.24575923800432026,-0.03933599195941555,-0.21990911122881185,1.4752725879545192,-0.2919662367681948,0.6377225247977947,-0.8342635764683083,-0.28205552260996436,-1.2586991461265218,0.41752608153129184,0.010157575339447271,0.8704558991595464,1.0858448527183513,1.3286574537362517,0.7758596977939508,-0.8169637818734837,1.0275467270785275,1.6174518157760087,0.6145493371509226,-0.3430826540630543,-0.8103855185253603,-0.13576303036018042,0.12163419894370046,0.5760465483990411,0.2416014371172694,0.08350634552591248,0.8248175200356296,1.4403396136807918,0.5479834078152385,-0.24450307108148878,-0.3511602408513833,-0.013385956923831707,-1.0778376920708344,0.9728771499733434,0.08108323093545544,-0.07354235089749675,0.9420824169620481,0.15730415442500809,-0.3946364127211013,-1.0750928896070424,-0.16178129812258027,-0.20137044413636548,-0.04097049757740592,0.384330398242892,0.05603211848935139,0.5585194786914501,0.4108157225713786,1.5974220272301758,-0.06877816898602827,0.9779868832807661,0.22384755191587952,-1.7662742546216645,0.6805860248753793,-0.10823295271103525,-0.8593650365247597,0.6297016818028565,-0.7273545585328451,0.08802285945068296,-1.3306298968061552,1.0439563763927728,0.47443902608055977,0.1965301738243188,0.6198954179157383,-0.3273271832534273,-0.8196607276260879,-0.08374409183184492,-0.771659322091252,0.7489946467697763,0.49394706487661855,-0.7608155483464071,-0.6144234474608913,0.3012210725901367,-1.2932213840668965,0.5143044823525056,-1.5278734591019731,-0.44580002436267074,-0.22709859501169274,-0.6199841562903915,0.5261994753509406,-1.0688480505732183,0.8579739812691373,0.11957825546730085,-0.2975841805739581,0.020416687561168354,0.15279657596908952,0.5575382815633584,-0.9534052538716347,0.338479616694118,-0.051144839636375825,0.009564870026241566,-0.19054855455316347
TGBC18TKB,-4.579795142451383,-4.878918722921504,0.7681370272926302,-1.068210005978662,0.060872614428052925,4.3187176021956235,0.677541989700459,0.8637439957943038,-0.4676299407747645,3.262830931543856,0.4895881132035978,-2.2836984547654042,-2.6350207284592955,-0.8710209630355468,1.8825279822866248,2.571347803422323,-0.809742767121997,0.6530719191894695,2.1086967266953325,-0.4725670008681489,-1.7554204455459024,-0.7687210043545913,1.2620519357574491,0.7763244397190084,0.216284389656423,0.2669358548883491,0.4380949499519845,2.906341652902972,-1.3648141799767834,0.49906309770048507,-0.3195582796871527,0.730462683338552,0.5514446527760978,-0.6628914414653907,0.3970261716299855,-2.0070472891797286,0.24690757589143944,-0.04319305846073027,-0.9208788493299713,-1.195653425707794,-1.058727697155023,-0.11842821572444982,-0.904591675755875,-0.5174656920733908,0.43051708888862067,-0.00432388939006488,-0.4888364153936991,1.1897311376705126,-1.3489085278649529,0.24180375187342346,0.54058830686822,-0.27877951322930883,0.104886392363654,0.6856962470304346,-0.0439817388268499,0.935173490452835,-0.2565656023204921,-1.633062909226041,0.7086666851101435,-0.3471036961873866,-0.11049748289423152,-2.3038853298024757,0.405164745654737,-0.09181703331170356,0.00634135232223778,-0.8370369633162413,-1.114045132817685,-1.125617675506183,0.3094268780758159,-1.4850372940470864,-0.26734727790748436,0.9113580598798542,0.27122217770044665,0.6601074773518174,0.7553655751021451,-0.37067838969772493,0.03139454928062253,-0.5258003578657906,1.3993278977170254,0.1666760673788675,0.3702625246624414,0.1155884069695809,0.047651430812653536,1.2073483166507113,0.7263781368161694,-0.5449248934289365,-0.11440002610932563,-0.08602675347786083,-0.8753110064837542,-0.9100509101642918,-0.5722592076591776,-1.035268092405989,-0.8620931249059,-0.6876976584229315,-0.738774072846409,-0.6492212753840452,-0.07274449840259214,-0.508198947875251,-0.46397859101994576,0.2966981857350274,0.05254739625857732,0.3926480690234549,-0.6126843988019014,0.8495956927217024,0.0035040686760937916,1.1090220160829016,-0.08949510805983649,-0.666929438332099,0.4858137143523801,0.9073894977407354,0.06352095849465379,-0.8500920328775796,-0.03320912592037425,0.04014949044895421,0.544631074818022,0.43725634076925585,-0.09669710507451681,-0.5304590422805593,0.9186438582733885,-0.00802363258937072,-0.23741115108375999,-0.7933243739514914,1.2107560710016885,-0.002913089399118293,0.38577668644114294,1.2075799234793938,-0.6249092475815791,1.3456837271323505
NCIH209,-2.7213581756508414,-1.650793877999118,5.6907498886690195,0.7246813770548395,-0.6448521785656567,-2.5528614588074583,-1.747073541865006,-2.6283853209012142,2.4222988633920948,-0.20545501979176736,-3.9898956653234414,-3.403753184022109,-0.4180225541215368,-1.2813278431232025,-0.24014278033378172,-0.8737583865414201,-0.363274038440121,-1.4508772347730698,2.550078148459431,1.738486663971535,-1.846074204045981,1.1813772937328018,-0.7626554694763562,1.5167401598714247,-1.2990596692268437,1.1193981448721784,0.7345945080366477,-1.74885662800879,-0.06895938500080714,-0.06820845460472591,-1.1269685218577676,0.03510669758823314,-0.9063274202568677,0.9279057978439124,1.2922934694385815,-0.12398150402233514,-2.25753021104865,0.08507128699135845,0.5030343721286259,0.31327499645374207,-0.6321422559866431,0.6418809657022916,0.2679485842003388,0.9819344663774096,0.1738228334416847,-0.5820535409244569,-0.05858916098961228,-1.206542797168041,-0.9407128470617462,-0.02318958786959279,0.40836581675023853,-0.61155877539169,0.3950354302972011,-0.6895687303887604,-0.7798004766823015,-0.15490829510903611,0.3464634151206109,-0.34134096391793983,-0.41334933689418424,0.34292512274881176,-0.5894296579644839,0.17452154262625752,-0.350279568456624,-0.457042140715875,0.6832675048764498,-0.44031629687980983,0.13106873872556038,0.5112455482280185,-1.062988972368918,0.014043323488717823,-0.8265943942678411,0.9993514574738889,0.3894234972255906,0.24510950613743726,0.43158450472400056,0.6779480311253616,-1.4767834185596076,-0.10742157432206238,1.4996722971759695,-0.2758065505710327,0.10973287433504465,-0.7480578356174308,-1.2468746892729672,-0.2707936490908827,-0.12630646907789062,-0.13628663262452778,0.8502157250739073,-0.6557077767972418,0.31644065511815206,0.13767126620520212,-0.08240897814492781,0.7877066346230382,0.6530550666973939,-0.37732997481702946,-1.2373916548587445,1.0563008740324262,-0.6300072214061495,0.8190103048987221,-0.0915858130834024,0.41117915361616625,0.34145933927545763,-1.0972183487243279,0.6482921969736393,-0.31334168335870943,-0.7884255397722748,-0.17301188035914838,0.5371839446643005,0.11806494936543685,0.5403592167878235,0.05553144656721472,0.19812765751863531,0.5656077419971789,0.40623569905862894,-0.7622133576609723,-0.38836717580239494,0.0454128415252138,0.06322192350800689,-0.7517637365662974,-0.06582713974035947,0.629437363396174,-0.26340766461678644,0.12266366635998088,-0.5236053754230116,0.021236572296797585,-0.8122338982884628,-0.1579159420536598,-0.30100359439369834,0.11712091837996322
BICR6,4.687732353698179,2.3527887792545377,-6.483833614857392,-5.764664030564539,-0.7475210184705573,2.755608503493064,-1.4590599442300063,2.978255474690924,3.596806613134411,0.22251504156611843,0.031910957165563664,-1.475765044314966,2.1960171780450413,1.4194289758041456,0.993610514460285,0.15525815710492402,1.1394240825202482,0.2511004567435705,-0.20803206353479153,2.6063910263752867,-0.22039724375970024,0.7324045042705221,1.301609597032902,1.4423260973259915,-2.502306922670349,-1.8124293284383002,-0.20072617141316085,-0.23623143427686893,-0.6519793675342199,0.671335122277995,-0.7839084358369569,0.43592507581729506,-0.8549291386553121,1.904145815679645,0.2327279937247932,1.6098980897913797,0.8397722897280693,0.46225247193118507,-0.68661733181845,-0.535518371414703,0.9154968707331844,-0.08963639176065658,1.351470735125324,-0.9364811879994437,1.5057961450818056,-0.7746871814617158,-0.8007100293328682,0.5027813668641042,-0.4701679386267501,1.0144880860793433,0.17981032816219136,-0.8578468661677969,-0.6988219010279008,0.5826122944722768,-0.6122809802353583,-0.05588640569090601,0.6354344577200363,1.0331242347557739,0.14166646440064207,0.4275189584453086,1.2027695350775272,0.5046128079334294,0.8151910798738369,-0.5102533118179083,1.3351298467949542,0.6080032637523167,-0.9956872274113914,0.6987322939505346,0.07698933231100111,0.4442371352288832,-0.21236983585586156,-0.25572289375474855,-0.4647372903845061,0.9153535311572859,-0.19125897869772887,-0.28899922763229263,0.2547040472456011,1.351043947895503,0.4687206756937596,0.3168977623728704,-0.8957326639607374,-0.3736943853487392,0.8173175310015492,0.07799025245172657,0.17566269797531067,0.27822419216756333,0.46933940046818967,-0.019885747266032223,0.5116823692342439,-0.5268758853647273,-0.324317135279323,0.05092144099120716,0.36120266417055,-0.22880176530080892,0.37241307714445204,0.8001457913057357,0.16708648661601375,0.21068672155963905,0.2479912224035817,-0.3223507622073449,0.0916709412811659,-0.18154659802616718,-0.9540941447454174,0.6991826868636906,0.9478085197235515,0.8418523040408363,0.4547375464975379,-0.09457602591977798,-0.37729742854418097,0.16626143546825284,-0.21001779288289532,0.4860118898156865,-0.1653193392301508,-0.7611251468152196,-0.5546287222944881,-0.2620770984730407,-0.38621813637905217,-0.6405218755561125,0.3334890037696546,1.1566873035768492,-0.011027774462945731,-0.5888980147737404,0.47066138385431266,0.9089655486408534,0.002941174166671199,-0.1619867332405707,0.24844998445856367,-0.4065882548756327
UW228,-5.090016604674576,-1.5704518420420848,-5.440041088355766,0.8442276096936088,-1.168304182116702,-2.2668871220726117,6.043519655929775,-2.4353181355941227,2.1584859337712863,-1.566611963191492,0.22864483739555036,-0.33128252324005275,-0.14375089565071358,2.084660123458515,-1.1201733726593983,-2.7999297976126987,0.9419240580870172,-0.29598695413931275,0.9113619862875109,0.749322637697728,0.39617963625241365,0.20517775469073293,-1.2153454763578333,0.45958238315574423,0.26933016369068796,0.06058214913802283,-1.984772661839825,-1.0652771812779165,0.9591970849872644,0.8235065120954019,-0.7851978728933976,1.4997350388555715,-1.4443798170442577,-0.21599665044474284,0.895332360084801,0.7431973736536113,1.0092766892499982,1.187122062943194,1.3230296774719565,0.42060277533645724,-1.5360984643537663,-0.06597499120862416,0.04247930707697012,0.6627883878767737,0.20198061612045076,0.28757593731871645,0.12038172654269409,-0.7919615436104663,0.47911823030186895,-0.6332907521373907,0.4974258581354177,0.37213814019275965,-0.7015827012112487,-0.6031525095689334,0.6863182823097498,-0.35025709489081497,0.33526185838952227,-0.05322719612796682,-1.4640248953941712,0.3133067870676768,-0.7103082903624708,-0.044927468426550814,1.7019665780600344,-0.38823494387449936,-0.011970727202988725,-0.9227766833241133,-0.569408675454449,0.07658465343426425,0.3920562454589832,0.5550099537522376,0.3508967211243962,-0.06424758071568211,1.0445778539276174,-0.4901491382114365,0.34588273573820294,0.13818286932955162,0.16527814783221761,0.14108072764630095,0.5493728341535051,0.14388094053872877,-0.6262742284982535,1.0288214647228728,-0.08415911532905337,0.06348674983316632,0.9972535365715114,0.39892584175027557,-0.7852998265850626,0.5964219164474612,-0.17547947980108958,0.31368489780947445,-0.18121053081226415,0.41809997023150064,0.006255063028480428,-0.055232128217815264,-0.40356689292154835,-0.21765815485551518,-0.5936610504424166,0.7144959026216661,0.3536483481871044,0.10701628289935124,-0.6924500313975356,0.6001868359015224,0.035844798256910816,1.1847545875561971,0.003315360484175977,0.05033947256071692,-0.3355050287062637,-0.37932574273235625,0.03724777349053299,0.6601171946430601,-0.6698652530049226,0.1949714731450402,0.34318695340263144,0.07290266129025316,-0.32447445399594643,0.3841860058055899,-0.4134667125767323,0.15870859797631956,-0.007400462491720036,-1.3673131314301517,0.7482170913736079,0.20687283111272697,-0.6788854100632485,-0.4057729479969761,0.07423514785716245,-1.0689223280109317,-0.12899962857233468,0.4560195375618772
NCIH2004RT,11.615086882342112,1.076788718126453,-2.993613710749306,0.5011830558018536,1.6587583219700157,-1.898006722992681,-2.5546394772931897,-3.027327932348002,-1.6529149901269673,2.095896507008242,1.5070256082846478,-0.32678668578898595,-0.3633253148658948,-0.13357579227759606,-1.6365429906391873,1.5360362168276074,-1.9089855821116426,-0.08882851466874574,-0.6248744387137477,-0.25532616567653355,-0.4078767976097562,-1.470518319444329,1.0683171538817875,1.7801855915079112,0.058835626943889587,-0.5021447173312109,0.037992942079099985,0.8269140487587772,-0.6223354082828462,0.31013704672007614,0.5808224697507428,-0.28471972152769875,-2.269438958495174,1.08759858016311,0.04702146568937525,-0.6415510133374592,-0.6725623381507314,-0.26755959416249914,1.8776854551535826,-0.07126694960669602,-0.5942827449597581,0.9942219320292137,-1.2344146208076414,1.6048753840394725,1.5792495252224585,1.0865881507808575,-1.3178968777572264,-0.43884283795351753,1.775210190318051,-2.303278764033231,0.022388959153132208,0.24975820376381147,-1.106706586890001,1.3191019223375715,1.2789569739507807,0.30223973416584665,-0.3182569281337217,-2.6718462344442053,-0.06399486155133495,0.1605195455796584,-0.20810158636099085,0.6473433055766412,0.6347486615177655,0.31736428322626603,-0.642770412583432,-0.016948076758629946,0.024254156538214677,-0.9636559167809516,0.40317958305191315,0.8729822239005759,0.650154721484028,-0.47977409247080466,-1.0506325589612482,0.6520780930171309,-0.36506100322432666,-0.3361976513226703,-0.806313578160094,-1.015560625555637,0.2993751633203867,0.15639616131351772,-0.452778334681689,-0.5278026496117763,0.20246287844106314,0.3359973677676877,-1.367274926711458,0.40537831620533,-0.20746238711809337,-0.2601812072629811,0.4466705989274693,0.503267183021513,-0.7044051961082843,-0.07781948448946044,-0.2244026878141578,0.22465472298753744,0.46507682190778876,0.5284555257441044,0.002132270262947232,1.2517881181150985,0.6430425623131274,-0.6969851031006049,0.5928795487949045,-0.2747019735534075,-0.5321683240322871,0.5477734456873867,0.6372872415295594,0.7406709127646224,1.0571037727839372,1.6161566791324709,-0.33177956975399187,-0.5511126028934132,-0.9476601724085387,0.18171822706873536,1.1585527533111522,-0.05372714896826162,-0.2479563817820123,-0.49969444641061384,0.12442183346335517,0.8748427382748037,0.1721537205768252,-0.018264511945552984,0.2507087231954926,-0.450973199912346,-0.5328308962402756,-0.6648722504978619,2.2742029571748175,-2.3190067286626044,0.2513357958372782,0.4704090042754353
AGS,1.621554709674951,-4.356772868009681,-0.1881834367513602,-0.8371079641709892,3.2131324632225673,1.199464499401502,1.96978470479261,-0.7460000406101016,-1.918394038911487,1.9405575405659319,-1.432684004501486,-1.9399830019999973,-0.45870274609584194,-0.4069732539044363,-1.8854671212190492,1.1942812868227677,0.0037738021655310478,-1.8583657094568484,-1.9102668908668123,-0.7009789670629626,-0.5540720546338201,-0.005940188642838346,0.6954590260494189,0.9725231733941465,-0.604088747103667,-0.1280701721918149,0.5053465990994458,-1.1620061852324837,0.18610258426914317,0.964967140055753,-0.6184415449125804,1.0223175966528755,-0.045308538834459004,-2.3253279975396,-0.17843356505617455,-0.6666469080288387,-0.37987626001922536,-0.08061365781392696,-0.3228858818171562,-0.4003039421769458,-0.2127509674677646,0.1871001688076955,0.5219826667749663,0.14595329958108755,0.7978784206895421,-0.12481326794401225,0.7385476896822656,0.09629955844325826,0.19479439785961133,-0.11494892673002612,0.9946070476283976,-0.5287162252190823,-1.013862322657085,0.2168683181552333,0.42398799882352783,0.4312331400224518,-0.5027132616358639,-0.36162797227251864,-0.3568435255153526,0.6060478860002007,-1.4329287065083471,-0.7845982837931292,-0.5365382898137627,-0.23954120308849716,-0.39253337409959677,-0.35270243643361887,0.45718049476180084,0.7153304044590731,0.4016588630603732,0.08575258971247048,0.8488132187366699,-0.030934470805144106,-0.23578530349451546,0.0761065821551611,-0.3336814143142943,0.5442431238025637,-0.5235211945834702,-0.15304333290206915,-0.9398290412810736,-0.5859970906497298,-0.17981981077561338,-0.33597765176467137,-0.20053688296550595,0.0474587910723704,0.29435244961619567,0.4686131638316181,-0.2439824377529833,-0.9994226342738267,-0.5699031890164772,0.4851579724146607,0.14802266957870258,-0.9883898933877497,0.09101494002820905,0.29051855157707696,-0.4474781727445122,-0.6806531885834356,-0.16359177033156239,-0.3310812679090316,-0.15175718462517762,0.24342968296852285,0.2104096992951239,-0.2386375541432098,0.4583490050292558,0.12359961085973947,0.13984894933138195,0.012979349783963957,-0.5931852029762641,0.28761335649360853,-0.12724359762685913,-0.114739770762212,0.11854273785534032,0.1333522745561897,-0.11079031372531392,-0.0023387212596237593,-1.1746092023140067,-0.27438470275560045,-0.41032486238141896,0.4636916236200938,-0.5422529973464151,-0.5262838054766829,-0.0036068845158409367,0.5374840857733036,-0.06829797769755908,0.6521456848887592,-0.1622760509827335,-0.32260995122678926,0.07333467873212861,-0.12896718418062292
DOK,-6.280525735772485,-2.3379236312850744,-0.23062123393259176,-7.594119534224135,9.799540795019736,-2.7786843453995664,2.393127993288971,-0.8038383532349461,-0.7765342214480476,-1.9311813057953056,3.809905833303776,-2.9374063696573973,3.139042219804523,0.9486334690441811,0.6900348666170161,-2.0962764886991443,-0.22961053048496824,0.43287498637687033,-0.4847182093398854,-1.1263122074162422,0.4241194879460962,0.7321170132620587,1.3250779940727242,0.34128035495428155,0.18966593761723627,0.9923917201175172,2.029801257183685,-1.229912107441309,2.1194171825708628,1.3706089660143257,0.5260525375574235,-0.0026841227471222752,-2.1515769835531224,-0.40536558512405574,-0.054024471485025545,-1.0111572928787282,-0.6010238161640822,-0.32600525854890844,-0.8176148475028167,0.28966434335050495,-0.25486502228984526,1.4675687276792297,-0.40672223694199294,0.1305409460387352,0.21617772554266385,1.8877062906064734,0.6489675986676665,-0.8663585382096609,1.4577350380819247,-0.27959192718394554,-0.5241626096193649,-1.7276681014394053,1.0829615009031612,-1.3157155494768338,0.34654744970779217,0.938849120386896,-1.37054987379352,-0.6368820804059654,-0.6488437876846453,-0.4475202050944321,1.1857188122517204,0.10588299899965685,-0.4508012801560894,0.3716991637604651,0.6031786302384975,-1.0846563193072705,-0.5167269290647624,0.6872380106241321,-1.2910521400149573,0.21748552599602933,-0.15073475976589315,0.831209792381539,-0.6381846329064284,0.223671166412083,-1.3800130164910276,0.20767587454751066,0.5355148981990928,-1.1444480720786003,-0.4589138725000756,-0.6920886843755257,1.188305529269083,0.26439754989809583,-0.600990701090569,-0.751919633410548,0.18985165152438985,1.4467662606427127,0.23336510423189602,-0.011199301388076304,0.7932893831014743,1.4602983208490268,1.1661844762815383,-0.049482201177386324,-0.17134069577958314,1.4204141207355268,0.04286562691990829,0.09881571406794848,-0.12400448678693651,-0.2514321787054847,-0.13152271033891902,-0.3803311897943738,-0.26125855648945345,0.17065981200480868,0.3939163801456483,-0.004886253749677895,-0.4809524066520413,-0.5642008575436067,0.15984082398595192,0.23074340216415284,-0.7256481387744086,0.3801219312532812,0.8295246875832801,-0.40175722933687663,0.35320806647747377,-0.001555884617608969,-0.17916174158885526,0.25975997207982265,-0.930070877838106,-0.011680811628184013,0.22147031122704147,0.47208934273155795,0.9603890447411658,-0.37135453345976144,-0.44202869423133806,-1.0219872162307115,-0.46146841387249676,0.23564530459828878,-0.29508372560497365,-0.33547251678148476
KYSE70,0.1678318216265104,-3.275007504796628,-1.355709959734389,-1.8294934801142637,-0.6773053637457987,-2.1811114412580968,3.1378086290036706,0.37610956267777845,0.3822356895901042,-1.424329438900493,0.3862307728193054,-0.36797388696737415,1.8301561208797072,-1.9427955592770152,0.4443911797834233,-0.49715145341485717,1.3887835101871047,-0.3450596779721967,0.24944304247307722,1.888573180657976,-1.0239377780050762,-0.13028596504958515,-1.7837453829741634,0.3671342419034939,-0.5238085367532725,-0.2133625052832764,-1.6681934512006757,-0.13963588753701384,-0.7776649055935025,0.23348607837502133,0.9500023107227568,-1.3240900852565283,-0.5063953845316876,-0.19692292231990913,-0.6852937694528708,0.05605226083921165,0.40365256888217177,-0.5258676041267121,-0.5026567694421877,-0.809786289491307,-0.3381960134979447,-0.003126392419333569,0.49325604490585634,1.6364723326678257,-0.6333818749911498,-0.03852496092280994,0.40318826185551393,1.3783779303904664,0.5674308133264216,-0.6911654139440105,-0.6266089669216254,-0.19670199567171254,-0.15123263583056518,0.28534679975684185,0.3725804516086619,-0.15437172035177543,-0.4924482275520166,0.6538657807889827,0.05336719789870241,-0.30878193683169564,-0.16597484690068945,0.6714467610863025,0.6227467044229309,-0.4825483080309262,0.8435099854995438,-0.30092216366837754,-0.31073927469222545,0.022582673784266347,0.3617923691410395,0.3569020225307176,-0.3550326534688224,0.09060982005243033,0.1279720224754394,0.6439908110233008,-0.3462758631994773,0.21060734778710563,-0.249947400153729,0.647371535295279,-0.24419663168440045,0.19662459100067756,1.2029868160990498,-0.12177238217741101,0.2225348669171144,-0.6288597756639854,-0.0878921334002289,0.45265748790863947,0.7077462244485434,0.36999381753141475,0.3653610198194159,-0.15561858804900444,0.6307388915370382,-0.4012681646810326,-0.34456203449572187,-0.29289082790352905,-0.2469114710555272,-0.4754101132944303,-0.28143982505379117,0.4585837598461374,-0.129117868246067,-0.5255008429083037,0.5084961895724363,0.27760102660181335,0.437794189812259,0.6076403895149114,-0.4827345437391294,0.11900207787639175,-0.46425144154838305,0.02294637043927615,0.12231984189446801,-0.2414768714135903,-0.24558957496765824,0.2084005387161879,-0.24073589503921763,0.07105830888057049,0.1989387657972206,0.2061307468121406,-0.4222092843253096,-0.4795597602697968,0.35126688852566995,-0.4169943570787221,-0.14553132489069234,0.8418653138595048,0.3951586587073414,0.18558188325434946,0.6496608404734162,0.3863231425023307,0.01713895340676753,-0.4112452116574548
SNB75,-6.642039082835147,3.0444186307112413,-2.6917929005414685,1.1338891799864763,-1.7579481802332435,-0.8760237384486129,-0.9608429708048144,-1.0093026183304017,2.081558967050324,-0.39099344490243315,1.0718290675631093,0.9257243504119488,2.5232415470279563,1.7166006211358957,-0.8537644207055977,-1.7013558159636637,0.35676379155726007,0.08883833093751134,1.3622859151646844,0.13227348392021937,-0.22760316201421918,-0.35339108025187504,-0.863708975876775,-0.9917011363384209,-1.1587760047814744,-1.5535182664263705,-1.7535624656370314,0.6587037206112569,-0.2857470143167204,-1.1101290977339957,-1.1152482736118465,0.7992821887374257,-1.6066860197433641,-1.8428517128646094,-0.07888415237809955,-1.8910692248512295,0.5572867244143156,0.4981550216033616,1.211826250496687,0.2705461186501485,-2.9629418670541185,0.9665223638918025,0.540753672402029,2.521199244517733,0.4577699290918565,-0.7465503993109293,0.1656776687968952,0.5837915184473927,-1.2071893891081202,-0.8475499217557176,-0.47039118187821305,-0.3547983114158255,-0.6671394385445226,0.11643337298468562,-0.46073361704668603,-0.616578937870792,-0.3485047768562031,0.2949251732300632,0.19464078945224242,0.46512229780958353,-0.038653499934939266,-0.5326327865566273,-0.25995068253402154,-0.2089699932652946,-0.31478601664480593,-0.30964885881604376,-0.1462717457637269,-0.6077743152494345,0.11203056290748394,0.8302815467814614,0.19123554106709187,0.30958100779471437,-0.805767727747922,-1.2065266492804654,-0.2599103496067374,-0.6556484354347846,0.5912339371382156,0.43780937720132856,-0.3059013194911237,0.46186522534665597,0.39550150805278644,0.5960436714706497,0.5693138771957541,0.02116983921776919,-0.307193874459033,0.008492102044562458,0.3064621884825167,0.8271754011435095,0.3870572722026216,-0.3511347487048665,0.24537444806151448,0.15712541468673455,0.09717896395203952,0.04891698331679525,0.7817765121359976,0.09532739960214849,0.2323757762749624,-0.15606040026508872,0.4147011776519519,0.2855991394074886,0.4647488477589396,-0.07013498855661077,0.021590330578676504,0.21366871072601903,0.6404767071805919,0.19943272380355193,-0.09408914833223832,-0.48991352179583875,0.17115809264993972,0.5537898598149956,0.24885522493652573,0.2040394309842625,0.0009691559733444563,0.39008962596520463,0.3287514044178367,-0.3542935099742549,-0.8559598433468099,0.6189874040121986,0.07927823060468576,-0.9701228088068771,-0.2885052044959032,0.1346594171828772,-0.07167264669486467,0.02138181388982079,-0.04746300192469717,-0.6902147252746257,0.03521256661277959,0.691854301168338
HCC1937,-4.524105901258696,4.942389601935638,2.6652127190177595,-4.3691169654016315,-1.8208310946595208,1.5162522063304575,-2.9351749548613557,-0.6625478223837172,0.520678267805409,0.013362546803031887,-0.14216949778959695,0.03388938979779299,-2.2064446370317827,2.656419245299372,-1.098041204153119,-1.281636264868935,0.010447455558134354,-0.5322956964920711,-0.25523214288156865,-0.6657551175578004,2.2368114759260838,-0.10531081298321615,0.3926243267064888,-0.5412238886956848,-1.3909365341867006,0.3537573734202394,-1.1471117459835924,-0.5782172640827564,0.29894919206882264,-3.0922302523690965,-0.28879019670349154,-0.044802928063757776,0.20643203922768505,2.8936564779368266,-1.1344049662660851,-0.6366933740879384,-0.709817609419126,-0.8598073930565094,0.5793811137234718,1.1824814424371641,-0.718996339525058,0.3463473250891398,-0.16850983940283332,0.17962322805700293,0.143373845249579,0.4734988511592227,-0.19554588305798776,0.00241171650100851,0.7603121255079274,0.9774156590562687,-0.29224335920099237,-0.6143413052463105,0.37254962550092985,1.0992693236937818,1.1916912250701588,-0.4067484549440995,0.26229287337906865,0.32896725630388096,-0.6975592308990457,1.249830189114614,1.4612691462830965,0.17287833040969194,-1.2610735825928416,0.2901417570155266,-0.5955989536343133,1.3740215325978624,0.08609707950089775,0.0985157450503001,0.4128274897053884,0.08608827026783229,1.0160778708292075,0.49696291222481104,0.1273418208385689,-0.1893703615772251,0.11126200957872444,0.11306887899062004,-0.045274692285573036,-0.08251147948278899,-1.1440021243903864,0.5644968092196107,0.11889382627695588,-0.9000994707831773,-0.4884264881313383,-0.390485425949263,-0.5719299655161795,-0.019399436629080287,0.8940591689779592,0.7054421832965257,-0.3264745353253346,-0.36674739025400904,-0.38242062253407805,-0.020705589550963834,-0.7189187499782915,-0.1712861779781533,0.2875263288286009,-0.5234273587764137,-0.3587848459908549,-0.20495720249055413,-0.007559428996186053,0.5325670880213483,-0.3030845842959695,-0.4396575525826052,0.7302873653929078,0.18286918505293162,0.08324380739648693,0.6779745268024996,0.17382503796576002,-0.871313872924707,-0.13785922405272866,0.011970980023088124,-0.23552401950237525,-0.010057254459645604,0.35840951510723773,0.17334299253845478,0.10373115750395775,-0.49912863055489376,-0.13060961266897805,-0.4003712768126673,-0.4372126849958013,-0.284402481792105,0.0506010505083862,0.4451436036296672,0.009851748968838362,-0.466784571812106,-0.8725874900434263,-0.14387807936500266,0.18146714367161737,-0.15306814627168053
697,0.04862157802721666,-8.966199934280914,6.895292530552928,5.8912230291921315,-1.249049417296001,0.9755190214974515,1.8235803757770443,-1.2652859049618534,-0.3309714258117982,-0.15944667203338678,1.5343631280715693,1.5733983215687115,0.646896408632161,2.242574407487717,1.2833085889286342,0.4733327789354266,1.0279925070043658,1.0482534825008865,-0.7749173196798372,-0.10642928807565469,0.6006875450024092,0.1548485216173131,1.0807674474457356,3.655987470485822,-1.6888093267255464,0.34721003693533975,0.32010508561952844,-0.4751287677501546,0.28205315822009613,-1.8482013345271147,-0.5540009967394128,-1.8752301514209153,-0.16798577122681393,-1.2856625243792428,-0.2677446027364139,-0.6721530687448389,1.54040261779634,-0.7148602657395255,-0.31499076093713624,-1.6139860357023823,0.6368589806339542,0.666702520493679,0.9238270860204265,0.03338260644720778,0.0538340144778133,0.06273543694082426,-0.10124734812392035,0.7401598152049631,-2.0194408245253648,-0.49300109451640967,-1.7672065982892342,-1.680674318704421,0.504902404418572,-2.2958440547108725,-0.3162615572758845,-0.11881865090882682,2.507340882939759,-0.532351413978191,-0.7719449858254541,1.6416779590689732,0.6382363800627272,-1.040617353632143,0.7317120131472561,0.9199031286991856,1.2420121027237006,2.9372866674183027,-0.7423802166583803,-0.6881659887396979,-0.34597239034890964,-0.7814546554424587,-0.42488401414541627,1.5603981256919202,0.21939283067979884,0.5847887363305767,0.8923881615590761,0.21666784790760155,0.8273330254966128,-0.9078973835577827,0.11209312703427765,0.8423434083703648,-1.1387134958878364,-1.4687596285372029,-1.1309229668243692,0.35929852567316706,1.3654404771982518,0.12082856156038706,0.032702764368650813,-0.5059391817516133,0.23161398193350358,-1.0180601343299607,0.3096166793726123,0.9433370995633719,1.1951451563502078,0.2645658355139456,2.0164822889274534,-0.654720451915686,-0.44543262575525633,-0.06116875725734073,0.7044494817377346,0.3219292731480355,-0.8595433768939453,-0.6890494264765085,-0.06601227096889983,-0.6279355301728932,1.3779700295790867,0.27351923786125376,-0.13629353927179177,-0.5498168800879896,1.0522378885412569,0.5500757214954738,-0.9977642824047663,0.7954070495629161,-0.3373872340072575,-0.26900894972558237,-0.6013544898349793,-0.5910565853432418,-0.6620189779503229,-0.691556561775651,0.6589275334744853,0.42897094689592746,0.834292607416091,-0.32658112352723634,0.3362675020851844,-0.11979602184112982,1.016136915459907,-0.8561161043927954,-0.5796269571261748,-0.530105115322665
SNU626,-2.957594421267068,1.76349471598355,1.3603766736884788,1.8467723176592126,-0.2810858056233794,-0.5975837552576316,-0.6126078061094228,1.5550250126984329,-0.4440556093484541,-3.0352586060630373,1.0008472696062323,0.19987263566947974,-0.7427660831961779,-1.4480645255091527,-0.6830963825022578,0.17481969145385928,2.004078926714804,-0.7498102137050747,0.8298496000778133,-0.17523107002978006,1.4379199091466415,0.9529899676058885,-0.3990450959927062,0.30708093044357015,1.9488151209388298,-2.5300060665543835,0.29722140352251,-2.2644222366810354,0.6890826601132772,-1.2071478713901256,-1.3632792897800194,-0.5299122324069554,-1.5333293598369337,-0.6513957536252385,0.5187712311947599,1.0094912957815938,-2.636560530435258,-0.7466843106845003,0.846793746500663,0.6033175216259066,0.552136274138579,2.504004865393037,0.09902969392616706,0.6789584881477884,-2.137779254108927,2.217709293647601,0.3832866874396581,3.1758670744110615,-3.169746383294374,-1.0477999133181617,2.2699515449705054,3.10779882831195,-4.116698697161631,1.1273769014341104,2.641436428607823,0.11994910124957275,5.3496895469941865,-3.0759593752633476,-1.1412459089708498,-1.3641307443157764,6.2629716735528325,-1.4346517775675107,0.4290534481125869,1.115758332685224,-2.4725179061952622,-3.240260961917726,-1.4567260768181653,1.7367087777469463,1.6882614715621689,-2.6236953280471944,0.30865136004087435,4.232497334344565,5.057589856008301,5.266052468950984,2.7783598767973627,-1.9031929887458487,1.9724572597437922,-0.7054947990267161,-0.39066747645066296,5.279263437207919,0.14114873594790023,2.5468414609144356,6.850230610505034,-3.669146856353345,1.6879660468615052,-1.3227152739776675,-1.1737639288514596,2.3993914994019514,6.003619569523697,-1.8379929167868971,6.90671387792973,-2.2447040291028344,0.029170183723547072,0.01637423938749685,-3.2546495618014433,5.078941625537281,-1.032126730072471,-3.8678681013506533,-0.5612648279933011,1.0017501720080346,-0.6814456801482263,0.7896985751535672,-0.6402464846921615,-3.003956247501713,1.001935828868343,3.185255889833,-4.806567538006533,2.800270905726807,-0.5974171134122552,0.763232735868371,-0.3852175621463578,0.7743463174333535,-1.2174668545321012,-1.0624838314234286,-0.09741315332057672,0.6443472704783744,0.04452451217474135,1.0381731135164816,-2.772092192358701,-0.7260398827484379,-1.0535616445854887,-0.036866564998122575,-1.9716464765425201,-0.9043160937595733,0.1276086460972601,-0.16804922846521744,-1.3051564350407756,-1.7876942959471183
CJM,0.5697524813865769,-3.311284535662616,-1.1883870385599846,0.3227760872409124,-1.3550189651884827,-0.3296399341994087,1.3701969843684823,3.1658577175903653,-0.54290942187643,2.283032187989497,1.1004125539311833,0.7648044913255589,1.735713173554215,1.5961482833986425,0.27603466696101564,-0.14051396979961445,1.4659488446789588,-0.15073026865158537,0.15791466244065086,-1.2848320728771798,-2.4491362459497674,2.3025597165338856,-1.4856815970582526,0.04707282251934636,0.056039559793396636,1.2470224730198525,1.0525152190923162,0.7992425057001468,0.5996557429056649,-0.09865872022928046,0.1731029522924435,-0.9455540996378752,-0.6139740714739588,0.4380876524280084,-1.124593742204895,0.07524170123112604,0.7475526643218353,0.5084670328982447,-1.626292314245103,0.6788649295644873,-0.130366112832095,-0.2737762217975551,0.7840974619016116,0.400811405553915,0.6020779622244121,-1.245237890708607,0.11566283241807465,0.0840179764302363,0.743678533661318,-1.0010326066342343,0.20509819937452362,-0.41837117938507246,-0.9346955960755998,0.8276588211312754,0.8540209966384215,-1.216184834456733,1.241357772994942,-0.046812407572607406,0.5851258078002742,-0.8011878120563531,0.4366804585478674,0.16197703923046747,-0.7634260765540697,-1.5514760838826755,1.069256080104015,1.0535019784652475,-0.8682732650804728,-0.8952368552885813,1.204202486577203,-1.1830829903605014,-0.4999191845215497,-0.7554755442219429,0.4332267036587801,0.13736865236570078,-0.007708380599156704,-1.3863145268108075,-0.1011006542408954,-0.08943257738301129,-0.5763645722611294,0.19380103811000293,-0.01967035144317859,0.7048868073758275,-0.20341487357444557,0.7131155638820073,-0.6521289539250362,-0.20037384879701325,0.8609181639005957,0.2585978944045768,0.7862084975763244,0.28528486695263067,0.25274379686909293,-0.5675375921997666,0.005274995096306483,0.44143986788274225,0.09383048310843312,-1.111187891170273,0.8760472699902407,0.5966288541838577,-0.7409995340262976,-0.25275071711932473,-0.8466485064454115,0.04447229103342373,-0.36044463300025537,0.08139654108642788,-0.28236269040884343,1.0586608300392655,-0.949587874858635,-0.2803610252878225,0.13498847030555783,0.04102183666694762,-0.4527113573170795,0.5483191216831893,-0.2154368711646084,-0.16972199420276068,1.0175746074483387,0.13166448244481851,0.02671406302290588,-0.6024107300044846,-0.4766451384460984,-0.3498330682996832,0.6111804938470188,-0.018858231769273686,-0.3716654353486116,-0.02188658915214705,0.47854040704269557,0.8838433868062625,0.27625207322002243,0.1630534751914277
KYM1,3.932787728355858,1.7316901763140125,-1.9004400559982668,1.2344141068409666,0.3943331163984038,-3.426110416059296,-0.11675037199124137,-0.8385367283410068,0.21583441746281032,4.296032948196928,1.258816516821231,-0.0706193650445764,-0.24076921977787072,-1.43141852642,-0.7870121355841236,0.21278034788854408,-0.7305656891053246,1.4826171387570555,-1.6637431046941968,0.6138412439678161,2.2600476888574588,-1.2796806787079924,0.3764335457659833,0.9442258285192395,-1.4442484457355316,0.9386987366598889,-0.5879450000958983,1.735346589625245,-1.1916027424804692,0.3811475772854071,-0.057443240438304795,0.26806471678707594,0.7950584574480919,0.3562035744908204,-0.8977915806495982,-1.0772053481774944,-0.27273918331803837,0.11371199165949486,1.5324013314303173,1.0087454364458948,-0.27351682665506427,1.1692472836460464,-1.5514936538501047,0.9979288640687018,2.363002029461135,-1.3606992212667226,0.502042992023537,0.3803114943927157,-0.006546091339286336,-0.8800395854104437,-2.132161392725347,-0.2613155417241519,0.6591364265941058,-0.9778254065248391,-0.4360602031758975,0.5911014134328818,-0.6945332382986017,-0.8799081585898912,-0.9920029759100213,0.47108624561742557,-0.010510488918361496,0.7004624290399281,1.3400105866382133,0.189301264517731,-0.6171766134606091,0.12366822446771221,0.42756944546818854,0.7042074867315145,-1.214336789609103,0.8252810801265613,-0.2608863302587904,-0.9314489399028221,-0.06326337343497698,1.3071575479246855,-0.7592825060000702,-0.22895464218936484,-0.8644527490197366,0.059455102903287836,1.6509585088336438,1.4986225626303824,0.11232795455494492,0.25975682163545305,0.3324255252435445,-0.20136772532049813,-0.238686066830404,-0.016253247583272856,0.03215512485851205,0.08631328047494616,1.0055184263164205,-0.20770600217287344,-1.178222081078397,-0.29226909934912115,-0.4614201352195162,1.390627722226379,-0.135003350437662,-1.3635223049859577,-0.5088479048915995,-0.6341407052726905,-0.014159696175474098,-0.027622387514026868,1.3122751359423315,0.600290760964397,-0.4367566373668714,0.9692319438738353,0.9737613111599127,0.2905721403224651,1.1743567613121704,1.0279668506560533,1.2934435377126992,-0.8137917539660263,0.8971994278820218,-0.697051250321946,0.2311240640266628,-0.3212773938320161,-0.8208751392928373,0.29511576911754195,0.18187629999751034,-1.8645293204297104,-0.8662667564644368,-0.3408714400551334,-1.3878075764114293,-1.2554345974784706,2.36380195225999,-0.31071094331432164,-1.2353757899651825,0.2575965610022207,0.4279273728673735,-2.6927425444477984
JHH1,-1.4666304608605378,-0.818458297574708,0.8787452453293069,-1.0002082455209083,0.01229196177227947,0.47005730860200534,-1.7922963687823519,-0.9875915891564031,-3.451705311336663,-0.3251140553805576,-2.074079457535974,0.1436179920636974,2.974960896543084,-1.8260758866932894,1.3017734658152198,0.38003659249612326,-0.22368237726045756,-0.4180300393480826,-3.119002637539193,-0.25487183418473747,0.730123674884026,-0.17401739062069913,-0.004935868337616225,0.08018287200989088,2.173984026513362,0.9453219762589629,-0.6320369035104665,-0.18679189169525084,2.0345174349525093,-1.5801647580707685,-0.36391912163841633,-0.7968449467975843,0.7466980149424313,-0.5162015329745527,0.739367304708463,-1.2234607543669958,0.7413053689076471,0.19445472794217358,0.17958794357904678,-1.4738784038793808,-0.47312021537789334,-0.13263334428443224,-0.6976861085491415,-0.6025947624654537,0.39559841444261046,0.8180985990682649,-2.5250443169518872,-1.243820915033877,0.11951436959569198,-0.3023227449386325,-0.487706045249671,0.4344075477533754,0.02705479421755565,0.772497438439903,-2.3163418915120255,0.2583584762828843,-0.5957822606109786,-0.040164955581467585,-1.301198413152919,0.5014750916882281,0.51765446726312,-0.3009142149270248,-1.49385116561889,-1.8753746325084175,-0.898691507502857,-0.9126920621124703,1.5108705942764342,-0.21931117250367896,1.0408161276855947,-0.23297535874633477,0.719107282820044,0.45737104880386464,-0.40858749041522285,0.49016085481422494,-0.2525136269243323,-0.12156712920934132,-1.3402061077684264,-0.39384217516660375,-0.5137889590486231,-0.011478797010378494,0.07593632753920805,1.6459458664095747,-0.2520543384009352,-0.9496347338352645,1.0511889425605103,-0.22794348554298374,-1.5758225254922145,-0.47287769138151003,0.2932532086253198,0.1615740854365986,-0.9960578918824223,-0.2984703631758644,1.144040279629783,-0.051567593690071425,-0.5737727383094993,-0.1570991446776915,-0.1582468784785703,-0.1774723925031487,0.3754912855165414,-0.14570073915520365,0.827268007620844,-0.97886593890821,1.7743816578831813,0.17174194454078448,0.13132403945799836,-0.23638962006982794,0.01239675802541545,-0.3382083284179065,-0.4799106338932246,-0.6962889364646754,0.3048608929327419,-0.4358713136263166,0.03639196174495447,1.3485567432968033,0.30539534367469723,-0.21443342674857477,-0.7340245245999606,-0.6871878429331815,-0.41657470187214357,0.30155640470368317,-0.3215332343742118,-0.696265341496249,-0.7071627905456447,-0.0274523255786694,-0.3173064786675942,-0.5161081491235445,-0.14490565715556944,0.5348641892501796
A2780,3.488090830042564,-2.3007976919118027,-0.7280456984632553,0.25959920664386255,0.8981727153360832,-3.0417411240519177,2.267706303567417,-0.08492666931970361,-0.6187496748827706,-0.38264771602982306,-0.6368990382781989,-0.3608992343466117,0.3284285484966327,0.19967951399197073,-1.609796244299686,1.1421254495624587,0.7229529106287724,0.03372203718401742,-1.2696799810576753,0.22652045368714965,-0.3820412854340866,-0.8666620996543452,0.42217912712372996,0.481276165413295,0.22680397033632968,-0.10908494548129999,0.5643656581278104,0.44667717593241163,0.5063866789173338,-0.057865946025590094,-0.1260524753580531,0.058019950164470264,0.27725805357329725,0.12179710964019369,-0.003932365037077542,0.3462571639949271,-0.1925519088744218,-0.4091213443976248,0.4879926668266747,0.6469779647890669,0.1752325074256293,-0.08138897726239139,0.04872104213022098,0.5434924913195989,-0.02843897532328895,0.35339539686824617,0.2887661747133884,0.24477070018118421,-0.22596565011318992,-0.21355499219849694,-0.008560004662386758,0.35349185544820916,-0.4656425744166095,-0.07110319679484228,0.20841071389917915,-0.007278879723660807,-0.6450128167411552,-0.03990736545684263,0.9632491449149202,0.0598328970020332,-0.2535025617212849,0.07704245441810263,0.3436609540182759,0.1985889183724892,0.013873829583526943,-0.5025116569508095,0.07817846948921628,0.16260177557919614,-0.09165789965652578,-0.010784509560494029,0.12592093457907752,0.15048854924419852,0.16468324704208273,0.21808972069373933,-0.1706889232696838,0.007917914117931002,0.08412448440186986,-0.07149147639422784,0.042879047256164815,-0.1837440139621269,0.06008174641289154,-0.21024284391741319,0.31346364550118344,0.3664611860625601,-0.04974375360203637,-0.14335171584130246,-0.04069496602710612,-0.13356455012999255,-0.08112309184225948,-0.17238906727554829,-0.3117665176842337,0.12683825212705968,-0.27036164538404284,0.28739452550118727,0.09683136480428048,-0.14076267747361743,-0.12385505056653008,-0.2780046333978826,-0.004094799661040976,-0.11460454149272506,0.23179921438201212,-0.01989828774809196,-0.17993148219308996,0.38532309956233274,-0.09234066355721356,0.25113039114050395,-0.3109082069742708,-0.18025883116018201,0.10143814593021237,0.3386568741341307,-0.4052051618810849,0.15846236835963148,-0.08218154119113844,-0.43254630712316994,-0.05176780790258217,0.18685098318724064,-0.002864396552809745,-0.02445575831460158,-0.052663226464658854,0.1948261052178889,-0.3602998080705651,0.2215116004644418,0.1894988250711947,-0.05070017564707762,-0.23533186848875232,0.1710084487414717,-0.04868902051484735,0.00019578552965496176
ASH3,-6.918591329555526,-3.0383333987302503,-2.779865962042758,1.5715513039175468,1.1926915204506305,-0.7421180441040081,-0.022146181618899436,1.0203148106348203,2.584316409508312,1.5246782826951015,-2.1340572529219375,1.05506519638089,-1.500588433672057,-0.13236515534025065,-0.2195673217063892,-0.8985445134878698,1.2296906933968805,-0.2542679624300748,0.4973696649023477,-1.0533573669502454,3.288493614274901,-1.2299448224844927,-1.1093728868470787,-0.8342463085294995,1.2872604542352553,-0.4248434152562261,0.4234612537092875,0.6009724698428135,1.2213838240471877,-0.518186982609169,1.1316651046085668,-1.5615748064934865,0.6553727862399599,-0.3654047575341666,-1.086729814437962,0.1340467993389855,1.1822884866189234,-0.17084584594894062,-0.9731141520164803,-0.9317449283861778,0.7755863260617653,-0.08991211164669134,1.1411797438399114,0.049757906761677025,-0.2394091474608329,-1.1220397863520546,-0.6623507640323993,0.411107757826829,-0.39431731777098383,1.6248507486330626,-0.5403043258338132,0.42630281287496025,-0.4982101085863166,-0.2491262659526022,-0.14525700132419264,-0.6703177958704628,-0.9835670711178517,0.9049225648291159,-0.9079915112419426,0.2791191655518604,-0.21514980145371204,0.15813599323796398,0.13295106924405226,1.1455922041433038,-0.597379397415487,-1.148427921166525,0.63711994524497,0.029363207543895906,0.2586466311761555,1.1689625172051399,0.001960598025239146,-0.09761629535871215,0.07265036561971387,-0.045192986283891706,0.9561627485221291,-0.7603273815762432,-0.12324063445162506,-0.06788441486185885,-0.9876587639283793,0.896358333722779,-0.6500951752919982,-0.5964941086303595,0.15673245900296798,0.38497484490598965,-0.05347638031102316,0.7943827107699428,-0.0014301070822835618,0.21549308563375053,0.22933109971230162,0.042402521833362676,0.6440116201282565,-0.18783754182428195,-1.1537729265866032,-0.6117150424405899,-0.3763248124113619,-0.26423539445878386,-0.46413606435838045,1.6918669059444897,-0.7448742446782254,0.2414729951863304,-0.7401010642944275,1.564271757385766,-0.3840017913741298,0.7516411867483079,1.1223296673957845,0.6188458072130765,-0.6551910538874403,0.6639610217837529,0.9462081160348323,-1.143992979268058,0.7765589342974143,-0.5555895925857176,0.5248480722332316,-0.029495498244766306,0.5759175634911754,-0.30952819739251597,-0.018564414479620987,0.2700410228266029,0.26224657916738336,-0.7695018839294242,0.3077784661698225,-0.7428199797740613,-1.2230754542365483,-0.6226114702935547,0.10535243592393591,0.005890982876490506,0.7822686268375294,-0.10344837571675233
SNU620,0.6490094691238054,-4.759021114108116,5.312858198316603,-1.2406798587053927,-0.850731291152775,-0.9153926035386881,0.3038711227253952,-1.6806990151995085,-4.015377357040434,1.0450262686844412,2.589657359144656,-1.69777928209147,-0.01997447076503288,-1.3706153288456393,-0.20551485836708377,-1.672340106941772,0.1571743786611003,-0.605155850623534,1.5993917870614476,0.25532374255231965,1.4373631751346585,-1.3338798032125938,0.44788573151522093,-0.6951532265151008,-0.02018223622092258,0.45144013305193814,-1.0876677768615441,0.009335534207914935,-1.16907034832361,0.16810638893541213,0.3683933582834561,0.718258644625157,-0.9728342453563861,-2.854912075507645,-0.791072151009836,-0.5756771635451996,-0.39148190674527045,2.3295356539559604,-0.9683718655353749,1.2920128508256883,-1.0394007417999063,-0.8872943097801079,-1.2005971694265394,2.5922571567073827,2.365378411400721,-1.1673123926810671,-2.1963767580211337,2.0144370638919646,2.055242073424421,3.02652010646279,1.9955288067015966,1.0706013596263155,-2.129755209844057,0.6619311101307,-0.29284992335829346,1.1432640227144586,0.31552274951581954,-0.8599463631025199,0.91847072086312,-1.6112641378368548,-1.2006507047936434,-0.8489380817319633,0.9475051668595261,0.8599342514616944,-2.72193336835383,0.6433532029767902,-1.952901041942404,-2.0916725580408575,1.0677045397943403,-0.9841198164841508,-2.1779996767255425,1.6136497326838342,-2.2089802340171563,-2.6694561597465207,-1.5001216441978609,-2.9247248146103644,-0.19181648899760995,2.088834801260244,-1.0959153033680065,0.773648279714001,1.3378732052636697,0.4023738261073671,-1.4124557459504312,-1.5822859083364722,1.4946159937853185,0.2846743221395106,1.1096841853884636,-0.5498603105215253,-0.3816783270167611,-1.1348347863158967,0.9709136243777193,0.6387583290624865,3.358272305683953,0.08270813874647946,-0.455213471203634,-0.41821999693890244,-0.07650551130722638,-0.42520997831581264,-1.7311354180294705,-1.2070547937627008,1.3606528541972567,-2.587052788281368,1.6475450711588158,1.2424553754653518,-0.5598931362278671,-2.1102837780601713,-1.6690127674196615,1.5763196136224258,1.685111752941531,1.4006924000411962,2.4316839309274663,2.3451041875676597,-0.9103048845516448,-1.038891541255037,1.0018657801028878,-0.28146805592397334,1.2603019399141027,0.7466393054147255,-1.376686548619733,1.686131908003174,0.5587998172881814,1.0686818041479915,0.004703591494791758,-0.7054056195121049,1.4582166725422478,2.4193729218778186,2.374811449182697,0.11262862373518367
SNU201,-4.153981039598601,3.7889214910741846,-4.7560441256541255,0.09499839858621421,-1.9526263205026706,-1.685413354800778,3.3817746062592318,-3.687083259112559,3.8826333611642854,-2.224647942977232,-0.5377605163513391,-1.5921388011718247,0.33252574548939295,1.3265796269517236,-1.7784340109891092,-0.7035475808167382,1.958268775646928,0.3987218810557034,0.2347842213690786,1.0072199852371115,-1.3099857371401151,1.564205567890524,-0.6689940730398773,0.45764813480838323,-0.7348967400008515,-0.6458459690068233,-1.6704815182304231,-2.15880914250009,-0.8947571693572519,1.6979772578149994,-1.5851501290201306,2.6615453467829338,0.136414066864714,-1.4964444704770108,0.27014145445449156,-1.141843040722191,-0.051121654457361505,-0.5123487981893052,-1.59003630992765,-0.1319028878564859,-2.0520918560329866,0.04956219966384541,-1.1912031709109419,0.013078752896211908,0.11444657451248993,2.2991212838486392,0.6553486830074181,1.1122477272593612,1.250226535469464,-0.9250059262184855,-0.2995028308735888,-1.580031498674981,-0.06551050829433878,1.0934470788246329,0.7087425139881132,1.2363278711199626,1.4507428020823148,-0.41553346235694316,0.30732462165483404,-0.2789673135888428,-0.5171294195036336,0.032834035450686014,1.6482255514943562,0.24827274434562804,-1.0448085584004134,1.355551349925391,0.8917378472355113,-0.5503759127865377,-0.19413469586136214,-0.8769242706207319,-0.6850212540845004,-0.4757885194563613,-0.5916303451196318,-1.503663065641023,0.008436156221932835,-0.10050332572855522,-0.2544876495427922,-0.8764053587709066,0.2503160674836357,1.6119113158874034,0.051461888066007,-0.11609452155529433,0.26420466653426844,0.4384666416372332,0.3274155348566668,0.622884377766612,0.04608382609157449,0.22224578505272374,0.43558804284030617,0.7062500448746296,-0.9708567146992086,0.6181772870924959,-0.12292302785204372,-0.9870888795566173,1.886800740685069,0.0565487992207459,0.09676969205718397,-1.0299650357520098,-0.14535651094240185,-0.24014106087433154,-0.7493954297256048,-0.0818173091425288,1.0044003752150388,-0.6698755045582414,-1.3029265785022472,0.18382563184358963,-0.8952916934772185,0.7412899688549888,0.16115458385473114,0.577990956972373,-0.005383662943225644,0.40272052244941126,-1.1605288888048533,0.23067371846115395,-1.0067165433062704,0.20263374912152826,-0.4170058601471219,-0.49934062442555177,0.19586904893456714,-0.4193580840775809,-0.7904032997357846,-1.0048175602919671,0.6419406247256294,-0.5431064534556377,-0.627516531332263,0.34751771606736626,0.6131079931377653,-0.11712154541586896
IGR1,2.9243971117921204,-4.627743910717445,-0.15232944075636828,0.24768866014930088,1.1065229215524768,-0.4690065890188798,-0.9987355861082512,-2.0785045565460627,-2.079597828802576,-0.47551805405791875,-2.5924152082135756,1.497991275475288,-0.13144502254967116,0.2525410701671011,3.2395860678921355,-0.5686694398161392,-0.3999309254094117,0.9691588006525452,-0.9888610514091901,-0.5816594979035984,-0.5883033220142894,1.2266918294589335,-2.81965359614527,-0.7382055765931663,-1.039328829041408,0.9578288413764464,-0.8662292257045834,-0.7166757587811863,1.3329910535004172,1.036339058314931,0.6958378401601408,-1.7506823283741748,0.8372742176308583,0.09830617242985222,0.20494005295374307,-0.3740853592541917,-0.7585631045050836,1.1255280474857905,-1.1342919248809824,-0.48578662913774573,0.8770709773401308,0.6038626501860213,-0.26945588692667094,-0.04107225460598632,-0.3860267911964137,-0.22047760385169113,0.7046132606535158,1.0958101479710562,-0.1308748716129732,-0.060753040801558536,0.9406302277410543,0.5082480102458943,-0.78987257959601,0.6875575115463282,0.2683641692750033,-0.6116834283131363,-1.5616886602412947,-0.2182663454112083,-0.14132010107900278,-0.1449608448449439,0.2520766320394656,0.007703779691660626,0.617378343477827,0.511695305518392,0.2226047395138331,0.3110210068331366,0.48815874533267245,1.0961559775555432,-0.17311511472896676,-0.39008966233759024,-0.01710326062278503,0.05012979863626784,0.45745886376847955,-1.088222115319989,-0.7442646198639288,0.6978817557249226,-0.8941256114786833,0.28167537534435994,0.02280929035419153,-0.24656608816475054,-1.7036698749709756,-1.3623703026037735,0.4311949632136301,-0.36074156253769807,0.2660453704688714,0.7801744464093764,0.1235975397160084,-1.3388578413327186,-0.5975941988983532,1.368361274662689,-0.4500538807045351,-1.3128775961174137,-0.25325414693738346,-0.48429399379391797,0.3665925214587107,1.2953131643412186,1.1317397204034771,-0.4002570194114165,-0.5235350437224116,0.1581501454196455,1.014755904213525,-0.21776583320910564,-0.8216553876927144,-0.3256827085260939,0.31156826318743275,-0.8921635127478641,-0.5340297687036398,0.13579667333940715,0.46264857213098826,0.6198313499270177,1.1169930310004292,-0.09715104494098761,-0.01737990025869592,0.34995779528455817,1.0351724810600254,-0.358190545761485,0.2885884859126419,1.3352934971416326,0.8194715875823408,-0.29854978455984893,0.42179461864661594,-0.5443421840356423,-0.39058138419494043,-0.3298008182819844,0.4879304516429135,1.4643507840884764,-0.1407482771358022,0.7680838174983953
SW579,-1.7038152838262415,0.25542389669371013,-5.895435330883653,0.139637833186443,-1.7128931608616245,1.3349614381456476,-0.7741351756706447,-0.9164957049328847,2.356149732912828,-0.16507785358442448,-1.3911872300551602,-0.42519561227614006,2.7456489223292198,0.6331796298736607,-0.16209109215481568,-2.849481852568862,2.955141100105574,4.164617848508336,1.5815560716053312,0.1421754891435097,1.2331074317137878,0.06927601857339413,0.7124252467111059,0.13497584910350444,3.2366327675236426,1.9118477873025213,-0.7151324199251132,2.126654163383766,-2.8319384082068004,0.8238247353394892,3.6268684474539277,2.907086810554687,-2.7979586377714254,-0.8288596476854526,-0.48634242576285464,0.6073988620468568,1.117326527587285,-2.0632229310613535,-1.1375344573301662,0.7179102100347738,-0.9241007608865084,-0.11598290085536234,0.2467496064390353,-0.8368369288559918,-1.2250626585078772,0.510269610264084,0.19477963652713148,-0.3735007779561942,1.6750269399306061,2.7941276970619597,1.5156910745466587,0.8671990146282721,-0.8806306651832243,0.5887184169354405,-2.091797377544985,-0.7388972087698876,-1.6512644160994485,0.17162517378343106,-0.455142399522385,0.3395045249222087,-0.6866145924979118,0.06458951240205558,0.18518662793153462,1.097730288628006,0.2655084174843245,1.7596056691827953,0.7227884208618472,1.2736252873910756,-0.7730843201190734,0.6182128423926329,0.29575276655088306,0.8666516734415242,1.289892845484836,-0.14150804748036547,-1.65775724519574,0.0879134435093219,-0.7337730767164384,-1.3004501304279903,1.1504794710384003,-1.7882823988018512,0.39101946830987777,-1.1104534115501583,0.9626516150612819,-0.44430868294673553,-0.6170359477304141,-1.9039388702962146,0.48753619746676485,-0.9471417607665417,0.8359779585672062,-0.19626437862298687,0.5787118305626744,0.12446542063805743,-0.06747368863404014,0.23088559127710526,0.21132523678347942,2.623337596758265,-1.6603868346994688,0.72090520091682,-0.10076954556085016,1.201476343747985,-0.030880338690612744,-0.35791124552926434,-1.0440410908769442,-0.03228671883698888,-0.4543673610880925,-0.6044730539128385,0.06004193376158078,-0.2344618599432345,0.8041340378018231,0.020317665333955234,-1.382771608679436,0.7412964893848458,-0.07260068464781655,-0.3428364979713407,0.4364092127574059,0.5983626367084657,-0.4321219718292936,0.765580582755764,0.5569320354537781,1.0316995438980627,-0.8909527058703133,0.9732585530206415,0.7981463733867069,0.08405691412867619,0.6092739764539652,0.35106098723595025,-0.10870115432041542,-0.45574718421288246
KYSE510,-1.7436876177919538,-3.163577135504953,-0.942556791094475,0.4778716227578048,1.1830119348723165,0.708045616041069,2.241129757165759,1.9789630918804317,-0.6716255946869877,0.17529333822339235,-0.2456564039862813,-2.732950927053155,2.2485222315703153,-3.2099199759254,0.2265689568950419,2.0097700574782538,3.1832206158489607,-0.15509186715123494,-1.7241790901905525,-0.2835566246222279,-0.6117191082899597,-1.4545017675388838,-0.2719118885758098,-1.6389792102107112,0.0833732246023369,-0.16927520359282708,0.6215748157063209,-0.2577058732335636,0.15400144824542183,0.23429782783274625,1.0345901276070515,0.16679716753121743,2.2082088602932317,-0.2071789842742692,-0.08093799346261861,1.9700578950924204,-0.6350992328729085,0.43032827942345747,1.402100826218591,0.38177787042864797,-1.712285343149921,3.034517548873432,-1.4060664421872062,0.4370098768779016,-1.2002167923225877,0.31564021685662796,-1.4261657824571887,0.986639771563809,-0.03741503658172873,0.5244205389845586,-0.7258050341937349,-0.3962923584696009,-0.4982414477850724,-0.572577520213446,-0.8345829854764542,-0.7663130682447127,-0.5655283566192557,2.0346008656327483,0.22797344819239476,-0.016135786118694043,-0.8107678154786295,0.6798307560202999,0.09643183954776599,0.6938634323139504,-0.9020890519477376,-0.8599417231333285,0.4349708055371414,0.8815183277507868,-0.5266934407651032,0.38326393332102293,-0.5065208629837612,1.1316948826860433,-0.18439408073365965,-0.27616418939725723,-0.010147673240476105,0.9098852278519223,1.2262478678815054,-0.3564709180100903,0.3164296747367337,-0.2972696133655578,-0.7806176688505391,0.7397979362060105,0.7501123648628505,1.0495822406624267,-0.6772301777249242,0.36280447392674986,-0.2618776698174147,0.022966779242544037,-0.0023161534031959224,-0.6111153715459173,0.09126728329983967,-0.2890806394808531,-0.8745674189183271,0.20172765408238194,0.2123263008684514,-0.9470796201901556,-0.6697810953262094,-0.34114884987722144,0.3527173290363284,0.2759446467308906,-0.7156267272545106,0.7516694378991466,-0.13258482430296478,0.47210894276667315,0.03545926343469389,0.6055349488366543,0.2205764091287158,0.5111446148347799,0.14696261800674393,0.07800424743789348,-0.6384928882885091,0.1675723658890442,-0.03941603012752345,0.6475254390894772,-0.41042291186625357,1.3292276298772598,-0.6397588579658731,0.2933532893439843,-0.5209045905472738,0.4686521483251793,-0.12942391489278132,0.07595652492598565,0.16740664119635157,0.9918711226789195,-0.8371613757851304,0.13646451133266982,0.7529670611271508,-0.2502286084958215
NCIH3122,-0.5067718815200115,-0.4005310337333744,1.1693091445875268,-2.926984562298161,3.706613297172925,1.7870837501361017,0.7417990944626718,0.11977413594243919,0.5982093277918763,1.403794521820949,-0.7700172132898957,-1.0088468843606024,-0.21799052949083678,-1.3592450466157877,-0.13410465329652904,0.7715597424120447,-1.6124891543713316,0.40378903858181825,-0.0010859517446649193,-0.8542474101921153,-0.7818041633886436,0.7969650567245217,-0.6830689901060517,0.1264899389426265,0.5174152043352518,-1.0671611826199348,1.608407908854931,0.22623997303163743,-0.7037682250850662,0.6773203738542749,0.08679881755358473,1.2951779714770724,0.6276380375326112,0.43486478995412925,-0.5666925282134977,-0.7539286828781152,0.5220175572112188,-0.19564912687391264,1.285845726059658,-0.8835954136513565,-0.31856317646048715,-0.7733913815166559,1.3762853487565818,0.12560888009078966,-0.18391851642606877,-0.7979807222613399,0.05293302920862235,-0.0980515744462444,0.9859201239133555,0.3755526499888427,0.1902802406683036,0.011311028092484857,0.23827941162494432,-1.3140476569895627,-1.343380153752504,0.22868830638372611,0.5343182946608968,-0.867850079809304,0.5236643572166492,1.455144805245148,-0.22756660886230715,0.8812852702093833,1.0361977004741973,-0.7969417004517889,-0.8245396107346963,-0.37185749034779414,-0.12146000177990718,-0.13069701349903984,-0.40714522219536353,0.05918294350853274,-0.1078887216216905,-0.3836924737467773,1.3890560706074289,0.02688566154490529,0.5674401041698719,0.2531640796697425,1.4450380512845806,-0.1270032165479576,0.5571800592174538,0.13613624675187425,-0.45244824655077404,-0.5125992036144512,-0.12983787733911434,-0.7284507986441996,-0.2656035492289857,-0.30220039180079417,-0.108052137976638,0.43896009733961094,-0.11184693275592442,-0.21287971205822245,0.5472748700468507,0.9141784532029286,-0.45737013107700886,-0.29947095884756225,0.1448296160749867,-0.49405563029503996,-0.026504570405364518,-0.28151963003577585,0.5319877425704728,-0.1627862636093139,0.5826750952526709,0.001213510832637856,0.13125145234013308,0.25000459121897495,-0.39882450705644346,0.4297963903875475,0.6454065355900783,0.6764102927683889,-0.14686129686740212,-0.007020830073571297,0.2602875416943802,0.08265317371032543,0.15827537737395728,0.5306013587999876,0.25942828533527806,0.3337023205871276,0.1266389432693607,-0.17859886270863115,-0.32992030592406535,0.3808072486079357,0.1669593135253735,-0.3167969885103883,0.40373054872587844,-0.4118787926580056,0.2279772092805119,-0.035634931452444854,-0.13256458050955308,0.3300904401620017
OVK18,6.23543065818189,-2.8560492657885472,2.652817220532886,0.23417842449650178,-0.3830267491148297,-5.220316248561582,0.5985797382226987,-0.27735630471342954,-1.1913467430276434,-1.9526300385241515,-2.217113012588199,1.0607874643174073,-0.9843828144116976,-0.11436127575353582,-0.7022367798452016,-0.3159752837088898,0.37487814078787174,-1.0834036448151603,-0.3641163124224608,0.7541635621450594,1.0325772252952772,-1.5304969336866205,1.562583262367855,1.9316553359463482,-0.6490315646816619,0.35275300952012373,1.4084884410242942,0.17829401257026853,0.21851055827785254,0.2626898145218093,-0.6775195115046025,0.7435310202925473,0.49348534928304677,-0.13518613095135107,0.3212574798024964,-0.5620393992504057,0.53932372372439,-0.8176456222181017,0.132847680219978,-0.1590358834610576,0.5011321045325116,-0.2327174180239891,-0.06287711984403066,0.48940780690304975,-0.22318730135724435,0.38146624798168705,-0.3101423316572512,0.6024848102406319,1.000844426035033,-0.8599378275038976,0.7164503232473061,0.9185072194419461,-0.5544057679615794,0.029963194307147768,0.5400860708802524,0.6761133360672335,-0.860632409286516,-0.7290188481985015,0.17629103183725325,-0.22777742694768138,0.062383117773327196,0.01986642151136151,0.3461262805063849,0.4208247584678562,0.799844986842681,-0.47796642462817857,0.1668541934523515,-0.18295223803303695,0.5731518343646862,0.40862560027827716,0.569656844857957,-0.4259051912601725,0.4232927493698166,-0.7343164797066523,-0.42893315441882096,0.06102558457000996,0.5533273557187904,0.07398942387384876,-0.3026152799986289,0.05417178404351809,-0.5404928994276542,-0.2501496040319679,0.17447830459747718,-0.4326165451308511,-0.16926771322219927,-0.9208809260943159,0.058533657062163263,0.04842053710499407,0.2191796742716499,0.10932517994218963,-0.16366806325828887,-0.04242731238816024,-0.35076727114545503,-0.07866865448419727,0.061874865249743775,-0.41210188904021494,-0.030940008745384114,-0.4017685089458972,-0.7712298916905371,0.5072105955542376,0.5528017745219972,-0.27636173853812357,-0.3268377664416738,-0.5072092779194783,-0.03413919488549782,0.07575462770069126,-0.651630655783625,-0.13751469563206206,0.1390693059206599,0.2508010157976716,-0.8715970464730894,0.408836658870341,-0.16037308563964767,0.12054661921235305,-0.38981050111536175,0.20221327730794147,0.3013034376428939,0.27292706533077143,-0.05888083832613192,0.06046873124363393,-0.3695602684136568,-0.06534643080587578,-0.11222288003879642,0.3114736291421291,0.6967470626068784,-0.01470682034687499,0.28899167838902595,-0.3724191044937689
HCC827,-0.180558019732382,-4.794245553018633,0.7921167418774937,-1.7157468554074498,-1.182148603325152,-0.31337966231268166,-0.7197550950678765,1.572083900005869,-0.2690293963200673,1.4599779328815647,-0.7248908945731347,-0.9758523402383326,-1.9053812881693661,1.165535315389725,0.0360236967664557,2.4214959368203677,0.4245536002569308,-0.9702771913852472,0.2800273149052762,-0.10788511229066126,1.5856365334967404,0.773244628000448,-0.6040248861360775,-0.1856669163593848,0.7742798512556343,-1.1058529673943691,-1.5233677487438755,1.6986985816435913,0.7808332885547593,1.3708622821638625,-0.47218917741076016,1.6600302762467884,0.1297692510444572,0.20541489568782534,-1.9519221030468656,1.7503502675128506,-0.6057447583315894,-1.19052935190496,-0.8649169405575193,0.21532075307308196,-0.6678412243607921,-0.5164457970189185,1.3236892086841536,-0.778974888261538,-0.983657710292378,1.292389876174628,1.1265414616264298,-2.1743928411518647,-0.44188994409607657,-1.7250143573728263,1.8257323059264297,-0.39051595594543964,0.4683047476422821,-0.5784017723817317,-1.5009862982994648,0.33937266453441256,0.42729804114996145,-0.31784057340099253,0.4993241108429776,-0.6993988045615629,0.5790630658055546,0.6487824588386856,1.5559172763641873,0.8015518245264615,0.5979038204421814,-0.37106948485751745,1.583930682615891,0.3267480308161376,0.836716824929358,-0.25177086686238737,-0.26437804585720875,-0.8371866185288899,0.5198714431236714,0.12245466500491294,2.0264082326561725,0.14608651668445075,-0.08749689850479571,1.1312166223763653,-0.5274079784779585,0.6326271840255934,-0.16883553475253982,0.21272254538177218,0.09532350641605686,0.19695748356144338,-1.426555290963887,0.0970556490642811,0.6164713235616097,-1.111432916585813,-0.4265458106702556,0.8035890008506822,-0.09447260317274722,0.41569710084529965,0.9839007017118532,-0.6277063425519896,-1.2276636236885483,-1.7229672378955017,0.459224670897972,-0.531147550473512,0.31753495352571237,0.21780604653571772,-0.9666052543772372,-0.5033907003770888,-0.6651219037213244,1.0119153043746805,-0.11571635322065407,0.1759192186460596,-0.07966933237904204,0.5341549308957662,-0.6178929823304298,0.7774408329046099,0.567044638520108,-0.06052928707843167,-1.1735068441364152,-1.7495384578165571,0.44469377808974114,-0.013938184590542314,0.9681977193624116,1.8065261309761174,1.3621974774190542,-0.6358766274009502,-0.7053236200050342,-0.2638235622143068,-0.43514932647776133,0.636790934229385,-0.6064762133578562,0.3211567360597603,-0.5877459966722436,0.6707372969458728
OMM25,-0.8316974245394542,-2.630509583694244,-2.0873849039137293,0.45665867227893525,1.0301210694102985,-1.0463556672552623,-1.6517292790724303,-3.3346014038538896,-0.6399695747188073,0.01851669939973837,-1.577976965455207,1.2191109892150447,0.3791819708576603,-3.0442096639544305,3.3500864459052866,-1.4298973547809377,0.027859355825389502,1.0010612975271018,-0.6453062926579176,0.93269864828205,0.5087443675947377,0.5339730350400461,0.2033183372657572,-1.4198369592376652,0.3894963946412165,-1.2566667737842,-0.5318136190043891,0.5235146023406603,1.350125959204409,0.5287355211384223,-1.1418876104412907,0.04900487051736136,-0.9033055009966345,0.19104982601535545,0.6114211002154277,1.1213710246787014,-0.207882000093366,1.194273686243789,0.21547601208234113,-0.5711689373783249,-0.5376880434970331,1.1849638113997625,-0.44191031203391146,-1.632369856382853,0.02171892565608305,1.4779031933618465,0.24744671340043867,-0.005645020526000349,-0.2423836940163426,0.5243127062720155,0.7181982863803645,0.15780495374287057,-0.12174970491420933,-0.08918116328105224,0.42987513116582987,0.7134695302616632,-0.09127122351074468,0.6783631933839603,-0.5100526046623326,-1.030110931995482,-0.41087917827861653,0.7971840775123681,0.8820662591145297,-1.3115986591417297,-0.8986026750788294,-0.01395523007948367,-0.6528706118260904,0.10654396264890806,-1.0751990169866594,0.0849400170144844,0.70836308486121,0.45251961137582974,-0.4516227786790197,0.14714089407283096,-0.31064448041420756,-0.011215242105726964,-0.7501107991680567,0.07413773745047568,-0.5886934243760166,-0.4145433732994311,-0.2545384842472011,-0.4667070632463299,0.042021742853397166,0.005065686998542175,-0.9192878507358077,-0.49480201546443325,1.3001449574238195,-0.22267426554313977,-1.304176313633691,-0.5642516911308282,-0.8350334582004462,0.3304204744767819,-0.2618957990907697,0.5535540468126351,0.18112378482439825,0.9496343509243202,0.18274275142573815,0.019529665097246175,-0.31890461565719036,-0.2140973289052865,0.4697349507719587,0.07774952965988308,-0.35273573959562954,-0.1964765312307715,-0.09257149214668098,-0.03274918089156745,-0.6864100067466717,-0.6355648213916422,0.6436025007412237,0.29104923277137323,-0.3318418632097441,-0.2633995022834656,-0.7206421206830032,0.6804080642424639,0.11228797622536944,-0.14977643438770194,-0.39410546388675477,0.2832362227162387,-0.5078460462922302,0.10452160771768054,0.2427700355970531,0.09556508641022568,-0.09767921302131467,-1.0267993712066958,-0.5959535869174396,-0.3524426568225107,-0.028842093757191496,-0.5578033385374098
IM9,0.749854299535172,-0.9058785754336227,0.38032906079831375,0.6052003555223997,-0.5360818965054066,0.21807560557961525,0.7132468250653851,0.011796880264223484,-0.41649591322989227,-0.31607198229991373,-0.27615170371890274,-0.06311343650017272,0.4884577298472139,0.1390391485966109,-0.03413416475684786,0.29406877908822165,0.08871584180933985,-0.4336887195776358,-0.20565405836597567,-0.13705824099035424,0.5652659075569721,-0.1935249359627146,-0.07458909828104787,0.04208138959370971,-0.05761117674767001,-0.3440868842053519,0.2493372660446885,-0.21977892340042313,-0.5152563141595116,0.09662709357269725,0.04199856059736488,-0.10860563456971864,0.2339606835991531,-0.06192630798921391,-0.06952759672129405,-0.13057530709690246,0.12200879699654638,-0.02360904460411117,-0.12209749801978957,0.4766510880733737,0.0697948340138996,-0.14817099762169256,0.04767523677645886,0.18204688295434107,-0.2847055141055503,0.03975456510217144,0.1684497689688821,0.025766445222067468,0.04148281053933811,-0.008199454276976962,0.14420084365434632,-0.47380700382867985,-0.13085931149585625,-0.0470923806670701,-0.055019964840587784,-0.13155841269680107,-0.14705771040320686,-0.12061144443308713,0.2155257516539993,0.20854419595118623,0.083110380929024,-0.20015692366024967,-0.019870148539722896,-0.07495790122973534,-0.18268636732746324,-0.130495129453634,-0.12497752044938984,0.285534820804781,-0.10065678732943774,0.18283021906526623,0.25996841981234325,-0.1468080498278923,0.08387816145122325,0.22450798588705828,-0.03473212349235724,0.07241174497942084,-0.08171341900284439,-0.08643782510995586,-0.05859514878116203,-0.2677129568983574,0.11014341984206891,-0.008117873260690002,-0.2118024705152403,0.13810018889915213,-0.1322056707882962,-0.08524253614692494,0.04881724468724803,-0.10241819202700429,0.2423815326079888,0.16050745965327265,0.032376682450475605,-0.1411166581536406,-0.3729092509394247,-0.009675963524473396,0.21493025571079802,0.0074028750823397155,0.06735156842421114,-0.07482352888668131,0.14327917140992139,0.20189962807686673,-0.19804291527100853,0.10015541050615355,0.061450210404312894,-0.18034243276437564,0.020450193499965068,0.065109252343128,0.057275542209562616,-0.1151276116285725,0.22919497034373856,0.1751524191087178,-0.004574556177030409,-0.04201295902894684,-0.14085614971347446,0.14069290095686376,0.24263617259138023,-0.09703609108949382,0.003461875500859023,-0.05737768066344591,-0.11914952165193571,-0.022344843619402706,-0.06123916773783772,0.0218701503028953,0.00575540204252792,-0.15071194208701957,-0.03169244145450564,-0.05839941875449159,0.03750426371524805,0.057859164526322095
