,0,1,2,3,4,5,6,7,8,9,10,11,12,13,14,15,16,17,18,19,20,21,22,23,24,25,26,27,28,29,30,31,32,33,34,35,36,37,38,39,40,41,42,43,44,45,46,47,48,49,50,51,52,53,54,55,56,57,58,59,60,61,62,63,64,65,66,67,68,69,70,71,72,73,74,75,76,77,78,79,80,81,82,83,84,85,86,87,88,89,90,91,92,93,94,95,96,97,98,99,100,101,102,103,104,105,106,107,108,109,110,111,112,113,114,115,116,117,118,119,120,121,122,123,124,125,126,127
LPS27,-48.16696861031738,-52.27400980356163,62.24918622929129,-14.226723623401263,-17.527648048710667,14.74792559806421,7.7310873189316975,32.85987419313943,-9.59477293440925,16.81369634291896,9.042120621879567,-1.5973374267013911,-5.083082764034378,0.8503456675343213,0.16594033997189575,-11.983717796075574,-1.722748566379593,8.14783789439837,1.0660636167943305,10.139603618610147,-6.670003699594801,8.844662496153468,-15.371464411380984,-1.050594753100925,8.975022976754603,-2.522050070257562,14.141619740767666,8.4487812547328,0.1593357595533887,0.3343258597470138,-15.923905038705115,12.812184761588618,-8.106051212829264,4.861695218315415,-4.041317161463373,-14.583000111371136,-10.733108931444365,-8.195261825177175,-7.182781206874925,-1.4431143124481922,-20.336962074231224,-10.108641108830488,-1.3663018067478983,-6.637477127447321,0.802186968478006,-8.929769194781427,-11.89817261316463,16.657035514550575,-1.1407611968767961,5.941361227790456,-7.877349093712925,-5.647343534482686,2.149859977100857,-13.486257569148563,0.7683812910849989,3.4458761101029185,-10.190124924379546,-7.096063515546878,-5.23241651210525,1.4238949241315524,6.531778738032759,5.244847507549502,4.665657551907682,5.626691755809259,5.460337257575733,0.5564845967066823,1.9818677539805312,1.6898925942753524,6.070411182317092,-8.225337658305236,7.55045547353923,1.5653308642582768,3.766887416208678,6.7297216131146,3.8259286548659404,10.538509700879406,-3.2986487818744124,-8.891062092939872,6.651804776178715,-2.3413697863473035,-0.010406622547904377,-1.0089086985744524,4.391261272700685,-0.4783549579082805,0.6119286510972534,3.587659083136887,0.5904527103797894,-5.576776294132651,0.6585558784645557,7.012692218404435,-1.5535822210208683,-0.1472260582596099,-5.842860540441585,-3.4994124950283276,2.304106367863986,-1.5336946914868532,-3.275954957691153,-2.394907954507809,-5.1724797199840955,5.426804662506445,5.7648368929574225,9.919968865976548,8.437433949244307,-1.4005811195652926,3.9284900338414475,-3.8562335927194633,1.626111674759777,-1.3967541003411785,6.511813730404384,3.177008714701516,6.134129099894862,1.443801002449315,2.9916367417299816,-6.8067714211281345,0.17368078745982482,1.8858095522908602,-3.1804331321872086,3.915041511235023,-1.2456081643584882,1.2859748075892914,2.9499759057441315,-3.2803257674957234,-2.9201556514220357,-0.52621657834559,-1.247949655789159,-7.497654023802582,-4.569311078662286,-0.1944362041073836
U266B1,74.5580997610258,-12.821167374489775,-3.7462493176480294,-30.655259853403397,3.2993399596251463,6.377116282165658,18.124463379904387,20.292874312683505,26.36484233995423,-28.741007936518553,15.35054738419094,-32.436763511256025,-19.751663899361482,2.974070469395534,20.464859856757553,-15.188007655655275,11.680247985163195,25.74090184306653,-10.78529888767515,-3.088769316625225,3.282036072397905,-12.226201601075173,24.415846143226755,7.792511966025316,-7.381532905260336,6.497024310887933,-13.25094182255047,9.557900429566168,-3.8561921618361,-1.7495193024846887,-6.672666336251244,-7.469267186608606,7.228830570365879,10.251338235515702,-7.6421731697,-14.736876070311219,5.692613060328197,6.244086869590682,-7.977483914428214,7.829259960490499,-4.99348434642032,7.9616441179023925,7.183539663577702,6.907119116653427,3.213074589732252,0.057968151839805505,-3.7409711563093317,9.143049051751031,4.786570566825086,8.277305952154869,0.3729757651711873,7.36883123756381,2.8259304125477698,3.064550132067148,-10.901620550106756,-11.935282737430253,2.5094893035098753,-8.140051116388529,11.581318539948489,-3.6574131778146906,8.930090299623625,-6.147386196778934,-10.584696110734187,3.3952982656416717,-10.74748907019681,5.690619339216539,9.60377284302936,0.6224655325903464,-0.8206165974805644,8.482484395283207,8.037413639217917,-0.34392546156861387,-0.6089797772619512,-3.6579823570802175,14.28178877882311,-5.098800717474459,-0.07413697080731538,3.963168446138754,-6.409342751514745,-4.90729015063718,1.9670118004104844,4.642170983986029,-0.9713383501343948,1.842670135577632,3.203711651883149,-2.5868629256837417,4.17306710865431,6.125162424086329,-2.6063533619967303,-11.944056613647245,7.492267676448308,10.330403738084728,10.248029616831301,2.2068086392534387,-0.745841694089453,8.156917739719242,-0.9109024290864854,8.650193046317622,3.6424816622205287,5.267494246569073,0.7564793078180233,1.217877650545967,-9.745324327738624,-1.214734351638686,-5.083326819301662,0.7288980311006896,1.8108512130664842,-1.3042349279613275,-0.3994656664968924,-2.1801213165353035,-5.226163305925522,8.49925397266781,-4.866064290733605,-5.6517680660820595,-2.1494313602689865,-2.984111920776549,-3.672340863740321,-1.219816924239205,0.9249996005360057,-0.7879547515380307,0.6914254016717448,1.0034933691843793,7.7541936065412145,-5.062693577389315,0.9209053744862776,11.94706096872995,9.456513966812597,-4.249259468228099
SKMEL24,-41.20558448181835,-53.87438243355664,33.17851762999736,-9.481628474761369,46.5024732841822,47.261547023480134,41.01429604846344,-1.1212906128553877,11.979913602017781,-2.521610140274573,-13.156696333882456,11.87761205082027,6.743662954681944,-3.44075056892012,-4.420191083678554,-1.0751211234817006,5.741887900051202,-3.4776657517749934,0.8574949784879444,-2.1694895609756135,11.619347899557267,-9.532127362559411,-0.6638593649213728,-11.890259577543725,6.081286286750573,-5.372481672545774,6.599393407267843,-17.735232852902218,3.549186063036565,-13.99659892710543,-17.481306948057238,-3.1012770996746837,6.58140256279307,11.097655279151368,22.727392786310567,-0.18100357865250008,-5.528873211071359,-19.008183693601794,-12.45047962614663,-1.8215197335410556,0.7738885530722621,-2.530867505121145,12.366429317892646,13.187895478356712,2.5452150667834137,-7.893964790910831,7.888952279840457,8.618175196017953,12.226120778561587,-13.023143355244084,-10.273996925024358,-12.86514737784758,6.353511151755396,-1.2835755211723756,10.702518661291275,-4.522678282719448,-6.717254797326413,17.13674677056804,0.7027105368549349,3.106678028590556,-6.12042167893236,-4.702935742464774,-5.338771772492427,2.4360724887110212,2.5997567391678005,-0.7203045205409705,2.158091756933276,-6.750160944602306,5.520159523125432,-3.3506460831347593,-1.9706162376107124,1.8156816946995111,8.29798475653205,-0.7464150540819818,-6.2915934138066,-4.934390068840512,1.4922700889285703,9.75181296495407,7.06985568593377,1.8469176531872933,0.24542638110580903,0.025016897355463866,0.9213036759874452,5.320324671302436,-8.700424005663452,-4.054086147013791,1.5331741951926459,1.4550952751309285,1.6298286575758705,10.507497614850827,0.7601252685011245,1.9812093584978936,2.13657824017002,6.53801932665738,-1.8236611312320647,0.788352296007078,0.12293315844118616,1.9122426606724818,-2.0655473093786143,3.9842678581633373,-4.053626388351732,5.052974773529788,2.9488243214475367,5.387729166174329,-0.7462313647737769,-5.3719539331538195,-1.1185201836319214,1.9642036748437388,5.216509166391473,-4.032815094967291,4.800557430229131,1.1189163440772074,-1.2332838994416149,-2.6810889358664505,3.4508578782266914,-5.244749476829371,0.041587379010144324,-1.8865104143792044,-6.268216603480057,-2.5051277969065655,-3.550002440220583,-1.2205919352746029,2.1944202920029143,0.6616936179012997,-3.555074320382314,3.2363996596338778,0.5193272358461741,-0.36570797681628936
TALL1,105.39590833562617,-20.638544970625578,-9.846440520682602,-40.950636367179655,-20.47238942219677,-5.529548419039444,-1.8703676023849056,0.37990596601064397,-18.022046969183855,11.285603058955237,4.461956300311094,18.86427456097799,5.6302415602384865,-3.6699773835801164,-27.199039003957342,22.10835124765813,1.6400002434609466,19.428389317487255,12.224091677431588,-17.39513816630745,34.40532889280887,-1.5743867225872938,-2.627752965316437,31.71857395737666,19.760626189464183,-14.14854873077816,-18.994833163890988,1.1698176623843088,-0.4998893379365919,13.673860104727726,-8.42474765586698,-2.12043165183812,16.33175226794914,-19.65340946567508,-18.300910372505953,-10.036652384645649,14.760530660110076,-15.294014242731205,-4.600075252394469,-5.684561741543294,9.911003272768507,-7.265182609686863,-0.9024980888931226,7.568547361472859,6.002074110030838,-8.957692230147817,9.496132301171299,4.986072507824304,3.095748829427185,-4.806586927149729,2.9145309083883233,3.188378795875637,5.037811337818049,-3.5053250101446927,-8.183969275086989,-3.0746093671410724,0.014991945052697533,13.403066154481863,-1.7460104852114344,2.4380810643793693,-5.320726510377993,0.06731260894282569,-4.609006001573431,1.2161450762948538,2.5375898014472593,-1.0106709433644296,5.2088666922864855,-2.238857001136652,-1.5258512349610256,-0.8359041390016491,-0.560562310614374,8.338416367164914,-4.004634779819,-6.458849538452525,4.004307624135312,-3.0049934836655847,0.1042392170051687,-0.6275737047409176,5.417539556805591,-2.7430421065745745,-0.6811131058194002,-6.05178256355593,1.9414876281953244,-1.9685694303171832,-9.338808387620533,0.7358449786771015,-6.234682570358043,-3.4898798957303,5.234109964960012,-3.677105045998932,1.011665367850649,-0.37194186082892966,-1.6640664350653325,1.8851545525517512,-7.540858955297117,-0.024702887961879395,2.6924456175553453,4.488754840208285,2.8464558522902643,-6.4739286793739,4.855813318897934,1.3364285441874062,4.527778222898464,3.894605388268724,0.06517019585151405,-1.0179598416936422,-0.4715125246656004,3.326581417704974,-4.753843655497521,8.18477272272739,-0.531603608018421,4.707526770417441,-3.5050944042753494,-6.075820697928765,4.568956084538021,7.233382725130128,4.184686669816773,0.7561273713041514,-2.046971041016167,2.935243023693318,3.1446463483679885,0.06076540140466728,1.5061449200953123,-6.473807904395302,5.306793162436224,4.164486456898756,-5.37751090892652,0.9563600726056405
DAUDI,130.46588282575118,5.121155780405835,14.484074341059777,-43.57345501986046,-20.2724728678782,4.2922050644923715,7.8051641860066665,18.300009703783967,21.06533044389425,-36.15174694007145,7.218776567018558,34.9518180794395,-6.333195109185622,-10.38476989871814,5.156706060505955,2.139496223412483,4.805912055856088,-24.809505497289635,4.255268056426935,-17.052336188112772,-14.908051761975099,7.536599706280797,-13.222304746277082,-4.375107203652167,-16.67685178494364,2.8179565622945226,1.464372403484762,-17.24294529359869,-3.8051886455797335,8.174738187342914,10.342824402719744,-10.135219411812104,1.1582170012948934,-7.121642418803041,1.8299528225931454,5.055446311982204,-3.305607767513579,-6.718920990244256,-15.210273435217406,-2.200783767746238,-14.068498888898436,-5.392692776131693,0.3713406574364872,1.583750570955919,0.4166106864029892,-7.617939767901582,-11.303468119521716,5.265499187541774,-1.151243263568265,6.751171532373402,6.146901387569348,1.5516410084402212,-1.828508396428938,2.906953892066819,-4.52222383243002,-4.384046889600323,-10.59966602628984,-4.82711350133693,3.666705228818454,-4.753390519422421,2.023243515962065,-0.5371991922715902,-2.8518293522774973,1.363209909358695,-2.50250489750252,2.570348695988773,-0.9813728854386036,-0.02876978982680189,2.2583686277011727,2.2478559949135253,3.5886037320619937,0.49102920918668425,3.5708017757962875,6.780398114786615,2.3252473978706885,-3.7642910936337666,4.115185831379489,-3.8715772554652386,9.625294929149641,-0.14456881192540766,-0.2795870061977803,-4.622978220009682,2.194075712217312,-1.1395892325167967,-2.644677461225227,4.360806837502783,-2.3637575312441363,-5.430167099707443,3.6827133322717565,1.8721055815746175,1.2517925008372512,-4.047690557471801,-6.693497360718298,2.889955303482853,-1.2934858315884254,4.5190928271636714,2.031784622718663,6.646480167788286,0.08737370937277819,-1.3716694931429112,10.497581863880958,-0.2667568512888637,0.2862097187148916,1.5700851607569357,1.4739338259105845,-4.780531788137674,2.00136929590999,0.3918686896347268,3.077284113984154,5.409436500602785,2.8716019070207714,-0.19055506415710574,1.0520305652890107,-3.3426574368359985,-0.4706940315062253,3.2123638479268606,2.5366639432155553,-3.0690963539429315,4.237978310199068,1.1211289950941954,-4.137001567920614,-1.2507759207808875,0.6376653366552747,-4.9718930941533985,-1.3860853479202184,-3.911943046777474,-4.9453831688028576,4.404030791719338
639V,-7.2234663811422415,-32.698784277951965,-20.42568072100015,-12.508220539672461,3.08903868574666,-39.82009693170418,-9.043414959116696,-19.10909966834048,0.9898541510792664,-10.540946954192917,-16.716111669224286,-6.208116948033084,3.1441521103774313,-13.758752090347524,-3.87996983989061,-10.862453382835275,-13.651648337887323,2.8202545189687216,-2.878263910642928,0.9713078052723401,-6.315845481462971,0.838331321043279,1.549525510733309,5.944927688373399,-5.674163954881812,-7.484952595365923,0.47842587070759374,13.424818396737724,-0.7292105279331667,-3.834261934175014,0.46857028762450326,9.40402023224334,8.226705622389197,-13.615417568411274,6.827089061746473,5.146267888783107,-6.9849658385548805,1.2238366298649017,6.775272179401995,-1.809601127216545,0.1648874014707114,1.8755729945795974,-6.000423757747004,-0.9789419491112632,2.99969836782382,-3.632645139391423,-12.998795787798105,-4.980064246083997,-9.328180594241058,-10.419288280933634,1.5278657474632005,10.226198457108424,-10.950468841138344,-2.346544540197126,11.103478788695446,0.8395733531144653,-2.0879190871724105,10.913688850246729,-5.6646139462021186,-3.945262354237804,3.0705136516427403,-6.741878712472322,4.5998278548563984,-9.21882185644469,-0.8116976949271242,6.224278385232139,-3.8604338689007975,-4.923831029261545,1.2485552955286543,3.17518472545855,-9.002047647945707,5.2970518624038885,-2.146921256889061,-6.685823695435433,-1.9981047138680965,-5.468125397465314,-5.161717359584361,4.717523408314173,-1.5466350490739331,0.912493485571801,-2.979827170279292,-7.6891589500988236,-1.3633854790485012,-2.622284257338814,-2.3667861840172653,-2.2850234153003584,1.9379147079428953,-3.2220858840594,2.8836221037787175,-2.922507532752217,-5.839025773735353,0.631627144704193,-2.678122171806739,-1.2707551176742318,-3.359251741558004,-4.636740367646283,-2.389536677689208,-2.983700727770765,0.09999912972175588,-6.977885513151786,-1.8848585839063894,-1.2827432852387328,-1.986083520828954,4.9915811488534665,-0.82090064152356,-2.7648859771700454,-0.427799987809955,-3.161519336227394,-5.901948345484557,-9.59856286469079,-3.566959519317494,-1.6862051693687188,-10.344079884351258,4.116093255982373,-0.1912609691723706,0.8183552876001841,-0.7120056850876451,2.9156457244267497,1.0520393357257043,2.094897511542937,0.2730137243700845,0.8780034557991828,5.818301819776489,-4.326130101286604,2.8894266283653067,10.014182426331288,2.98558020012476,5.982512555249119
SNB75,-65.17817078434365,-74.42731361560318,5.056326883263301,-27.850238351342384,-0.3523723345157193,33.08842911527679,12.0687152255744,2.1704755427015106,-6.155828588984947,-7.331085779292943,4.967931194041384,15.904138021684123,7.193167014392212,23.576983526507895,-15.047252520774357,-15.262986703141667,-4.263805968968077,15.465787015740142,-13.943363500561377,-5.001560653884942,-0.8119511349476034,4.664975262058522,4.123676743963689,-10.456680346334384,-11.09025137449352,-3.71719159383481,11.849472428886505,-2.0108477155047804,11.905603094332857,17.507367728413822,2.8899081598719665,-1.3319174004502334,1.8453874564584622,2.862128566974099,4.536605801046541,-6.959504601031653,-6.000276076632709,0.5231022607222993,-3.9901436247485558,6.530831014327603,-0.7115044631218236,-12.509661829568495,4.725072765106676,6.93993864570186,-0.48873620264706297,-4.482894626134352,3.2250930245888574,-8.9305779056649,1.0536286840315725,-5.366605957626084,-0.31008954655131127,3.5691434223994287,1.1794936297476644,5.075916980627395,1.7426886173293938,-0.493246796550285,-1.1628244064689164,-5.771000814194874,-2.5266084042094885,-10.069561667806449,1.1799013421680755,-3.1759001037544428,8.272026412622857,-2.7882076640585325,-0.7582623506413829,-0.997818539960396,-2.7838953324121944,9.724362657075226,2.185845218046912,-1.830529008191735,-1.3122627495350718,0.7912567771681892,-1.46245244923336,-1.5468475953153449,9.977903214114654,7.542319598980915,6.953112139740909,2.5532013048137414,1.523965592792509,10.869960636200105,0.2237347335377477,-2.110716549341356,1.9402332935346298,-4.101615238960257,-5.209827973645723,5.588765030220125,4.811274450156109,-0.5430300432783743,-2.8293642499785143,9.14774162505011,-0.49515153736770784,3.0679575858522123,-3.992901342807024,3.672504998456618,-3.6643484159725928,-7.26334283112859,-0.26429806544882517,1.9146558142548915,1.2057818299430336,-0.46189284720937784,2.447012401634242,-5.0063687734383135,-0.7105790769307817,3.2632468610011665,-2.7387839111544574,-1.9012159099026975,-6.7328859121588005,-2.075239394358026,-2.096748060819149,1.2151978372671814,6.509234014761991,3.5455427903042818,-2.2195405172107825,0.2807461469800573,-3.0782304292398246,0.38623210691450216,4.681167586524398,1.6415456286615984,-4.072061232475419,4.520360588901735,5.250593957494327,-1.340497260578276,-3.4658296035305414,2.4569356753486806,-0.19008829683318224,-2.801994845900593,-0.05292608127119664,-2.3350820296220096
HCC1937,-45.87142855099736,49.82103289054231,-39.23871268122627,-35.11621126018754,-23.089286948260426,4.795827105466851,17.70933273609099,-18.35932034078709,-3.988455907491276,-4.556677966302865,12.283655179952007,2.9057125845031315,17.46275825118199,-7.91446928308041,-8.16113505209081,-15.233335024639496,5.378343561186996,3.9587603141638086,-10.04885190296599,6.625636205106212,-1.5890902916551906,4.309379455550921,5.714804953828527,9.769073167504095,-20.268901132096982,-5.393457540415077,-2.3833527212404557,1.5959963741525558,4.1297391522870655,-5.177410422887888,-4.176122341273683,-11.786166366272974,-2.8292263619341464,-3.1800612934436487,-2.1770892584598838,-5.86341004449162,-1.4883730703547537,-16.46163861264453,-4.86073222894495,14.674527039685813,4.8829293737696275,-10.765369850857923,1.3405691630438392,-3.2887955680076186,14.58644905088673,-0.44066003834168166,-6.784720709620968,-16.32467361111758,1.4631088232171976,7.436838399066509,-4.427560401477331,7.899795660621653,-5.083090416867967,1.006382488665889,4.6158017757668395,5.965783536341259,-2.8608418714354373,-2.3037016237642414,-11.35139498277504,-1.0418124437497385,3.2403907854061633,6.551191677570564,3.5827558985573305,-7.783387802908748,-2.9806557551372674,12.20441256457831,8.491142177242756,4.55922944551225,3.660365472686665,-0.19349035879404802,-0.3938892310143557,1.8952356045905587,8.44731207450567,1.3894416144046047,0.7064630923292633,-8.607147104276281,-3.2456388385996893,5.133711748455395,-5.954521125341308,-5.653108729418971,4.776702796844809,-7.024332482427926,3.2145541572961687,8.658349821679469,1.5557708059226611,-3.622727519704985,-2.0814988978314504,7.101273189395769,4.578581139011811,-0.7784411576563224,-1.4909947173133216,-2.03236703732171,-2.354764542974295,-12.241323194548825,0.7164495692086089,-6.561202582211112,-6.138077230138348,2.2555491684153997,1.8224394712943541,-7.006201576850484,4.79188991239198,2.465492974303012,4.120234710229426,0.07069336655431241,9.417856766402624,-1.8567402931205403,8.376188387212268,-2.8821921878871493,7.229505231020428,-2.0649635193389657,1.8430628336528556,6.230931617218222,1.771720999762376,-0.08595250484764108,-1.7399968945734123,-0.9521711754622407,-2.1368713599183007,8.13088932529077,-0.5856744841573662,-0.03705690741104721,0.9941541930642082,-1.8592714324719453,2.1334890512540774,-0.5267502558156371,-3.477957503246655,-8.155048224266885,-4.53092315671566,-3.026658626049076
SNU620,-4.533641655843381,73.03960895414596,-45.93976826525707,-16.195890423368596,40.62954321297676,14.76910469613388,-33.57905020748811,20.254395995522366,-26.298635858717876,-10.994720170063522,-12.988208787468329,12.145496096861299,-14.833503310662751,2.733452490386431,-17.184945108333515,3.3302148982181494,-0.8120521995354945,6.943565689536485,-2.4359194847639136,-0.8684315121336936,-8.785559514643571,1.4064576870828196,-5.082584025886566,0.6676217298903323,-6.371777929052822,-2.357598722310494,0.8877384622629546,4.985627884389174,8.195523597706408,6.882531197146011,0.35638797954554663,-5.226081632911386,-4.414162764358379,-7.939597623605403,2.2129530077196504,-4.607415688308338,-10.872002695270796,6.824785650862459,-10.550781548919371,-0.32963210810281496,7.757013951792173,0.2533132392961734,-4.689571932802664,8.678129667733709,-0.2760105921796806,16.230485278859636,-2.311157457924927,5.0069180936828435,7.6242053927062,-1.9800668568659852,-4.58553714358092,10.418128048147427,4.203015217072062,0.15472713746873076,-6.863263534253624,-7.023921831348787,-3.8695945021652847,3.5516728205507047,-2.2848327520350327,-7.15824645962121,12.00019430000502,-12.203219389130549,10.55299075219966,7.423093887963461,5.892386644919971,3.157298885540008,0.5358565386538164,1.1313591574344783,-2.9106101876803754,6.381599768621461,-10.485408090716849,11.450951592572375,5.796689848604877,11.773972356562064,10.825395964974161,5.406430126468852,-1.936997776623293,-16.465815071635372,2.6632572820826947,15.347631556109151,18.26979657849351,-1.9956432090014964,-4.650334150270091,2.175404167514237,-7.796499664513542,3.113007206554071,-0.8538459476450169,-3.7280762169092063,1.4622016744881086,-5.278483176295332,4.451052027631801,0.1682869133695098,4.359236574135626,-5.4357868060720405,1.1838056150302585,-1.7356028501011191,-0.8066742274204171,-2.8292990270092053,7.66461803277908,7.841096278657571,4.510568696472777,2.505435000443476,-7.1580419040000995,2.1765452343827834,14.558807297201541,0.229378801263578,6.022710139315879,1.3117758741015362,-9.301365656554538,-0.2819984510017849,-1.775975184279536,-7.974296337879749,6.95917924638143,6.915552713828694,10.331559713906763,-2.365423019884255,-4.373619134481183,-3.9971773698640685,-0.0430746641901114,-1.408270696469895,-1.7603528836343612,-1.6557522060782734,-2.9164824291773335,1.4355616867402172,0.16432878451307506,3.9611685158176706,6.039676976472016,3.0606830545560118
SW579,-49.56069195154951,-70.37420969435637,19.610068873971894,-24.788078610594233,-6.184596782006364,1.660757639109644,-13.384153961536795,-1.0682372116964098,-18.42732085079023,-19.585728804873916,-26.70530236643278,-9.436762817740018,6.5425112499565685,4.37303012618528,4.779046953331456,-3.5113157093227105,6.289080628276656,0.652464781067331,7.834541560127217,0.2518155545484086,-1.0397259257949527,6.184014248094936,1.729374295140462,-7.617307680749564,12.872381629392207,-10.78966399997251,-4.807963944306115,-5.47708900505861,2.4715900488298175,-2.4706384691168553,2.550920249086422,-5.201724881085063,-6.208309733599928,2.8472690306443766,-12.647263170587854,-5.128594172519526,-11.889368536070725,4.305580234843968,2.771731653849979,-5.076856699263778,0.9340909399331981,-12.65197787568153,-6.556411659491516,-14.564758327378808,18.19548164472215,10.241493601925464,2.6545894416419076,4.1330416928412745,7.318400804835781,2.5752173647796024,-2.0585840623399254,-7.018461481884367,1.1262276825213404,4.940892183452991,3.146669283030034,4.479930599260333,-10.13248715330032,-5.023461566157763,-4.18002906274173,2.953041813621798,-0.5970277240805486,0.5647848308465967,0.906929899065851,6.809850040935422,5.153835828866799,7.78079456464577,-1.6479187240025543,3.979992436741224,2.154021356686538,0.5976080167358409,10.497231894162901,-6.8433436805894905,-2.8111977921797306,-3.933599645237053,-1.3968117364053383,-2.0220194067589365,1.4126920979167579,-0.00844905567609181,2.8235897078207732,-2.7813237192267426,1.3869569974636136,0.022257387719088462,6.036212903707496,6.223444335965755,-1.7918102134204228,-1.417331114059163,-4.487042971547596,5.023496496948824,3.385498056816502,-6.7937217972591535,-2.542008999175821,-3.8753357229895533,-0.6909208378371725,5.42468092656208,9.326324973305574,1.5499131827452308,2.2860836989033624,-9.448983343450985,-0.39603604807684595,-0.5962948545251511,-4.149670520422911,4.369263019180065,-2.439719822082544,0.26401951800587026,-3.0942947647833505,3.7192982973273687,-5.614644242641385,-3.3028669039485514,5.863937451418619,-11.119148554956517,-0.9843025828280861,-6.004174206332286,-5.769288530787833,0.6521813786068049,-1.527108084798679,-0.08725968660342034,1.8371731375438047,-1.3420708707844713,6.529780046379505,2.8230464745951656,0.8234420266250213,0.26101526012525894,-3.572094581206101,-1.648479943245395,6.407622314502724,1.4275975260599245,4.635794394928687,1.4742545733614305
KYSE510,-19.96014835511262,54.03431289134178,-11.010452624864618,2.2239547576517444,-15.744879812331762,-15.428335457877493,20.756473388647127,-18.47702693479117,-10.345564039093645,-12.191087735454763,-2.099099161736494,0.6133967328728765,-6.348391721935008,23.326411958020138,-1.522561977844263,3.1895225692114626,3.7861174410407736,-8.115623821347986,1.1729702894745115,0.7814741534342271,7.265595231169059,3.182913374432262,-0.9261458019277559,-2.9913797137070555,-3.6756819425152183,-6.99235127249989,4.634938405935628,-5.415518798320046,-0.6736155216126715,-4.012865067391601,-3.1330324535975933,-2.4026322237174065,-12.544073469755855,-10.227360083272364,4.883678828995312,6.244604176805598,-4.058899474516416,-3.974021599909888,3.5364015980394217,-1.7173065852778056,1.6041884985999266,-11.953660585153253,-1.3358468801733738,-1.3295113777193022,1.2687901517676479,-2.6104654456901133,4.240317922070531,0.8612112378948986,2.3855571141908496,8.816067800452045,-4.636226071024509,4.561539000552396,-7.085881451670607,-9.863297684523202,-3.034615765881486,-14.843282739854011,5.475397120561142,3.4761587079797462,-0.20051810532730974,2.6680024948752616,-1.8833794819099576,-4.004622400240943,-2.8233228687395844,2.7773485429258256,1.7829207331545491,-0.03805077231835574,3.1672734716338513,2.2051709746710206,5.119340532765449,-4.449119630682663,-9.609633773360274,-1.104448820469627,-6.03989440241656,-0.21065192431223617,3.3153256272153895,-1.8620668740293405,7.966143874777329,-2.837542984317437,-0.4643049820309304,-1.096420760079173,4.776196652429317,2.0928567600674755,6.779775798962486,-4.063256119666584,-0.4848230672851243,2.634536298952738,2.7478381816149535,-5.265674084893081,-8.328589119387503,8.42786800321715,-7.647920453595655,4.146315495285228,-0.29873988070206975,-1.5422174668719577,-1.8638154822999256,0.05322185551547012,-4.1802240950016625,7.641121072304461,2.1360389944499203,4.136692513530364,-2.923349582824865,4.849673794808597,1.2912031161578192,-3.977496613738745,-1.9988509402604775,4.280256861744632,1.460590097926556,-0.6821339725009554,2.9968922414391947,2.3369532644322475,-4.435577317305439,3.4220467539249477,0.24490270526183705,-6.174891671443565,-0.24829187435811056,-0.8455067092456163,-1.8009008613931439,-2.978465634307046,-3.4545975597947343,-6.101154801406771,4.931605017972787,-0.15349157042674794,3.914589901104544,-3.79030820039462,-3.1499518308501977,5.819553445117132,-3.3421572743811923,7.304081335017209
NCIH3122,0.715535298643729,48.67462180694459,-15.42929861788508,16.93985070022858,-1.270520517483801,-11.714892643645687,15.719499790804207,19.726071565402396,-13.321414634941455,-2.1842267059515907,6.651214379256843,-11.41781910086332,13.118897806476468,-4.82089210603842,7.336406924874032,17.47042736021164,17.061511084245918,-3.5497492421851087,20.313400024079353,-7.737724438482721,17.60273797346421,8.427435458716403,1.2643958801319781,-21.544118843274784,9.599572026228183,2.091241593238722,16.82908771467162,-0.6511400611527843,-4.8814273889841004,10.69766839292533,0.30587188530792175,5.363378041056946,-1.584613273044924,2.287016002929966,-6.393499263377643,0.844012293686211,4.104131704502479,7.802349718641153,-1.5318203647037656,-0.33338371297289104,-9.265580381757397,3.104141823383861,-13.610346580274921,7.036448551034183,0.2905303944469617,1.5637424835977527,-0.5079498588116446,13.843907006189173,6.5762259249324,-2.766756023222695,-1.7556836390216817,-0.9751852868820333,-10.947799815689603,6.932575355666889,-3.3424970131817746,-3.4870547330702033,11.850567110436124,2.5926640325085426,-5.523911672091976,9.043926900255673,10.318771621090713,-3.765826215356991,-1.6417267366812838,-4.555805734762482,0.4134945710830268,-3.7426659247912557,-2.9930176747421875,7.923929455489479,13.33018412327348,-9.508594719160865,-3.229219293667747,-0.8651229174691374,-9.480833964770529,-4.168923416689745,0.856176912832383,4.574846679558213,-7.163472160132708,9.4243886366941,-6.758328449512029,-1.4044658786525779,-2.5809920054824844,-4.804135620786145,3.5561852531211877,0.22418674716289075,-1.3314530160076399,2.9121010277760915,-0.13741107969637914,-1.9830898003371542,4.814687069179417,3.6287444176514643,2.526969928175765,2.125909065723836,-2.847838603589216,-1.0171864469585852,0.167631168283479,-0.6059355430591911,7.919315156715137,-3.2813711240452137,2.23518212645536,-2.492993656635019,-9.289522578739557,-2.500615323944858,1.955547654678128,0.43720602480246173,0.9420582369405492,-2.793823870515605,-2.6919109995999535,-2.257203975451285,-8.24855692845538,-0.4272973514337696,-0.5724636084787149,2.014925053400369,-0.26578407548538086,-0.562185430454549,-0.7081437331772473,6.825906348741378,5.055881881517398,-7.7733674250268265,3.0749244365855675,0.4884747560854214,2.045587707921906,-3.920575225465388,2.7280186569897835,3.845199806599353,-0.40261349674111446,1.5681238241074813,-1.8158486862848202,-2.3267040287752754
MUTZ3,81.34450869116456,-10.082590794062993,0.1947806031495481,-82.90366621712828,-4.034711227964086,36.28629474809698,-8.667020114554601,-23.579884156214355,-38.309187121742276,63.605419951417964,13.349467976608558,-11.493109341001,-4.660412156645036,-0.21993630509179163,-1.736372447873737,23.75126603560263,-9.993111713594935,-18.60344942225167,-8.728413879892644,-4.7628875015439,-8.827907266448657,3.8810268287143126,1.3701677794903213,-16.717985179337223,-4.828345135475707,31.190766293185778,9.803872918611015,-5.9429081796688585,0.630557354036009,0.32891709249376844,-13.874785662528586,3.9169103539588064,4.986673955180375,-3.0930621828053817,-9.982832522819233,-4.126406232355369,5.514677334501053,16.121860535161282,-12.663270080763647,-4.246680342664926,0.08343571514624522,3.6917244130587488,-5.9614512221943885,-4.94483564737744,-1.3842517423086926,-8.450949048277733,6.905265801690308,8.407099110119013,-9.905246114712801,11.178662425333249,-1.3572397162165912,-5.958174805590071,6.804617838331901,-0.7402777782370445,-4.354854778956933,-6.778361605791804,-1.6800482603884077,4.500453762559354,13.210495937386177,-9.107819987516935,6.92090721743703,-12.497825296652685,11.799557234662055,-9.97693978428735,-2.0317757014169344,5.976247290492589,5.727278802554297,2.9023307577133357,-13.14422367041961,0.8770140149877125,8.155747917274027,-3.6401969824251292,4.056657981562058,0.351434151047773,1.5029489805614995,-8.573149256657587,-3.951904488889237,11.390125473423952,3.450280163668596,-4.693943932629814,-1.503823596253086,-4.327232097822628,3.8536699958214093,3.6056341085947587,6.12115281419186,1.1499858861306873,3.172955763495682,-9.620191242920127,-10.980049190961754,-4.129126042927032,7.948870914039865,-5.776667380840213,-4.1663731622324836,0.4239389204809297,0.8070536873437553,-1.108049052383636,-2.4081024573443415,-7.614349992829491,4.585696949739485,3.7522698218431048,2.1479029180008773,5.631700473742394,0.27849652125526886,-0.7749947571803475,-2.1589777418828544,0.07766928680360281,-3.329029519007426,-2.008357584638029,1.4091772288095052,-1.1970288319845541,0.39715801658194205,5.880708838937392,2.466382641777245,2.361048563381159,4.909494499306076,1.5772890983066814,8.218785424344802,-3.7464834630864177,5.3287833349152285,1.116347440643379,0.90628044561139,-1.037550051525616,2.620733132457582,0.8864271753950558,-0.7177829940637528,1.301538498188059,-8.358072019872836,7.623783855240989
C80,34.72278083691353,85.35371828981279,24.711135996358905,62.8047959836356,34.86832885915922,12.148391996357642,-37.00455670945125,33.380278877574774,-19.213695392730738,-9.83061888137214,-11.660856212709989,8.710439139897144,10.455101134197884,14.28313496570068,-13.951598399719577,-6.077275480486984,-18.13675405990321,11.927302686375226,3.298514396250247,-7.1954896871947795,-6.6448594423457426,4.353639689480059,-4.459486759409793,3.0705848954368604,-6.134753748153967,-0.6245444232341969,-9.199995433556063,5.8505608443904915,-4.417546266057115,3.3428041894124054,-9.533208787853903,8.230846195308942,-7.534166084596078,5.5267419236377755,-0.6445570838029828,-2.5905894211381786,-1.6610107763419157,-12.882040205648128,-2.4368899073356314,-0.5333397887807242,-5.024800031302947,8.635535834272083,-8.274939109775223,11.945598522696086,-3.318706292078012,-4.548196555150553,1.33955617932266,-5.782361733698602,7.819157655287834,5.416089228397072,3.3711255021084945,-2.6523290488283773,-10.463845600204877,-1.2991998228605293,-9.711098358633542,1.797945289666922,10.676238637590242,3.650685290209888,9.285452834513285,-4.325847735170647,-3.5756790447328397,-1.4410981453233835,5.357644254956635,-5.478052202692637,-0.48348348960885096,2.7855760380023646,11.931989583730603,-4.052282965141516,-6.257476915841765,-0.13504736107000215,4.035096844735069,-5.605361476254187,-0.06868526976187898,1.828351910850847,1.1026481076271277,1.5064414879597512,3.632867096953146,4.206480074159104,-1.984082191435754,-0.3557520009216035,1.6981138145671553,0.7710906639189071,-0.5620597048645264,0.9770490122730139,1.4350173292339719,3.7608552109100963,-5.320667622482752,7.164227423295711,-1.8540765985818175,-1.633972314378829,4.826293667186661,1.9457663612103646,0.30545475082841966,1.8230804319086311,2.941160470060124,0.9883358597968146,-0.6350717531711171,-5.511552995914831,-1.2264916432673092,-3.007223877535179,1.0747808007084731,-1.2042236600066765,-5.012260285303471,-0.3021008056982839,-2.1768240624328437,1.6674892971184954,0.35383309193946705,1.0480919722538167,0.06477163188055006,-4.787999706352675,-5.00933247473538,-6.928113716372957,-5.803871380810835,1.8776585065538416,-2.916632805014464,1.0435365812010315,5.121538365872367,1.335249385055963,-2.283124387448665,-2.9904023395041883,-4.106166905289081,-4.238546073042754,2.0208692445268768,0.630553366652083,0.38031266633223,0.11392534749487217,-1.6114366027748477,0.2491257728521172
HCC1569,-17.54256067342956,-5.931102724607888,-35.278690171809856,-3.4644496578017185,15.703693143999569,11.29036457134079,7.246570907649312,-34.21628379903076,-3.5555140597731456,-11.563042733736713,6.9392284872912935,8.238328763595304,6.989196461395202,11.098731039321903,3.1792978055532464,-7.642916463671754,0.727602245844116,13.990606784426102,2.292496162791486,9.165874207383723,-8.721093602891841,18.011484629403363,6.747311639917171,-0.23500501265786125,-5.231810049297031,-2.7571633508324083,14.093234092770865,9.869665593349268,-1.400139635627922,6.359586280732173,-9.370796780961568,-12.401137500563316,15.335901091247235,6.265891501828511,-3.3334678878006834,2.2384369698613664,-9.972404403273819,-24.557689500385568,1.1613075618718964,-1.8906538372882058,10.948553443539183,-10.764128452205144,-4.402719282080098,-1.6300505971192143,11.00675087728229,-1.1929530435923812,3.311680734400943,-10.028961823179792,-6.9225185721494,16.83454140264094,9.47720759020441,0.7348351897337214,9.239572263502797,5.211584664146445,11.311532718398704,17.634126228029167,-9.208048235620755,18.89468209085662,-9.340691969013717,-2.4235453987557785,-7.098385789725528,15.272002986917654,8.621658405669905,-5.685875118238115,-2.125935361183949,-6.947959983314787,-18.16035839462097,-13.379407414808044,-4.654174538373363,10.51453920997689,-11.531104275042127,2.571859690705825,9.593898365123144,6.587336769493215,-10.049291017659034,0.05827783460540607,16.319451732443675,10.348694817804718,3.6417686067464277,13.120487490621771,-4.042065466154002,1.3072597459222486,7.320900027257015,-0.7155865104807535,0.17279670665247246,14.339310258762886,9.778736893705245,-0.9546248600110051,-7.6691189275665375,-11.299827471996222,-6.690465060547313,-10.83651778867681,-8.962858808967223,2.5160577675018776,-7.506190457559149,-3.0302542825006626,7.361428352660387,7.506531845363642,-6.505462918438057,-2.3781699910811516,8.447744829008348,-0.42451201916986353,0.5353868383144001,0.4347194976784831,-5.548085535806539,9.49372402838624,4.756968804896975,6.017490772906968,-10.959747823340109,-10.330110386739616,-0.46623902555317925,-2.1832306024827335,5.310598009725178,0.7718708536189869,4.839657931625311,4.683175400891727,-2.960520291460049,-0.015673036109408147,-1.179393981633001,-1.491467287721776,-1.2882328373053011,3.398922829098865,3.2869286953210413,-4.458028518394606,9.65515052050543,1.5302039314293983,-8.62485654993573,-4.5868555905666915
OCIAML3,80.58926143837922,7.8999030062991915,47.903881767724364,-20.496797519013324,1.4033047471735955,26.2387145613436,-20.61220158651544,-35.66925751736614,-12.845864311018527,29.409208617834384,-17.294748891022838,-19.92997184625506,13.946475991386963,13.079630497787248,-4.534766888098839,-2.944856726613631,-2.500314712426193,-9.420227672283245,-7.35016857436851,19.099208935049834,-20.165408557816143,10.037680339253031,16.207807497716377,-8.775727400573368,13.715219909015655,35.39002917874448,4.2048868967428445,-6.628032960022593,14.49254620653105,-1.2732917128883325,6.674260545456805,-4.403317057353948,-3.632214333546982,-3.8040124477214903,-11.38472085076603,11.234187605339537,-9.884984448215162,-4.251099174112485,2.12939664518993,-3.4053459981447918,4.758253337430494,2.190106652193054,3.7323096198161423,15.963424688154157,6.391340233394671,-0.20577279423355793,-2.178402548432302,3.249272523512925,11.413233071554865,-13.27947114536786,13.733160040727517,5.961339343299997,-6.296338402965957,-1.4686603693884088,6.422910569218577,5.24359053311626,-6.084455853979393,-2.7296597398723033,-2.391351925442751,16.41400007333714,-4.085237807722063,8.025103548810971,-1.5908011144134746,9.35854437698599,-0.822496663043979,-1.0998493052926837,-7.49318870566026,-14.114947394241263,11.559711819852117,-1.575967114600746,-3.4824321662959257,2.7903827560600445,-3.030192077252205,-7.061492726329123,-2.4782689827660223,5.199991207683886,12.178789402065972,-1.6874135951967428,3.6892387372846787,-3.65616807554078,1.5816840622136483,-0.6585812793442085,0.6032410024626076,-0.6425597168798133,2.3180347774748444,-10.887085033727992,8.719890165556127,1.4826020680825323,-3.064067258612921,0.5562360240926186,-1.7183612597259499,-1.4579218542101993,-1.0593906573780498,-0.40251285403592785,3.6082066876765873,-3.362422394727723,-4.863393231641568,1.556519550453779,4.441941814220495,2.3550426392383703,-0.9723828679840626,1.763062101808973,-3.697120896378116,-2.4258539038008573,-3.178362028320656,0.6756985480589935,5.05080797197685,-0.28572328122860713,2.267776771429031,11.230923427146674,3.8888249422781045,-0.5307514170373278,1.3754447935110972,-4.327500292989506,0.7094621550640144,0.16471617266989,-8.218824388374385,-2.8530122410862235,1.6583654428028543,-2.296966143526801,4.59482739443398,2.5622625271081167,-2.8852501393948047,-2.4477247491950838,8.47320758749802,2.1112365279832734,-2.5925285010403405,-2.7629052958136358
HCC56,4.0287998786060895,70.71197458953942,-33.19389795865095,2.8930231851229014,37.14008843853391,21.5559984680573,-39.3954662100067,17.281334417895362,-22.01732753535613,-8.553740777654491,-22.979842970647116,23.328272078024348,-9.808401026889602,6.5044422263548345,-0.8557869208888503,3.1666326282354564,-12.26946518432264,19.19609117544384,-8.20613538055119,-0.9771016719180304,-13.243262061388984,1.7949783718989596,-7.610242092769102,-2.4433556780657075,-4.881149408353114,1.7867493240485475,2.845050632305051,1.4750796897669458,-8.676166845744048,-0.02983194047086769,-14.060812375043247,8.422113882130402,-4.205897200009969,3.7908273885413637,-9.009258741567159,0.5007766457901773,8.036213304492625,-12.326734604165198,-0.7931542533979339,2.323171771549185,-7.632985091331017,13.456173403209865,2.5303855596005156,2.5879919351796525,1.1534758388242548,-11.734092837294385,-1.7160373603810106,-7.998830105565104,10.936605209247347,9.932139512735192,0.22583674140867893,-9.274485938483418,-13.694836257878135,0.974783580497372,-10.494352657624573,4.097178865607784,11.465465269248375,0.36754205777295124,-4.01201841932505,-0.05155484851536117,3.3157830708045397,4.832336220888692,5.801654804735455,-8.329133990982497,1.5939615287080078,-1.979855978079254,2.0455277156045693,-3.6135665734340003,-7.254580179253233,-5.061207046671961,1.290888893397834,-10.629029646055931,-0.26037052757128076,-1.9659789670695575,-0.9375156689898418,1.514412628262278,2.868228827588555,1.757106829320769,-8.255108176292206,0.5109968286063375,-0.43128762910289226,-1.0219591093780918,0.8278863828225078,3.152900108770809,2.565906185328805,3.934006719183593,-5.024783563034205,3.333059014585979,-5.222117444849115,5.966527512793912,-3.2747241999436993,3.6191478609035985,-1.766109589661864,4.248803214875282,-1.2228576439453684,-1.3869759654098381,-0.3795269412850495,-5.976598074900752,-5.759384866459585,2.8202024681399376,0.3534105079109471,-0.03924353556842968,-2.2316257698754183,0.30986885591343755,-0.5062553567290591,2.8498518500399697,2.704860266629824,1.5302473367248581,5.488950934519751,-3.471646696271079,-0.6133408766879392,-5.608976933007147,-0.682881155019733,4.199846219658857,-0.22833160432071611,5.6503091127560605,2.4122015813269577,7.003120692067288,3.137173277765401,3.179871051471754,-1.0540132228920553,-0.5723089008558518,0.6850815099985418,-0.029516931362916627,2.0776151647763514,-1.1382900600499244,-1.0462058465609807,-1.5752564885503475
BT483,-13.587313945391681,30.47102764887638,-71.48818473831432,5.467496093531361,-5.633126728450148,42.891909148200796,-15.306057916686356,-29.51030623542378,6.939422317556073,-29.63820393094711,36.10880840230874,-17.062303125698634,29.01356439509682,-4.715877821581244,-19.032161473882255,21.67119478126762,12.053800291060357,3.8587042908086855,1.6797855235632597,17.116605582226452,-17.737743932113766,10.838754951301777,-18.618587409725414,-5.456514967564147,6.232518153646455,-4.060956638611709,10.078002701946835,13.653498163281805,-20.346695033066386,-16.037884165494614,-6.3821071866679375,-1.424563015466678,15.779453346493264,0.49917769239629295,-17.156020604234833,3.8171828540397725,1.248652692945066,3.2738878271340752,-3.9988196332482664,3.227050899569925,0.4171757373481745,7.505937893225139,9.752489385312158,-7.269233667471979,-10.586969361156985,1.5465596067380465,-3.285338218083798,1.4934827384131915,0.2019457205909666,-5.078780251599575,3.7187773991170037,10.114407204093983,6.595880711581501,-5.438576090814032,-1.8302487606423175,9.277540398633043,-0.641904120677793,-1.1869713589229183,10.320002565522108,-6.180281044765455,-7.481771880585468,-0.3412072735512782,5.602491709571159,-0.2223951144159373,-0.3021489686455138,-3.640657809655853,2.9333985228226562,1.327394267077377,-6.300754296060216,3.874573205755005,-11.437275332779082,-2.1283031584227317,-2.074732177194245,2.823806172138499,2.5969864263235922,0.6491085493089573,9.485807482673918,-6.751850990391838,-0.03631438669745365,-0.2914580584889107,-3.669019913946756,-2.9144213912038417,-4.5202258224800955,-10.190716208146089,-1.6177870061660302,-4.577340670718473,7.383101121807174,-1.338540722195557,6.8831099953883275,3.5594152304067905,4.130672685499264,-3.9713027712837015,-7.874634108054225,2.127325257104919,2.6308375990660218,2.462022343616662,-6.157309403382799,-5.3158337509246065,2.0808188367307765,-1.5462795328892867,0.7993379478149883,3.2771801863816674,0.7375052861917494,-5.282925203193585,2.37106328093347,-0.12117772977770468,-2.3625292043914907,2.200357384813513,1.2752490579063467,-0.45530560513110635,3.205145643537793,-2.9651720786184064,0.053359869527508375,2.8953484016090694,-0.9576745575048128,-2.047052801849046,-1.363637278210532,-3.838899229595221,4.073460401939155,-2.3016343028058524,2.3693060607272036,1.4160758413856929,2.8600764387573863,2.7325671956792315,0.6855837550478505,-0.38673100945535,-3.743248771000353,-1.9844637042340056
NMB,45.683874241193024,-72.98715691766162,-64.72806329592407,68.80205607163133,-24.387322158494452,-2.6239617757647697,-0.018054713732226117,7.630416108472411,6.495210092595101,11.28336152171109,-26.894268474079563,0.9459630923036153,1.9333429352313025,-7.729483871082692,-2.312273987525569,0.4971983521095975,32.80951809201403,-6.118709776783657,-31.55764680743757,25.34821863010417,-7.245305963529807,3.4213314975223477,0.6235466563048035,7.426742035042774,-6.015964060568758,-2.3253215700947134,-33.07880742084932,7.102919669938436,9.518943223229934,6.897799560448705,-3.2584376974188847,-10.041892874763768,-2.0419057648507066,9.713188137031397,1.5442825459291876,13.854638074870552,3.3832536078930384,1.6444783628056394,-1.7166197422657914,-10.349260738781245,-2.2018869358485063,-8.60549409727616,-4.942279062670201,6.559317204207094,-3.5635905276068596,5.267478354517067,-0.8902887442122948,3.069589472745591,-11.124519445875839,8.881410793652092,-4.072981091928857,-5.176288586494702,4.197237423543689,5.332112353005661,5.873541084100147,1.5643606873441143,8.467407343724567,1.329407070351739,-0.9271058672877357,-5.037761309923794,-10.847643381461202,-10.244918780570789,-4.752441384363147,-7.006094560352608,3.222858973535372,3.59249583560642,1.0122174420663594,0.2507076658045414,-4.004196987874661,-3.9705188753452276,-2.5828023579703787,1.774589060792072,0.06232614719669287,4.5700940570079895,6.613581275503671,2.3261822390696154,2.205078058489871,0.9844939159630806,0.10899038580303373,1.219862702282076,4.613357334376308,-0.5949886309161391,8.12685524601917,-3.634968090774633,4.253435195110033,-0.6448841970813776,2.818270602234397,-7.882919759226365,-2.604590909118034,-8.040355029146806,-2.8946605623071906,-5.265951533339307,-3.0034368793819284,10.952930533009003,3.1956911847400873,-0.38952889245494887,-3.54987374762537,4.5707235965900335,-0.4996477589177899,2.624083823905927,4.263743364435876,-5.62634438415368,-5.829603125282994,-0.2600610973239194,-8.331539082972172,-3.8939462506334928,1.0834496225886998,-1.0417935143897714,-2.7207796990919793,-8.593335416401551,6.778279128275235,0.45344628625650013,-9.52980962574622,-0.11983827960010991,4.201851052247334,-1.7750012834942723,-1.6718035679915983,4.3927441719618585,3.9574786861215454,5.679901506746925,5.61300784492278,-0.5317121677529827,-4.945432877850796,-1.655552234405435,-0.6256332002437175,-4.269652366104876,2.3637175110715276,-4.872057882033611
TASK1,40.922677783426465,-27.50733430413388,-2.622051466074312,49.52469249073468,-3.338548591184386,-16.44112301239843,-4.800444820025957,-16.159250869035024,-23.599527824281996,6.1337402215799965,8.621336310920947,7.586424664186687,3.0928970779908087,3.4125618725901345,-9.333395531446943,-35.060028476456075,14.531512722745935,19.81716439402599,51.272677303971165,9.41352701363671,-12.393641201833471,-10.719287837264675,-11.577863356251115,8.334888546158881,-5.1103224431021195,10.194146718892267,-10.317708812951013,-8.598260879627441,-0.2723396636738945,-2.7707195215644354,7.072211989422227,-0.26359715498495184,6.980042360508718,-0.20837233033729663,9.35696268205062,1.7706949328806578,-0.46571003105179043,7.0357767195264715,0.676135029095982,2.726982021496942,4.340636038691165,1.0983480710594389,-3.424841008585472,-4.145656552877964,4.169469160149476,1.936132499446804,2.6924629477795015,-1.6066794616110502,0.13001608698145456,2.597911892529299,-11.302762123246017,-6.427882295789208,-4.5510761811736575,-0.2128681749644456,-3.010278247763968,-4.755566569849341,3.8096631361856375,7.8598216649039445,-1.128935216940127,-0.7687720221053082,-7.029025533834675,2.257214396501055,4.600449051029769,-4.797148902669108,0.09622562066870143,-1.267810414461435,4.725998867913324,1.8203026803512148,5.300117062411334,-4.6263496673430575,10.466461683596151,-4.7068094531606075,-7.331620319348114,-0.9977721748342047,3.2634126804861063,-1.1146729189377227,-6.074957369520403,3.477321248676612,2.782846486594793,3.099456255669485,-3.08702466356482,4.515610398584692,-1.5429200653433568,-0.1522542893843935,-1.2645403234593675,-3.569549802389799,6.475305802435308,-6.909078879051559,-5.727734606842282,3.224550260674746,-2.1545929175650236,-6.293746240122824,4.5126014528681635,-1.791451746711452,5.7643352061871935,-2.2995844739145443,-3.7203794495253955,7.702365818391031,4.586470886516156,-2.51709150130006,2.422717084171577,-0.7735224891283948,-5.745491393305146,6.514963209193297,4.740980239467403,0.8132003800811778,-1.9239591813802903,0.7855087581744798,8.75593583101752,1.5915418954864673,-0.012865888381932615,2.78722633240293,-3.245031108729312,1.0983041345289761,-3.6043281604657085,-4.886395341831467,-0.2270673993404787,1.787068136144499,-0.7227499077092635,8.321744131936663,3.640909616373313,-0.06902556422557764,-0.5990454746447343,-0.27309759428666247,5.693511595624996,-3.532142910024887,2.1979393882790825,1.4683550315980323
TGW,51.827516775483396,-59.83829556056279,-39.01178377584676,71.54299951236277,-17.933354306794502,-18.556219615187118,4.96495740059678,9.935788838271268,-7.908060510539791,7.29568640914082,-15.45059446753792,7.499794667837383,-0.7906525865382585,-3.5441225370817295,7.023412407448497,16.908035135023827,29.926795925649774,6.926115046904463,-21.489337907578175,9.301399538105086,-0.29840711914772444,4.287358027215272,-0.044694326745586245,-1.6117675420716375,-1.3375701276532899,-1.354657413509275,-17.5494374973435,5.350410250399905,18.560731389401266,0.9189212259768835,-4.3373997394980135,-0.8162178517551035,-10.525388030913708,2.94242595910669,-0.8185019124605907,7.162585735334837,-5.346714509874491,3.865691127190326,4.563541479784646,-16.56393629705454,0.3148714010794633,-3.458032892361475,1.6190143723756092,8.111697186541857,-2.5183362870282218,-3.4513552574073687,6.417499071974536,9.587770395121774,-6.920287064098188,3.2738436461534266,-2.4935097156591297,-12.86588718826646,-4.053339648871551,5.1729132060583245,2.0147669430421153,1.5311923664807259,-5.118867006289884,-3.9284827476063526,-5.356865871063906,1.4941966877970714,-7.649743381144826,-5.789054319679427,0.7726823844156772,-1.9352267772901859,7.6151146241904595,6.0094568901638326,-1.5378687949391872,-2.577805375282423,-4.67999874393532,0.9489248651616651,-7.985978576116764,1.1640582031515625,0.838938440446152,2.8974894115478804,-1.5305309133311205,1.900453886564905,3.0634367033445202,-5.570904420734305,-4.52927765616687,-4.847019298780503,-5.12801673363415,-5.22081562194144,3.4889718840947177,-1.0673362472802206,-11.944983647348113,-1.5386722805726951,2.1062536047946105,0.21493416627434922,-1.9568752868637738,-4.636728692267917,6.74935039610343,-1.8245199456494818,-4.61512129116885,3.8521478862977228,0.7799917493838279,6.399359510595969,-9.034562168013688,3.486619694853254,-5.212448307249322,-3.651514961274748,-8.424318858851422,-11.027573498637365,-9.41653815990929,-0.03723113859494557,0.3480531795130372,-5.050062751595231,-8.621798694361217,2.288059753936386,1.8560927704868844,-9.36533740285607,-0.6676215895123703,1.2592759969078011,-10.530267909239793,-0.09723016829397109,2.938373679249318,-4.362085068008472,-5.789246896105211,-5.342440911375761,-3.3283600912802065,-6.0160074786651885,5.1121652276030565,-0.06940112555134743,-7.316223964931756,4.134656003846211,-0.2816728308973148,1.797577695045606,-1.4404267464160503,0.16747611157370473
NUGC3,-16.61687634906931,49.410642031361036,7.469490395290253,-3.4737620972331325,2.754565062258036,-32.12324860459103,13.557591769899625,7.924656703033205,2.1337862729967023,3.650094264538375,-14.648162355213335,-7.00707706180148,12.695299785507162,-16.24206440852094,4.29753351016754,4.56562130851908,-3.700335097342265,8.866942541453783,-1.4201964670503882,-1.8874816039301205,-1.228162704740841,-3.9955339324465493,-5.594138509501562,10.638850623788775,2.6107446242061103,11.083387529061616,-2.800123982723537,-9.568176145615961,7.865341772451822,-3.0470332876016477,-9.419444125228603,-2.211178740477588,13.950012276683733,6.955353032718191,8.83465030640648,-10.918669356513652,2.8576780444542953,-2.3909556493821906,12.357864766588145,6.449652082561208,-2.756024502997048,-3.8108632487219065,5.0733785233741235,10.625236312011765,-3.2574127938370347,8.496642843110992,-12.337346058946428,-8.044471503493424,-11.414117568149651,6.624603965068905,-0.14249208096285954,1.9332737231834987,5.85721903698834,-5.461886201004949,-17.169379881729707,4.537463425065553,-4.599575778622849,6.641062996011384,3.3038402325541605,0.5732496725113683,-3.0626622610868472,-1.435108308183257,10.85283569469717,4.012400876292565,5.289936352524481,-5.767819549906157,-1.0111990305113416,-0.34662148954599464,12.615194824701984,-6.895698681104733,-2.87937059423623,9.781180609436438,-2.181845821090202,4.049071875633949,4.84260671872802,1.1955982878600209,-2.8088400583266786,2.789828095266592,0.7394192143681433,1.7097806345124014,-3.242745720155205,7.149410123514956,6.9181896318763645,-5.0152689701254705,-7.5922526462053295,-0.1562741537141516,2.4128911809357176,-1.126190348647409,-3.9026482257995436,-2.7598694540767874,2.9457455729623665,2.723437876097352,3.7562291418561853,1.0132135663723847,-0.9696307051758022,-2.4499376797551946,5.22294179539588,1.882405028297377,0.46701244989577456,-1.2098283667232328,-4.157346475285129,3.1385621675165285,-1.6341024257499628,-11.830951076525379,-4.055084622309389,1.5515835727420024,0.4552423270473089,-14.475930691744756,-8.244890814405773,8.779028815542873,8.186322648862586,-0.941586095731559,-1.6335617843185462,-5.673151749487085,7.210785772908415,-6.615891652263847,1.6393032334258968,-9.763521790048156,-7.198869306872559,-0.008580789200092274,-2.4550496136424136,5.1932340531505226,-2.4270225303448987,-4.676684739844932,4.8994155137344535,-5.242655042165931,-3.3982080944778246,4.8371473043344
KE39,3.40176013753211,65.58605377664753,-31.617580610089274,-3.943129562192214,37.05691743817229,10.11900562484873,-22.06118280009478,12.20971102179413,-16.074249188649922,-11.053203615670299,-9.20123899762625,13.676501430540544,-10.773577502543011,1.727572833891776,-2.782445890966432,2.6864875609483825,3.6941660594878885,9.649019522176275,-4.737319289802777,-6.168393159944265,1.6449699936395457,-1.5075649083920655,-2.757843696732644,-0.9877587797251165,-1.2948065048460065,0.4328457567052597,6.729939969263111,-3.7871265938221366,4.185532756795004,-2.7883980012644387,-0.4178292459417107,-7.345812072473927,3.3187967687892197,-6.276643931628884,4.292835400948098,13.680167540068757,-13.347584606164972,5.2312773323615565,-5.925631579263629,-4.532398589175351,7.343194105904181,-0.6365704860174891,0.410125506167899,-9.325944290368074,8.38708911805231,11.144795549409304,3.032933668799932,5.284068345093676,0.48366593663449786,2.2558734854363864,0.1347452800456258,-0.30326051459135295,0.7013874018627265,-0.9030048606564628,-8.471613830967735,-10.995590113965942,0.3835766793110466,17.170419007161147,-2.782005675296069,8.510105332227274,6.986616584474227,-10.058881611239824,3.8905430022445238,4.865350514595797,5.3955100628313595,5.08541239763969,3.382838138468804,-1.8199527113546232,0.47366893576067587,2.9487799994235164,-19.720472247712927,7.525855186553438,7.745284485883054,6.990168357963506,4.474218275389888,0.3629392447882902,0.058186221234742784,-13.355011469882628,8.492641679449587,2.365796814869556,14.278499715283974,-13.55774614686539,-6.588868031921406,-2.9782361845623804,-11.488391704855633,-5.819317829459593,-1.9202903314272928,-17.633361754854906,-1.9287167127641507,-3.899981835188906,3.2440175430251164,-3.117014789427513,9.259463242440685,-1.3599872843308847,-2.2965113502229886,-0.45700642713492085,-3.6986808898757757,4.8653790268205475,-4.0141765937615865,4.472830840906543,5.0011336939410125,3.983731868088936,-2.9789459338316076,4.955460717390802,18.13044223817293,-2.7280825518849685,-1.207072966564197,4.79348039737045,-10.063429926771068,-1.323342681667048,-6.394822226966931,-3.0232069973826556,8.64059573277723,11.367021045976077,5.177817160731519,-1.0402657667249704,-6.234263891047,3.252391253489615,7.315651445563669,-0.6590308151327924,5.932320424305039,-8.58310788736244,-4.905815797457865,-4.734385748969931,-3.1948930012045125,3.967861034004651,4.522064571324915,3.1018863991568915
HEC251,-17.203549518096978,31.628370952580067,-28.926624918078954,0.9239439406794439,-4.125075326377127,-9.815236602286895,-7.942857987137633,-13.981165581553322,18.745446708421124,10.272332968892183,13.840281230360326,16.68893377564432,1.849949831559979,-10.959204813315138,26.98953881450438,7.131862715539783,-10.879289248864373,15.28045703781589,8.883927350128475,-1.3356880487846088,6.726538316439034,-1.8521166256566743,12.879276685747312,-22.083859440638502,-2.2315889992592814,-11.162981234508253,-6.998486609073988,-11.140276856492566,12.902482188371136,0.051719509222874924,-4.941552312823467,-2.7529590433299864,5.705086257732667,-9.811039734204016,-4.878755716641887,6.673097173169199,3.0339784136945167,10.67552801797811,-2.4904292135063013,1.8061148981505402,-7.404282889915029,-3.5450962269327566,-5.1788061715327505,-6.0888403687872605,3.494594063450366,9.949656798552976,4.3232404190495695,-3.665069556163154,1.7440769497047302,-3.369170911898668,-0.7980688620885175,-2.4663826778123683,-2.6031226865820374,-4.615033389390263,9.315538179031588,1.5283953968966306,11.281791061626548,-5.532668205982915,4.329845144071033,-3.933289476643297,-2.1784179220112425,2.266970231703328,-7.6454201369761705,-4.2614460229429545,-3.8811251135324114,-2.165489715549139,-0.8621294321428314,4.824303068056531,-6.114211516245258,-7.310677839163447,6.323782145451654,7.302650590826817,-0.6785052892137161,-3.07384026238788,-2.5861059587886968,-4.491411199773564,-1.9286423661297678,-4.454084409352406,-2.7972807745178576,3.794023607684481,-3.944782402336307,0.4334453801722699,-0.01294910947061422,-2.721115912376812,-3.9005962045947045,-0.7721645503020151,-0.6939156285187487,0.7181007437524046,-0.22495788877747058,-2.2794592819816697,-3.7922691846331604,-1.1165575193954327,-6.561074385790122,1.2488323987881405,1.9615447641796777,-0.7585154176576051,-4.257708633507934,-3.962509882957643,-2.638008924032238,2.3807407929226416,-2.7299133736744436,-1.4270204578693149,0.49117994034646373,0.5002819727369379,-1.1288181757816804,-4.9544465496848185,-3.8276209173440856,1.9078182205561751,-3.8909441670226337,2.575273859835401,0.03169129452417223,0.11630986185815334,4.786554560616172,-2.054228322876291,3.2781080224392145,-2.0293324868339724,-1.2406543161855181,2.9000444329238153,1.2626531218025157,3.017357832182716,3.562395800098888,1.1222931596415853,1.7569859193201263,-3.0873906059924785,2.962869880076231,-5.079493079521454,5.11882418172074,2.4718671435765396
KD,10.973783203986676,-33.80685745929421,-3.253756810067275,14.744308309885364,7.380136850072523,-17.12628621670532,-26.153999835512362,-41.29336684497782,-3.014456460291394,-15.391798839271127,20.38144012475053,-12.148961241052788,-28.497261429212042,-25.80135341540816,-16.066931730597684,-6.817083685428033,-11.339717158603314,-13.063245434432494,-11.743665144136548,-9.549187437792902,5.3269065751724956,-9.58149643617818,-4.894231530709042,-4.911506745829884,-5.7878475837744645,3.5277581520981287,10.743369787188598,15.815604747187967,3.8499830191605144,7.164232336317096,-10.139649960409177,-8.953832946266601,-0.17348886181075318,-2.1353067997034407,-0.8213338970365366,1.9471122647848584,12.498258917262591,-5.666144305099663,11.737645077225736,8.136991371263068,1.097851711383713,-2.0902753909051413,5.050913267469973,3.286851319722621,-2.964153214535887,-1.1400110312965546,-10.43168732141266,-10.18316599799846,22.717097578217285,-4.632175015393936,-7.619193970219754,-0.04029027082448132,-3.5433338474790514,-5.297138263828606,5.880740343421618,-5.068475114515457,-4.832327369199262,4.699441019679761,-0.01986468677600599,3.213598632706907,6.1790490171794685,6.050338023449666,1.679085749684621,-4.17240409186511,-3.2055381451048386,1.210317409042001,3.1821950202915033,11.390371223821859,-1.1467204836920222,2.764915211948956,2.639503467343938,-2.3198913364993436,-10.743254230901252,0.9832609747830916,-10.152095326180428,13.444395098651396,-15.858227104903,-13.288276371691527,3.1311819885608183,-0.579244929259489,-1.410717367908322,5.843478872968598,1.8762110651809107,-6.523532954974339,6.076094165297899,3.9539580982703657,-3.7142702159120398,-9.569081013204896,2.087740335938363,0.03162512199110642,3.2714893269500616,-3.6843232822707774,-4.578974518616481,4.176844383064524,6.3497936931351004,6.615779046664966,-6.622246718592193,-0.5261275467729671,-4.055583009179059,5.5762860444706694,5.70223521801337,-0.7185279156247794,2.8305371373493555,-8.104024697101135,1.5688469968682652,-8.630981560801587,-7.401407703287888,-5.569492164860634,2.2837357614761937,5.201629677895034,3.4902269685208056,-2.7287282095299945,-4.16304948937772,-4.075873827638943,5.137800382807877,-6.602752067735331,4.524949790665399,-1.0746749710270342,0.3222458953263946,-5.914408967324033,-1.7831749719600891,8.358206436916587,0.12314132518940962,2.6961822468555003,-1.0751466358072819,1.5903180090096227,-6.308242696257668,1.2163792409698129
PC3,-28.0979902449181,30.085145218606286,17.90643431028355,12.888562084748251,-3.273186216775218,-13.654697563656363,-7.164998267929221,-8.477836892710487,6.400211175660796,-7.059548123793942,-19.705828559860667,-7.479834532562476,26.324944219267145,-9.305001967992688,-0.08510474737075223,-2.9576378493714577,6.793688240273671,4.138139600896474,10.127397770818598,0.9433000717180028,1.9991113215189962,-0.8233705366695582,4.735574055671896,-6.974056854101149,5.5709043145237915,-2.759883095802891,3.666106318435636,1.1363498202737354,-8.752448523217266,9.221039985648797,-2.1703769269727737,6.303348365413544,15.170509297361834,-2.9231142632052642,1.8902942928518247,-8.716636666538024,-3.519099132861844,2.6772349462408385,-0.12537627718211006,-1.591310910790792,-3.7465394749694982,5.84212324009895,-3.459663221965643,-2.677119535268383,0.854622621129906,3.8340577880956275,-5.161534771484462,-8.59405384065852,-5.9927993373204815,2.537501063201059,4.733679552856964,-5.07027937337442,7.490726157214339,-7.397269296766061,0.5457561477000518,6.118711043973614,-7.195117470284352,-3.1129583772266085,3.9035050493815304,-4.077685233168838,-3.40369748260249,5.15146301516418,2.4295114387746706,1.1668118150686668,-3.9558074609392584,-3.6501401175671573,-1.7801838277553914,-0.7697899166535852,6.9319187306399535,-5.874153479044404,5.793648038414936,1.78514570985625,8.22055309974675,-4.602020223314646,-2.106157080340474,1.4223720558098403,5.124749427988399,2.9340726597165094,-12.653957964261835,5.023177175055294,-8.132010279231233,3.0553895716749047,0.6256904448533108,11.198950245680503,-6.233081133772302,-1.5654007762509872,-5.6942218728407346,-10.900222087917403,4.965043652413877,-6.9385366995464555,-1.2434218700071222,1.4443703067907359,9.816861960600749,3.114474492827726,2.4177249973108688,-4.750092048753553,-3.5460594258704328,7.411794869104722,6.225030966731298,1.8755295571162334,-3.0975591216072806,-2.204184340338072,-3.8738731040893284,-1.4821421740599574,0.05355812902959627,0.9090772700334396,6.287819577874911,1.5704245380500141,-1.7649489031549115,4.610673323352368,-2.5053620558687797,1.669809599521419,-9.695184413950393,0.6072453178377334,-6.833589762338036,-4.407454873890345,6.4287578027403685,6.284784044268344,-5.552113777701287,8.685210715012774,-1.7980580103201353,0.31315040082825424,-0.17859971924974447,6.883324909194883,-7.553507884256951,-4.599926967653002,1.219978323000194,5.783697975401553
MDST8,-31.323018463998878,-48.335020034464925,34.67246776881774,-4.032315444848227,16.18861830895639,-5.3719136897742175,-3.5167920318616166,-13.173100995336553,10.665426902981308,-16.36654281212459,-38.80380612293699,5.397526049470501,19.509551827846238,-3.725795737180448,-13.157109353127169,-1.3788431402367733,-2.434723286006484,6.034944780103788,-12.879094152410572,10.945792947168346,-15.957395244920836,-23.493324138268463,-15.98808682406517,-5.856134016811974,22.09911564655309,8.66811472735628,-4.657855380808669,5.097678620077861,-4.9980334795187655,5.458848152626913,5.861515150053585,5.645052881789175,-3.857109873060208,-2.3655135684661337,-1.7820367535836859,-0.5975599738361338,-9.903439275374073,0.66771609385807,-5.725647514260139,-9.905658642204083,-5.936451587556234,10.623234718116343,-0.13301841991374908,-7.864449563544141,14.452488865161564,9.653368314945924,-1.030342405787117,2.5848992818080756,-1.7476275426753214,10.32558214501089,5.453951944490995,10.451127998559656,6.984743177090782,-5.149863392755946,-1.3011354729157727,14.122778725551102,-9.381196883339673,3.1321517356502935,7.180949805238032,12.581174433544064,0.5415571026116635,-2.310737239498407,3.1340551087406507,6.132083653859957,5.490626776372079,5.924334339190311,-11.93621983785461,8.03273775354282,-3.0007165074830926,1.2545982855761273,5.410420339117633,-0.5842356407255539,-7.093973560968994,-6.553593729459315,1.7024991248164163,5.291082913011985,-5.401954363246974,-2.811033083363223,6.114946089573378,2.067886005297681,4.809814055224018,-5.087560562692979,-0.8843021574261041,-3.6521975262773876,1.784516673304828,1.253594528693999,-1.6402351312226582,-1.4441623946614635,5.106845863820176,-5.0486826141250685,4.6667622590700235,3.27798356981355,-5.218029183284793,-1.5735923292785279,-4.5668453203429085,5.289019516477162,-3.203601464458175,1.5499102589957447,-1.2357297504649143,-0.8966342615557585,-5.950986916334706,3.716013134278287,0.7470761524160936,2.0054753009194264,2.781526394763526,-0.14260352029604786,3.917094494722449,5.363976434116899,-6.322874229193049,-5.42799353829682,-1.9891988744546953,-1.8606111823413904,-3.5304643762015964,-2.402336587489841,-4.454254285388443,2.2982717371019064,-7.633616952250622,-4.837649285746516,-6.460561041812485,0.23676051171888077,2.0704085979217823,1.3594987842271682,-3.4163120971141776,-4.152542422276654,2.263016378999225,0.8205416501698033,-4.2011683107562625,-1.5693540866468816
JHH2,-64.05341041386879,-16.602100848033142,16.685487853565036,-16.613037179106694,3.169594662047521,9.889273589383558,-16.7282949785308,-2.9336520005913376,19.527095756524858,-3.2518684031239506,-11.519258845100468,-5.993138479007739,-4.819790816186496,24.691953094551415,-1.6890425996390674,-8.179858415845429,18.617959908426293,1.216711686587794,-19.20353532855278,-10.324049558282116,-15.331520789094569,0.8159880191419238,-17.608554492756134,15.909188809814044,19.724136224376544,11.319240972059278,7.047282270441294,1.616115563690518,8.83374608547338,20.22076279147607,3.9048553133172033,-15.53747481204882,23.336084385577816,5.324215888233395,-1.268462901856231,-14.228258596729049,-15.642493628741766,7.51617273287982,-0.3696566678722621,-5.655366888829096,25.807145567856693,14.304346421009653,-5.996444058566588,-0.08638358439237338,-16.31113965827783,7.9947728472463595,-7.452342518788729,3.7250097355254908,-0.930316134861843,14.3729932028556,7.79506020996028,-3.959366442530209,3.1366651744152856,-4.60775630394242,-14.293191966776869,4.583186467679756,-0.6670632045129599,5.702040808533622,6.025646764336605,2.896575743446359,-3.25660026431165,3.0256719298301933,-4.516143652046985,-3.5424691358435174,4.580270256715991,-9.166305121357173,2.498982174857413,-9.370728018511219,-2.646071679753763,4.797366959962464,13.310111268042874,-2.4044095896295046,-3.6790210240326737,6.545020443370392,-3.9304501915695904,-10.456318191548394,-2.4080441816075697,-4.760703660280198,8.082304389700212,-3.3258548292322407,5.322443045383545,-2.1192205198652796,16.006042333857597,14.756981757715186,-3.0317224593708985,1.2491320785675297,0.9466926144352277,5.62602196798816,10.558349219504663,2.022723954781242,-3.461070941979803,-9.37401566092389,1.6220203031780875,8.732764282221616,-5.16861306356594,1.5248888278416544,10.86822738496868,-6.066848468534924,-4.102153922760422,0.2480889922233261,-1.0072228423764877,-0.9822924152085635,2.501864736758023,-0.3481522948199623,-16.219571271638664,-6.0704707445926,-7.233412414952972,8.957610646796052,-2.8014719214173485,-4.885889168660473,-1.7042678436012022,2.759683949029529,-2.533781213878092,3.332219697891024,5.210631319934945,-9.57576159226811,-4.4760298493300885,1.5045057213422137,-6.355051668204472,3.1777894458813263,7.192298113130795,5.038181609983008,-6.423060677821793,7.193147026034826,-1.4944434264260602,-4.052596734278819,1.6691512727558004,-1.1732418438426364
SNU175,12.351027009880783,44.483822056607096,-52.503793850323035,-0.9701438292285924,29.80880922796283,4.92517634576184,-21.157602247850658,19.583646803838967,-21.375339140241607,-11.977204045631627,-3.4792251339018825,-1.6795915119808824,-16.753768749044255,7.465876095562933,-8.680856269888356,20.198453285697937,-14.605523523836691,6.005951248290185,13.379079507780105,-0.9373297477020127,-7.346468935805103,5.761039951070895,2.7891615900695244,4.7969435541138425,-10.74841462012841,-6.728112438501346,-5.747567039876376,-4.1156591730084,3.0221188904475405,4.825321883620951,-1.1263422589113297,10.957382940814377,-8.269648548236088,-5.12128321509187,8.94357347411362,-5.951387569562285,-9.631981690250443,-2.0548996958511028,4.536538452774345,-9.694277942762714,-0.3215517445228588,2.2910960887508027,-2.3500713785859673,16.37164504256293,-0.504566782079356,15.17465620658646,-3.824672583742781,-0.22574315523372382,-1.7582223937115864,-7.4040221471688925,3.5406911749408905,-6.944053799352696,-3.221161189296199,-3.967073791244578,6.07427362383862,-6.174405200950721,-5.2305944633271135,-0.022181283160049775,-1.76219614209189,-6.456576304211952,-8.479289589333863,-0.8315405540422097,2.115193938576913,16.584490117376582,-0.9011253987166556,1.3644142074527361,-1.331211339245233,4.447608427619651,4.98014538755333,-3.9314449513451692,7.166105004939388,3.6521611148635444,-1.6739851945647044,7.79692595427154,-2.7606655133821665,-2.6632153379415597,-1.9497360829486652,5.418707514708049,-0.09370983591605704,-6.8072779353162325,0.5255145360273259,-3.926298861091882,-0.509492933023531,13.118815073101791,4.99784389646413,3.4065076002709453,-3.0504587458745003,3.913427186885253,-7.455201076661423,0.6363019033771701,4.832500434347896,2.710644258879464,0.5512712928698825,-5.1185735105030306,3.9198825027732616,-8.992031896341018,6.215004018350721,-3.951397087183304,5.339564632964696,6.826319908173038,6.727127481360469,-0.41010247635948893,0.8022345051102826,-12.313618432549092,5.323373067904615,6.570367754508365,-2.386395044189395,5.1913396891419294,3.940690933011068,3.797210308248211,-0.06368546566063635,5.1456204274204715,-4.633130335534129,-2.721526246118186,0.7379861920788771,-4.786895975203545,4.769380903693442,-2.9071880955622236,1.4191636432050803,0.35328547542719674,2.015311525088852,-3.360717615983778,7.566494335341446,3.4342043817522354,0.15612328886886312,10.668052022303165,-10.362527236477657,-1.7949942443589997
OCIM2,75.45752137781282,-2.440171690697478,25.51248845115366,26.9611178828267,6.140151717680748,-13.269485173336982,-6.181310571945617,-17.51718664699051,-24.22689058753267,38.497394178104784,7.162636902906361,-21.35469527450607,18.190132484028624,-0.21888195310862005,14.682014720447109,-23.298653109517414,-3.280752303353672,0.1422448786294152,-0.11731083439740192,-21.439910855559972,0.03261897334838129,-13.452064634990847,-21.834599867846723,-3.451623698911475,-26.520883688907702,-33.87158635035189,-8.727305804631104,9.381770534712222,-2.6438393049418853,-2.3615395670978705,9.497558993954552,-0.614347764877741,-0.46522273772680867,22.20906833837398,-1.13821928487721,-9.267829910976126,-12.875868242888632,-0.7195006667486726,-9.606053805974993,3.1850368361193286,1.1480524815138593,10.093822097840633,-13.966012339211204,0.9317907098337604,-4.150711200275468,-1.4229350754792651,-4.444166501895096,-10.028905003017607,5.158948946278875,-2.846175145618374,-2.0005104263307105,2.5767505483695734,-8.122847972446763,-13.199302551979816,1.9167704766164289,11.857568121471461,3.780272112747472,-0.6408879662839866,-10.33373426945005,3.318721330040975,-3.4808856973317175,0.5947450758506562,-3.700979430500679,-4.49221630214479,1.6219577251447832,-2.819577383044711,0.09485723617453098,4.241013365979383,5.892284025397484,-2.093307372220147,-3.3044136914012294,9.223161693196632,3.440099001304928,7.503272337901185,9.729018769637914,0.749063787455407,0.7036873357803085,1.7569591246708776,5.841925052149,2.243001151409822,-4.987303724636543,0.36946765574697005,1.4255712654439532,3.2557607328083185,-7.522727011339932,0.7586941436555706,1.1331857369051448,-1.0442625045514802,-8.581410180405953,0.3074449646541124,3.470326370133388,3.961742117478077,0.09977908159334833,0.8674982829700982,-2.402297403284485,6.752786499495063,-1.8483362392835232,3.7941298441799174,2.6040064950195108,-8.06428087509293,0.9548491615598468,0.0031708868995685203,0.7733152251445742,4.060659291206588,0.283419147587867,3.042568573877332,-3.5371024367422814,11.477704209877155,-0.960212555749843,-3.389717421417605,-1.5577084758210966,-4.1703143661796185,0.985306910189424,1.8939958507250052,-5.309965752342353,0.9630918164420591,-1.9213571389882176,4.931615046454696,0.09268993353036069,3.1698476562457376,3.7857188560939607,7.9437710833071185,-0.767826583241262,2.922289566796838,1.2155376902168076,4.056189746090526,-5.2609061383992355,0.5807409661784982
TE14,-27.834921923523694,42.81537130731278,-34.172628059842985,-4.930275707259271,-19.406420283206003,2.1504673433890575,29.398408777378574,-2.6773803838136563,-20.291129403890732,-1.5383970452899338,-5.186550389311073,-3.764199385884269,-32.15680077378346,23.53997772464389,1.34993758569693,-3.309725147981493,-5.235664852033147,-14.495927459508122,12.76851113473833,0.3688908149296997,-2.0715947924994436,8.348984561928885,11.917578676930829,0.09299703126132905,0.9826705514890811,-16.281588325888777,-11.045458623093001,-4.504317919936456,2.0062449694952242,-12.21333935718453,9.472747728877284,10.605257420345977,-8.42668566267839,2.838995532510449,-8.981327502860031,1.8982816730907008,-2.5269018239388013,4.622884368699062,-1.1640773668721052,2.8785619929421706,0.5669363974428788,-4.414774610860216,11.690460484053883,4.626159777931112,-4.468559614584045,1.843677306783724,-9.577581014675415,-3.211447707920586,-4.283067916081685,1.3499225489024307,-1.6197562178172344,13.142646073092811,6.478474763026868,8.199040069353554,5.461476159819073,-5.253193833928864,0.38434046546040507,9.97306109350808,2.2974390800534414,5.1235706829485,-2.1826680459916354,-8.384382279038322,-0.286100219741107,4.054678865751194,2.922764209471742,4.631845084784172,-4.08032134460264,3.240148567105692,0.2893979905179663,-7.740240023597924,2.491421940879433,5.086799499575791,-0.20257167152298153,-6.660420546982619,6.120676557011825,0.8319400247862895,-2.395316056178383,1.1766841820941722,7.189222517842471,0.827486228282977,1.1052929669953873,0.8286797527334719,2.078931291560777,-0.009078747621514002,-0.32759093362788083,3.789953502354655,1.1238769764820775,-2.673060931510297,4.749750065966487,-2.6764543430710854,-1.6411805039741396,1.2225967628613552,2.116268211363018,12.516689021110114,-1.4567829704735562,-4.3742979725515925,-6.703313402747965,-2.760135394535262,6.055172506773569,-8.15269039566625,-9.450447507135362,-1.0582360334968663,2.397714035257327,-8.586949989598606,0.052227316878033864,-0.09941587870165518,3.7076943160164704,1.6076008218642073,-1.7702587561996932,-0.7794870774401835,1.8706922403280708,-1.1908013818756455,3.3008020897898738,0.7035767882537134,2.194639900613976,-1.85934465883008,8.361888844040053,-0.7640404312594691,-1.145535865943087,-0.3264942270724364,-6.784381490068633,-6.882322752879952,0.27512572273670943,-7.453146646012547,-2.3547543183917115,2.719980618706933,-3.324663965829734,-1.9156593773611081
HS229T,-49.965311546795114,-67.94422677465748,40.00402205406884,-18.295480131468445,-6.4159410807103034,-5.669361891387767,-26.055451797482657,9.273604530931612,-25.65571194511579,-20.396210798778544,-16.280275178108088,-2.076028234735116,16.69557170130249,-8.881441438600161,17.141910852682617,0.8522931675044323,-7.379078639801822,-11.038639695647237,11.376140182201931,13.888070627669672,15.498647067576876,-0.5624458868209026,1.9336007280626435,-1.3928446419928275,1.1688233608418164,-2.225992744406258,-14.01994033040459,8.335127631468556,0.25643669390532725,-9.057508100718822,0.9956239816358395,-1.4090820965870128,-1.49641294156738,5.384100013681249,1.156966783171808,4.15692661190625,0.32116686832399166,0.6695867499761491,-1.9366330818456199,3.9819576190420056,-0.5476735107701151,1.4044505210795362,3.6907532022180884,2.0529581345535073,1.0728544313354553,3.3474296338959753,0.6877563071082787,3.3238222734373006,-2.4294316991320746,5.221469400280226,5.488932189617775,5.599775100369961,-1.6793517969964764,-9.722471513390579,0.09966212707351553,-1.9504353131251513,2.0933897542502464,-0.2787741928946971,4.472268436462237,4.857780814324471,8.371186461153531,4.3293298799203805,0.37141590067735014,3.185758154214513,5.180304253976632,-0.4588489996009505,4.366524993406965,-3.8023216824771926,-3.4301375019043805,-0.4822347991742905,-4.753151701939473,-1.4191346400725782,-0.08014832083408222,-0.7975017846912206,-2.6558711668253414,-0.9190142811187059,-4.802832078927714,-2.756351104160653,2.109287678462729,3.478537459498531,-3.036834345311993,-5.101240916074729,3.039976568138157,6.312572590002214,-0.048276383345284016,9.290231358580323,3.302174390986661,4.745878403992353,4.377959530843342,0.04025686349160333,1.0544436392967644,0.6099276195855238,0.4958519312466117,0.9299209089894046,-5.840297848190984,-3.7462621920115664,-0.7196905453995945,2.95344823019504,1.5732703357046516,0.8599460301230696,2.5507920550962537,-3.5547973890729265,-3.8257796985478114,-1.431111978821152,-1.9588039039210599,2.7585700613375606,-3.9797485746891,4.417252074137641,2.6888126612643486,-5.953019506708947,-2.7338517751831555,5.442469057689156,1.2616156023486222,-0.4131994439435264,1.4506724191382105,1.2273219601598557,2.084886946716129,-1.9586468894124966,2.555336588028977,0.44107656905294657,-2.802609712922075,-4.028314917246533,-3.543305049592751,-2.2077024695477587,0.7961035476887118,3.0200882354765675,-1.997938055314363,1.76268641418511
HCC1438,-30.793319770594817,-27.146290433249078,-10.417775832237073,-24.91189466354826,7.230937906611089,-27.099086631752165,11.321795709361588,-4.210992995468115,14.8965050663803,6.637219384379135,4.3913982326465915,-21.27429775311118,-7.949926856719793,-0.7796722549249349,-2.9384752589151755,-10.384919176446143,-2.5379221774758505,-2.8171769102616087,3.4175527009797193,-2.4316038554199073,-9.101255948504988,-0.17090746481995656,-4.521157305838565,6.617547770749154,-7.15004120358696,-4.568750118183683,2.642130419306981,10.3799067499901,5.135216319344207,12.16602417497476,-16.661586319160826,13.549717738473547,-26.308331922574006,-6.691878097489462,5.372736911197451,3.6193211981879982,7.260098331001202,-3.110180951397215,-13.03119276802593,-4.778180180943637,0.6037196085612208,3.4543729835518078,5.92653482753313,-2.099112659662914,5.42722454021009,-13.904740547589892,-6.319962618563598,8.851928110662273,-6.704877073909585,-3.951534737909404,7.893001433283508,-6.75433262654754,-11.196822571897123,8.477709718558573,-2.152715591479192,2.811490516558625,-10.004335793078889,0.8015899081130912,8.868543715619985,-7.752732952465705,-0.8139102680293877,-3.7760865692415564,-3.9045586677754005,3.7916473085156213,0.3090882629762015,-7.201353861147591,7.9258586164355656,-8.529887809054605,8.928318793712114,-0.5158159258714152,-2.5851108696040215,1.2646357809587094,-8.262143159206111,2.067151112905362,5.419964386523993,-3.8654535339219027,1.8263660982013676,-1.1524876139315474,-5.685830803216706,12.131276486019939,-1.2832616217386656,1.4650139321247693,8.99396990521366,-4.912152683961486,1.1309192595208866,-0.8121596527274924,-3.1698433228087914,-9.120436514695204,-4.961723448873958,4.328182247364377,-4.992096001488188,-1.3466534103466745,-4.4235433800484385,4.27680228033229,-1.9588228855843282,-6.016531780215564,3.408711359677379,-5.7924492412333555,6.459386349594704,-3.4224773623850595,3.342639642137781,7.199063911383507,-3.7513832220646632,0.6223979810641453,-0.8710285240236135,5.607962126860687,-0.6499623171249057,-1.4518473635933902,-1.5460425870503658,-3.2010089638428414,-9.476844686324123,-2.042414444011294,3.3672683822801615,-1.9408267482809687,-1.803850221915415,4.927563987643571,2.9496763471824674,2.9222869458750647,-1.9688973316132092,8.920211712157627,7.319857879505242,-3.839605208799469,3.8833048861439345,3.2072530939021364,1.749871726837352,2.114638081656139,-3.3693843469284808,-1.9716843274896159
HCA1,-2.374359598526848,55.69890851913983,23.532738983593784,45.809592694194386,-0.6441725056079509,-7.942513298948177,-3.0047335778874733,-6.709599929651376,3.5505833350700247,-4.683503893881934,16.38464928621199,-16.56331772020317,1.3438797617288325,-1.1917646708827672,0.27087489626149513,9.440385024332661,3.9777448711434498,-8.800055334155266,-5.002454143063788,-2.9182701496828094,2.061177013186651,7.996833257846437,10.26333484408356,10.902564462254544,12.351925115773582,0.5323761663809867,6.915491027619045,-23.654181506843422,-1.0850211706059356,18.515872436536608,5.2909550317628,4.656334644063548,-8.309891566802523,3.3489609841819536,14.252694326819691,-0.9473584617898644,5.573455056656062,15.946503483291137,-4.1660556338948265,-10.27392029190765,-0.8776500386600058,0.7798155321169663,6.553295412766173,-5.148829783512727,25.223317233764384,-2.5271793327905474,14.681300430536824,-2.3540347585361237,-1.0459638286216735,-4.695268870808532,2.140873161587318,-0.651908493632158,0.3812302714630344,6.581905704889608,-7.00120545616167,-8.698974484244285,-13.843219458751568,1.6419721801902787,2.339428208968814,5.862293080126759,4.7346700712364,-4.716576500328582,-2.0425305391169504,7.562737712632405,-0.9106604509875221,2.1770047945756863,-8.47833372810264,3.2586114251481275,6.768006140697563,4.768968974378669,-1.3834467106484285,-0.4004387893703787,-5.887563270421022,-0.6420643832741637,-3.304319081781071,7.299326263294958,1.449382752467346,-0.40127268182253906,-6.084845925752594,6.742118231857788,-6.530832374615966,-2.688797144503167,-2.4211690360967926,3.479781185503455,-10.163667541288147,-1.694526940927144,-0.17014521940723284,4.824882181589622,1.9034801388298568,-0.6838474250821794,-0.7861546892944468,-4.837486086821473,1.3580503887074293,0.8020501206668517,-6.969529657956679,-0.27233701259178034,-1.4845091897528182,-1.872955243083817,-2.876944995857113,5.151702888927982,-1.4090486819987174,1.4480422388026921,-10.917929564779573,-3.2205034896440985,-0.724842917719258,3.247012438478032,-1.68086014355931,6.195509838651167,8.730536643487998,4.512637178925979,-0.9763027978219754,-4.920994526910889,-3.7642904459086264,-0.483260819969939,1.2912465946159506,3.7174379716353694,-5.7208231495653195,-3.7573220722813616,3.398466587190543,-1.99377719959804,-5.054009297685569,-2.581085777322442,-3.70074653628121,1.6562185761065134,5.46954728110724,0.39606366254129466,-5.39026668725023,2.625326001690357
SLR20,-18.84947131047385,-12.47649701641742,0.37228264579489656,-16.770638422827332,-0.12789909170223898,-20.019530201262693,-3.3282336645337196,-1.5507989161980025,7.104807857551358,7.014515143639259,1.692155706254959,-4.5441116171383085,-3.579333886547956,-18.449458218138357,-9.847583246878095,2.1528458547695966,-9.641952625913548,0.39755029314421264,3.511309704035993,-7.386408576199163,-7.876343518265393,-2.327807817150715,4.5156290645556165,9.71767474259195,-2.7799737223384695,-2.3480779057154813,-7.350588582875875,10.235755963539027,-2.0142747045247793,-23.708488340876947,3.8639230057531773,8.263177247681572,7.493696041563446,-15.906715099997578,7.384117324820478,6.342212526136707,-1.5426430928212087,10.313256801361277,3.5973785868283223,-3.9246877973290193,-10.065591118083232,-2.1073527060058272,-5.705387292832554,8.156576776268265,8.661657438167916,2.1570385483145076,-10.643349941030698,-6.471924549483813,-4.037669830298991,-8.788680241579838,3.2711830389454803,-1.6426854943350024,-12.190315708554325,-1.983593652612355,-3.4629772908548997,1.6360301654152594,-9.453840281879982,7.071274939992522,-1.6064233904272975,1.9981230444522773,4.817223287850586,-7.097741622374759,14.414747044794472,-10.127377116282089,-0.437026609922433,2.4861291496133755,-8.855548089176196,-9.129135291408694,11.290134710027242,-2.3059548942743073,3.6154995069405844,-2.2004553762015338,-8.05992114675745,-3.7599441953165442,2.501486425438637,-2.375294918509661,-2.585525996229684,-0.21798600264138504,-1.3463907425194883,9.049094766888965,4.783067093152188,-3.6347519354892412,2.5347519490389945,7.292565546708059,-3.4962289434851357,3.4608780925134557,-3.0747149122947652,-4.412273222358214,-7.727970810752522,-6.114530386151102,-3.464457881641131,-5.98757933716144,1.967884640825217,3.463741712402806,2.7093974136534618,-4.227023777831204,-2.294328227599712,-1.5156583090266693,-1.9068818231741251,-3.7546556639144333,2.316745369628673,3.496598766116771,-2.202286551330845,1.5595221410581497,-5.6722254535989185,8.018018205562457,-2.8061711936891336,-5.002005328545431,-5.353423238312955,-2.473514865375717,2.7660573558480155,5.918573556207552,-12.56237003520951,2.4011455137184625,4.8991781860527395,-0.9900339332777658,-5.8915401314513565,-0.6025330091471662,-3.375875086319353,-1.1826273064880324,0.9743985619541067,-1.8428447881562644,4.623720661128003,-6.148563574651429,-3.8758137280790455,5.340823873255938,-3.8938121844078535,2.505259945706926
CL34,1.3343525550123214,74.22949869943476,-44.604008262904955,-13.853047019155342,43.51367074575388,15.051614643331643,-41.37991363065614,22.299934805008032,-27.625179277450933,-6.296007272898956,-24.013392488288442,14.200259819021639,-21.170751195795702,3.8284293016337103,-9.58992187498896,-0.8014991244697093,-15.735884319435524,12.9809809405865,0.9924985611043999,2.048570810092507,-15.554110150640204,9.025730922520784,-2.8833921390989024,0.27966354521550635,-5.186075092230217,-7.936862608927469,-6.002693517791815,1.6869267241729813,-2.909205438634852,3.0118029602307543,-2.220493709511224,-3.155741868576621,-10.133623570525257,-6.695702212564551,7.927052309620183,-4.924997038317337,6.516250822223149,-3.293855030765923,-2.606335445391829,-2.1023746126823823,-5.086401070518875,0.31179280694837896,-1.3267258851525439,8.289192566091737,0.22168448865843518,1.4995513160486682,2.890400697933213,-0.9091238782511992,8.166860124864442,1.9713445674522154,-1.6381733575355601,-1.8554436282954647,-7.840800874603921,1.4516216501369104,1.3739405687202326,-9.638954675258342,-0.5130415511532476,-4.276843690014794,1.7526734828293313,-3.962134831645303,-3.496263069844572,2.815205492142793,0.26488512637239064,7.339771337547615,-0.09064119411328074,4.63112915091194,-0.32640068283773516,-0.7714434895811346,3.52840835415012,-2.4108271597767548,-2.020801231338192,-4.262152609001705,2.600855957132465,6.104451581567261,-5.072264894624493,-3.127156287342668,3.733293475884646,2.2368380012213636,0.25559808085874053,1.418987341315845,1.2667493435724486,2.0506415354693472,-0.0897260734915481,2.9839495448948155,-2.7720398062030305,3.9773008852865765,-0.6899366342589089,7.965244214308433,-1.735861393109465,1.5849584698761618,3.0943566047682567,-2.134809530253894,0.8695856674301174,-3.0422964776011967,5.21136882627021,-2.5257930438893244,2.6974198267740794,2.1592594422798936,0.7909431872066176,0.6380552946847907,-2.077601372052667,0.8647117018143016,-0.8297508972574493,-3.2754136562519762,2.7174106261722106,1.5894971467097383,-2.1677458347698777,2.072531884043535,-1.2393967742155656,1.4897744544729155,5.598781375414508,-0.011443064754477364,-1.8514994958980047,-0.2889969409664733,2.55327787067354,0.8605146791335135,-0.22833670602078376,-1.2217209502286912,1.237462383406362,-4.310452061538176,-0.6893831148877961,2.760239899540297,2.483994330976667,1.5730495141747984,-2.1330986953081363,1.10445181958751,1.1666401654038223,-0.4224192285224226
HMCB,1.0317915943962288,-49.70695922826064,-17.266152756616624,25.981250801865013,26.787070458732572,4.180250074681832,29.396690938798596,8.320070926308063,-9.719611975265321,9.666136880990852,11.760708161432657,11.204876370280227,-2.8969849515663415,1.8893130840768002,4.7448225233083186,5.457520607948143,2.2434488986415664,6.519375151289508,3.8441163787513166,-4.495631041203092,4.11538615204299,8.663944121952559,7.456134107720969,-5.9823404776230555,2.089531142257839,1.8699511372974202,6.449652795644415,-4.638556758554469,-8.983647143367689,-0.36997865880088526,-0.5616628831581929,3.028451025317357,9.620502723754463,-1.7708590788276795,4.5170693461199845,-1.7653782280418775,-0.007588888258803341,4.876111437509769,5.353572710460804,-2.2033378715917507,-2.0549376980479686,0.4229459905906748,-1.517807502289395,10.485268372969864,7.268063675602802,16.145334211250862,-1.9399878046378265,8.628548818443631,1.415734993132784,2.1625589120742483,0.6555822077560992,-3.1421985944753366,3.0401418477210855,-1.8379719384450326,11.378373536020625,3.413804631058346,2.2720974266117446,-5.32158225200994,-10.764382458027574,1.1808744778696836,1.5988242070750898,-5.871737712046401,12.91202965877805,-11.568758867056406,4.021957486229451,-4.473832035339595,-12.159126410412593,-1.136393297232438,2.275730840001972,0.1600354368093905,1.9987139201815562,-6.010696704675258,2.162067898071062,9.341706461442833,0.6912478817701734,10.486503476684826,9.437514037879996,5.50674845257964,7.533981090377665,11.982768029568238,2.5148999400275183,9.756213037975746,6.001830538498869,6.110468487498057,-7.270503530678214,13.149741488208674,13.570322569595236,-6.208969970654607,16.675048510051184,2.1474468323562643,1.240159422177122,1.40063652964144,-6.961546784800906,1.3362495543301114,-4.0501047378144035,-4.098243730348212,10.586272329215605,-6.912901578448141,5.81534787970419,6.482927653427399,18.565525752663476,1.6245193444157195,7.165956608295808,-10.067351415446913,-7.4586676845873905,6.053081643387376,-3.974379947675382,9.698795805518182,0.9535991139711163,4.277695243682789,-10.47829620393417,13.20535468056837,-9.677747983830086,3.863198225708772,5.690179065903961,7.427606875075934,-6.957759674735482,14.395784229205338,-0.4387614303996696,-9.617088917330662,8.188196979426353,-14.142739182148057,-9.084173725156974,5.277078994395531,-13.184096112302791,-4.6781374677206875,13.288175615953097,2.4897152739431228
MOLP8,68.81673331290547,-5.6111502132938424,10.503411388938499,-10.062459025694087,5.8263213321711405,16.223764923792622,-1.3641822554075933,2.4094499998823404,15.221664878348015,-26.71938955876669,8.013607658068821,-35.154400445626756,-21.43113599443419,-0.29954668339575835,25.227933294462854,-8.102996120956952,20.62640652690775,37.01165758790186,-9.411045515807523,-2.543139524487124,-14.250355909546823,-29.288245702329746,32.40095404799813,13.01737782320933,10.749279950260883,2.91634065272814,-3.357384912892201,9.04800363587583,-3.9826141139494737,-6.8849028631357925,-3.3069433563983237,-6.408314113227836,-3.986692689750637,1.6121132385153116,0.1533995612107428,-3.5829526456673464,-0.17020944514061767,1.75803618356822,10.104315067723155,-6.192543901524886,-5.088844354062748,3.698747556800947,1.978705825094574,3.9632824055472904,-4.171606075556548,-6.181473107301578,-5.596498986197308,13.950011918678372,5.97195494933022,-3.9183181630346473,-0.5279075405631153,2.7098550365328906,-2.746711968609015,4.586077054127873,-1.8361187191428765,-8.401573017250914,-8.462820341408456,7.585105971352219,1.3691953075187637,-0.3498132489286115,1.3696291530158038,10.756443015250971,1.634045320111236,-5.476837018702812,3.1448789239588377,0.5664961545305892,12.11457508632584,-1.298217790350963,2.9129782019457084,5.521474582970949,4.196805456506087,-1.936948992312984,-1.7874500793147894,-2.716890634916195,-4.609515381240841,6.559460885152595,2.887552131960591,2.6793260660135525,-4.685522212897917,-6.233639662400635,6.331600616974429,1.166012490735094,0.9588320792495449,-1.0213213150959348,5.855544355261481,-4.205587792460095,-1.9340145649773575,-3.3673309864841583,7.645613904130966,-2.867221627912821,-2.652169285039154,0.18663403142476997,-6.915529540910949,-2.8757647237346236,1.4492510579237723,-0.1590156648945951,-8.223305992695666,3.4965356480231686,-2.0433561831637688,-5.4193799416921316,1.1741385502307926,2.6616185074156453,-4.0696151250048755,-7.028187730235656,-2.7794644360686815,1.0980505226109287,-2.581364827659519,6.884113940480528,-4.537154274829944,0.733298463300328,6.713058869790577,-6.256196961299133,-7.2291935204296385,3.2560286091770476,17.752251235380722,8.790241723386512,10.890653859547854,2.5789308225169463,-10.138143942743392,1.2473901712992057,-2.9417945796982004,5.287375865323545,2.129117544365519,-0.20622657808241673,5.8886300360147885,-2.8954815111890353,-7.616021996217166,-3.715176632478627
SNU489,-51.64124062781741,-59.07153812412964,32.62800777464175,-9.812852848577613,-12.055712924514705,32.11688210376446,-20.20533411197559,3.3540005783511218,6.624034771831331,-11.359166377832782,0.033327925118165264,-1.7732943825632876,-0.8850974356981316,13.612734702500362,-17.43405359338546,-1.810791329122317,1.8808550675693645,16.783150586928613,-16.279290871611728,-10.336983461766696,-22.384691940857934,-9.169199574380041,-6.195858205344005,-9.26193877842209,-5.303078956101806,3.7102078512599275,1.612548213397343,-0.9699421231454843,1.4937175212394156,22.901884270352767,8.45210077472988,9.336636613822016,-2.9315494392165,-2.8883028518714218,-8.594388787227102,6.90430703276917,-2.512495285443955,-7.2973993603362475,4.457869615974219,12.022608767964194,9.093317057244827,6.421489595948018,-4.575725558169291,-9.006412052964613,6.284306165322275,5.788272637277853,-0.23825852302327855,-4.227515561637898,-3.353188376401287,-17.796720063257748,-2.58412875168355,-6.224855270537875,7.292675314530744,1.6417469615959455,0.6198561771514527,-11.914274364580583,7.646346596368948,-5.091384808343867,0.7625094299757461,1.651398476417159,-5.5219125200702575,-2.8979761277089344,-2.2534199086108107,4.286873505893154,-1.3356359096282802,-4.146924938268995,3.2759310089582563,5.545945574391356,-6.417893925893861,4.447890222338715,-4.1854026715498405,2.226529447925804,-0.22498856348639218,0.2945175019496508,-1.2496922921123512,-2.8346590354832597,-3.284701827833349,3.3085902719997202,1.0542699625819092,4.6655562954222525,2.779495459075686,-9.35379462377083,-2.9573704037121784,0.45263328784863854,-1.95725916169353,-6.325144817775206,3.7650464191833124,0.1747153616377248,-1.154220276709893,7.481441166727835,-0.9274479432203824,9.996860469719131,-6.891159878820808,1.8960775939118997,4.389439223167487,-0.7761209225140291,-1.2474336142832576,-2.0907695367238834,-4.375013738073784,-2.789386569033585,-1.1002376157225693,2.6020719605585274,2.9112196900634517,-2.1488679764756817,-1.0726533727395906,-1.377059860185867,0.9823476498502379,-5.133870628115383,0.26225001931198777,4.137359305393161,2.0269155400295147,2.5008859047463035,1.0108591908387914,-2.2133533481406245,-1.5787226956032798,0.4712727219443367,3.086175143245727,-4.781796852093185,-2.537200518013098,0.7183911614356104,-2.1314910220474816,-5.539091411904356,1.5075267698465888,-1.1505324639023966,-1.5709255547398846,-1.9025037017383186,-0.21895796258889424,-0.6620463843714872
AMO1,100.30464801892789,7.92145806687648,23.079294551048353,-16.00976164385543,8.051467704935018,0.5749935621944292,2.094476843072701,3.34035900569589,21.601293699972864,-29.105297131537654,-4.286226414054612,-22.495129423130862,-17.438772606380518,0.31013503174653906,20.252216320559864,-14.0212205771182,10.926944193232144,21.12080366187853,-12.442022697852986,8.879343000870065,-6.386715924347432,-17.665940760947276,25.596889770286268,3.0180534210154724,7.249148644133782,-1.9699475937478075,1.3218962114743997,1.2076487131274352,-10.7474456999826,-4.689388425786476,3.2038125304472618,-5.359597052199931,6.791817507083041,4.410147635097079,-0.7609375443177228,-6.94289221138531,2.6283007892146872,0.7405877231422328,6.587809013896268,4.684004188433838,-5.447384299219613,-0.2225152260652546,-2.71336963490758,-1.6557205891813027,2.93228695783339,-1.484189590912778,-0.8007519133828717,6.027023230379959,4.511083724659935,5.3833769093563095,-3.9459230409814023,9.157373251104497,-3.57819228823461,-1.145088556506285,3.3481538653162324,-2.785255102194876,-3.0738068892927584,3.455414743597511,-0.435262451017749,0.05698438926090995,1.8240194319003815,-2.290915521645287,1.4798862685275038,6.32587788055272,-5.66777259777118,2.98863951241025,0.22417165483484902,3.866623650971754,4.140296116711058,0.8766364503295014,-0.9072072482412584,0.4811483447191999,-1.529096953445005,0.7039986764364362,3.5880879463241016,-6.112269657212561,1.9027558312977386,0.37764254323262403,-10.810551509785181,0.3476216721608279,1.8057204487093403,-4.571259578261535,-2.315031552897048,-1.410710610651769,1.3948110304596277,2.485579243806275,1.416444904371558,-0.4756103094064513,-0.5618637337138614,-0.988259099785476,1.9259286811866412,-1.067560470371614,-5.019110947305192,-0.5744225377569357,-4.98858253153689,0.5705603399975002,-9.515464375392206,-0.9720577688612669,0.8470952449328495,-2.0529345807242634,-3.062110273018593,0.29020457103792613,0.5873644083710118,-3.041833156936807,1.3240344217605524,-8.473814858279544,2.295502485973305,0.8267888689250197,-6.530877357164668,0.7127792411771603,4.747934854061352,3.82063927382667,-1.4152783111262046,-2.9950475719887146,1.6903581574418034,3.8573789366354414,-1.20224329837676,2.5650790714708487,-3.1044337492987184,-3.192810513813578,7.304521576034162,0.40881924398380937,1.319285594570791,-2.062055250558738,1.377265054596941,-0.7255706569434002,1.7625978072627413,1.9487944713166887
